==========================================
# 0
0.987732
0.462233
0.383068
0.70394
0.641224
0.180029
0.260652
0.380322
0.278909
0.284005
-0.05501
0.0967437
0.24659
-0.146129
0.445021
0.382031
0.0910672
-0.350581
0.681234
0.675741
-0.308853
0.0421461
0.315256
0.463881
0.475036
0.488144
0.55678
0.184112
0.53032
0.323038
0.40318
0.131001
0.512894
0.760674
-0.530967
0.2931
0.760704
0.67629
-0.239067
0.152837
0.119022
-0.543968
0.954741
0.980743
0.683309
0.393429
0.830409
0.254555
0.365728
0.314524
0.0219733
0.535813
0.391873
0.212836
0.337748
-0.166637
0.0338755
0.175207
0.607471
-0.313196
0.986053
0.980041
-0.287002
0.399945
0.289041
0.448744
0.158177
0.95587
0.809778
0.232615
0.63455
0.545009
0.781933
0.014881
0.73878
0.237492
-0.0854
-0.18934
0.098624
0.630482
0.0743431
0.545213
0.863277
0.202606
0.547777
0.391766
0.81402
0.605976
0.789972
0.850826
-0.147594
0.927488
0.265786
0.651173
0.721305
0.050325
0.290017
0.254915
0.915464
0.147557
0.672445
0.546922
0.737693
0.737907
-0.125742
0.190466
0.357311
0.136387
0.28222
0.930143
0.626331
-0.170086
0.906491
0.623005
0.110538
-0.590448
0.808567
0.780001
-0.609055
-0.009015
0.665535
0.697977
-0.407581
0.753612
0.477093
-0.435914
0.595373
0.130454
0.121012
-0.786279
0.486959
0.179751
-0.035969
0.323362
0.407981
0.968902
-0.266045
0.31901
0.451827
-0.29686
0.259316
0.582476
0.371349
-0.270684
0.982879
0.235603
0.350621
0.846431
0.155065
0.384747
-0.203238
0.0538347
0.914182
0.006006
0.209601
0.368908
0.458632
0.552599
0.483657
0.644856
-0.581719
0.566128
0.800082
0.620267
-0.0689627
0.272317
-0.13582
-0.268429
0.630265
0.642921
-0.054982
0.319565
0.05027
0.304672
-0.02714
-0.038639
0.555495
0.27705
1.05144
0.159093
0.799512
-0.780407
0.040861
0.5163
0.020716
0.070446
0.067272
0.433454
0.180389
0.0567644
0.515885
0.0542619
0.349574
0.259163
0.0634175
0.193176
0.951262
0.510492
-0.293664
-0.224235
0.263527
0.910886
-0.559197
0.223792
-0.00936
0.339915
-0.248894
0.41496
0.107608
-0.252486
0.462334
0.749828
0.685293
-0.2957
0.813968
0.156304
0.001193
0.593136
-0.18999
0.363494
0.143553
-0.077041
0.303088
-0.524174
-0.086319
0.746257
0.566991
-0.121229
0.433738
0.360735
-0.384207
0.507633
0.665545
0.077807
-0.375549
0.710266
0.347279
0.237742
0.407788
0.235267
0.253771
0.753594
0.113804
0.376995
0.38703
0.164861
0.487899
0.7081
0.902951
0.182073
0.963713
-0.268477
0.880642
0.40379
0.337483
0.18276
0.940825
0.586993
0.081845
0.913694
0.218735
0.152184
-0.244948
0.989502
0.699188
0.104895
0.062368
0.429536
0.018247
-0.246229
-0.0742729
0.923704
-0.360338
0.50795
0.817652
0.655333
0.010669
0.733592
0.515897
-0.137819
-0.395514
0.251653
0.435325
0.166292
-0.544652
0.658098
-0.207443
0.104575
0.292233
0.947233
0.760399
0.090686
0.377819
-0.179699
0.867946
0.93997
0.558641
0.459548
0.202307
0.988586
-0.56707
0.850032
0.569109
0.337901
0.342335
0.329646
0.266854
-0.044227
0.193365
0.248979
0.332417
0.565252
0.815729
0.422364
-0.18674
0.75287
0.162691
-0.149138
-0.376989
0.527174
0.76069
-0.100882
0.036305
0.358867
0.31373
0.406659
0.87949
-0.166124
-0.430662
0.3155
-0.026838
0.250444
0.151949
-0.405301
0.083181
0.091882
0.470003
0.643867
0.035673
0.30553
0.303507
0.555834
0.053066
0.220283
0.177618
0.121006
0.967132
0.532426
0.628803
-0.446461
-0.535118
-0.007483
-0.030036
-0.178967
0.024439
0.323582
-0.339463
-0.440754
-0.304022
-0.297644
-0.411945
-0.547356
-0.314795
-0.465426
0.067101
-0.837733
-0.605353
-0.544365
0.062191
0.18211
-0.220368
-0.411954
-0.059221
-0.394864
0.074816
0.086547
0.362584
-0.019285
0.047658
0.402536
0.011237
0.543693
-0.164611
0.098895
0.075213
-0.102417
-0.079061
-0.453664
0.083511
0.232157
0.004999
0.232759
0.202637
-0.342821
-0.270186
0.116605
-0.09852
-0.066567
-0.488699
-0.244246
-0.410389
0.382147
-0.364489
-0.056954
-0.563927
0.354253
-0.024207
-0.320533
-0.625901
0.240724
0.38706
0.016941
0.298688
-0.394876
-0.066976
-0.19913
-0.137144
0.119617
0.303198
-0.355016
0.279162
0.185784
0.675332
0.3687
0.432331
0.221552
0.279778
-0.371612
0.209445
-0.304843
-0.277667
-0.425172
-0.545677
0.087967
-0.578649
0.46642
-0.448454
-0.233403
0.115485
0.270855
-0.252965
-0.553429
-0.501486
-0.514396
-0.488943
-0.272079
-0.062508
0.009241
0.350468
0.184265
0.029902
0.193664
-0.124705
-0.01319
-0.343004
-0.290054
-0.372515
0.244426
0.188965
-0.041939
0.376623
-0.65934
-0.501975
-0.248253
-0.210428
-0.450224
-0.163643
-0.189627
0.680651
0.112
-0.365496
-0.11142
-0.552605
0.050166
0.176757
0.074899
0.399725
-0.191531
0.009803
0.291049
0.386969
-0.1051
-0.15913
0.022587
-0.269048
-0.591913
-0.118653
-0.187286
0.269939
-0.46932
-0.107352
-0.249953
-0.180218
-0.230604
0.090054
0.181732
-0.440175
-0.475881
-0.338914
-0.316605
0.247957
0.366491
-0.045204
-0.283065
0.272616
0.309482
-0.202487
0.007236
-0.153026
0.149351
0.292239
0.169543
0.152403
-0.038853
0.657335
-0.181631
-0.463591
-0.171145
-0.339079
0.08934
-0.627519
-0.508435
-0.592758
-0.495068
0.187112
0.387112
-0.568813
-0.38385
-0.239167
0.273757
-0.542677
-0.049831
-0.290582
0.112333
-0.22045
0.19642
0.451109
0.18883
-0.482116
0.061406
0.066686
-0.340675
-0.291824
-0.475698
0.058254
0.098874
-0.218427
-0.376147
0.013208
-0.165569
-0.310532
-0.191662
-0.020606
-0.355486
0.330509
0.079647
0.257915
-0.394336
0.235649
-0.237297
-0.780377
-0.432392
0.368081
-0.268365
-0.247774
0.038081
-0.106803
0.023716
-0.257216
0.358769
-0.223798
0.172423
0.203705
-0.54641
0.162444
-0.108884
-0.652931
-0.169802
-0.202667
-0.261925
-0.6859
-0.183514
-0.357897
-0.105356
0.066088
-0.286789
-0.258681
-0.012711
0.042759
-0.256584
-0.301276
-0.714701
-0.005521
0.380987
0.31757
0.205017
-0.305252
-0.461568
0.261385
0.251802
-0.461324
0.196136
0.292087
-0.568474
0.334355
0.353429
-0.559004
-0.437986
0.19277
-0.216517
-0.530531
-0.083584
0.123157
0.172954
-0.124937
-0.170656
-0.660744
-0.372475
0.099951
-0.102762
0.283511
-0.175283
0.097064
-0.195914
-0.32519
0.095337
-0.38865
-0.496329
0.486645
-0.385504
0.031031
0.389959
-0.238896
-0.316016
-0.333705
0.586267
-0.533989
0.086383
-0.588913
0.085324
0.50047
-0.106659
-0.355904
-0.029609
-0.244368
-0.192059
-0.47405
-0.050209
-0.163158
-0.476308
-0.552208
0.135191
-0.046699
-0.419666
-0.211499
0.395514
-0.11854
0.098437
0.03621
-0.282608
-0.191183
-0.026475
0.230329
0.103586
-0.136363
-0.088418
-0.719034
-0.559636
0.037471
0.38638
-0.378842
-0.534507
-0.593469
-0.399371
-0.551353
-0.13217
0.058071
0.131874
-0.086483
-0.25045
-0.07196
-0.255864
-0.392392
-0.217054
-0.243596
0.547233
0.112201
0.192209
-0.033598
-0.115744
0.060137
0.292108
-0.626542
-0.470998
-0.331285
-0.185528
-0.268905
0.274538
0.199463
-0.04615
0.018671
-0.406543
-0.198987
0.163451
0.278628
0.352544
0.291781
0.33285
-0.091745
-0.438618
-0.362148
0.378576
0.513266
0.337529
-0.216666
0.27871
0.328516
-0.531446
0.288455
-0.316901
0.21286
0.053035
0.032405
-0.570031
0.223969
-0.599237
0.136839
-0.299414
-0.320481
-0.425413
0.066259
0.242982
-0.089151
-0.246055
0.461608
0.296124
-0.484436
-0.297623
-0.036671
0.245698
0.015235
-0.580612
0.180258
0.142851
-0.075784
-0.441212
-0.439839
-0.183178
-0.163616
0.193878
0.018885
-0.086618
-0.56469
-0.188702
-0.316483
0.189474
0.234986
0.014817
-0.493408
-0.003864
0.05623
0.219861
0.207236
-0.319758
-0.153554
-0.379534
-0.004889
-0.16317
-0.752483
0.00976
0.134468
-0.556999
-0.180737
0.235047
0.203247
-0.395221
0.123869
-0.13086
-0.095428
0.347966
0.078143
-0.421192
0.386389
0.384436
-0.120402
0.171783
-0.074734
0.185314
0.012412
-0.196567
0.331233
-0.108368
-0.060167
0.52465
0.029475
0.194427
0.08923
0.051845
0.275118
-0.384875
0.035884
-0.459432
-0.042427
-0.282424
-0.508109
0.343745
-0.449391
0.283004
0.10636
-0.164003
0.164275
-0.12107
-0.416868
-0.514609
0.355077
-0.446095
-0.277328
-0.146525
0.050673
-0.111594
-0.206586
-0.494916
0.14514
-0.16624
-0.359941
-0.290542
0.221345
-0.729472
0.034114
0.013169
-0.343715
0.316837
-0.126749
-0.533073
0.066311
0.118497
-0.064095
-0.4129
-0.652565
-0.547713
-0.50289
-0.167013
-0.731852
-0.227061
-0.188009
0.081784
-0.329759
-0.564232
0.17279
-0.518424
-0.366045
-0.47405
-0.453572
-0.335374
-0.436064
0.125538
-0.201926
-0.398871
0.052351
0.049821
0.107367
-0.224244
-0.025336
-0.016089
-0.316514
-0.132792
-0.424458
-0.148936
-0.214673
0.113083
-0.7
-0.456157
0.25294
-0.45989
-0.373492
0.049413
-0.543501
-0.157533
-0.141398
-0.19982
-0.43057
-0.412311
-0.46932
-0.418567
-0.028907
0.133085
0.184671
-0.273836
0.086145
-0.467244
-0.126618
0.329807
-0.233564
-0.182781
-0.352574
0.214713
0.221741
-0.273971
-0.218519
0.276888
0.205445
-0.524253
0.095883
-0.355058
0.26162
-0.45645
-0.26928
-0.21616
-0.660204
0.148183
0.227937
-0.426463
-0.116617
-0.390551
-0.122385
-0.305496
-0.001715
-0.532371
-0.514609
-0.048866
-0.092215
-0.056386
-0.583541
-0.635789
-0.699969
-0.378631
-0.42689
-0.336241
0.174386
-0.065743
0.261446
-0.086282
-0.107218
0.135618
-0.596185
-0.500784
0.242473
-0.464324
-0.346443
0.208243
0.216227
-0.314185
-0.132609
0.438536
-0.08337
-0.009079
-0.107218
-0.538841
0.090237
-0.468099
-0.274429
-0.427815
0.297885
0.279229
0.495016
0.563103
0.528159
-0.021656
0.131468
0.141865
-0.240959
0.189035
-0.125925
-0.564293
0.07513
-0.140757
-0.126078
-0.193463
0.34583
-0.584771
-0.4511
-0.789318
-0.72866
-0.251338
-0.552678
0.334019
0.102463
-0.217704
0.075405
-0.366442
0.440266
-0.504376
-0.6541
0.217295
-0.577538
-0.508567
-0.096496
-0.007282
0.202005
-0.21558
-0.016599
0.016056
0.32461
-0.506369
-0.240675
-0.126859
-0.388485
-0.38045
-0.162548
-0.177013
-0.346544
0.187164
-0.14796
-0.364437
-0.377987
-0.163869
0.319361
-0.244807
0.005304
0.140104
0.406055
0.020176
-0.126893
0.334874
-0.131693
-0.229353
-0.021125
-0.161693
-0.382159
0.275546
-0.495953
0.142259
-0.528822
0.009626
-0.348814
-0.042195
0.038292
-0.287408
-0.507743
-0.204266
-0.393011
-0.539116
-0.221723
-0.537468
-0.320624
0.283551
-0.683642
-0.446016
0.016321
-0.046498
0.320978
0.327091
0.34644
-0.014319
0.444639
0.031837
-0.004065
0.27279
-0.504355
-0.115885
0.395117
0.090359
0.04803
0.460601
-0.481658
0.202078
-0.449828
-0.302649
0.213388
0.596918
-0.161144
0.173156
-0.723704
0.088943
0.264467
-0.141093
-0.271377
0.011469
-0.566277
-0.185846
0.152321
-0.56343
0.37644
0.21222
-0.260381
-0.748973
-0.358022
-0.424915
-0.386798
-0.579614
-0.267397
0.199463
-0.126414
0.272188
-0.021094
0.054601
-0.070415
-0.070751
-0.135804
-0.36563
-0.231773
0.425108
-0.095895
-0.056526
-0.179556
-0.26813
-0.312546
-0.000107
0.378759
-0.36751
0.184692
-0.065163
-0.077248
0.468352
0.029923
-0.22927
0.409848
-0.206577
-0.216404
-0.440581
0.28583
0.066494
-0.319169
0.06111
-0.327116
-0.387744
0.272921
0.245616
0.190905
-0.316849
0.367101
-0.402728
-0.332292
-0.147441
-0.427998
-0.295456
-0.804254
-0.029112
-0.446025
0.015467
-0.210074
-0.28399
-0.188916
0.340519
-0.195782
-0.531019
-0.128962
-0.91583
-0.337358
-0.253697
-0.180859
-0.014185
0.360692
0.320255
-0.337367
-0.547905
-0.306186
0.058101
0.437468
-0.038856
0.069485
0.212128
-0.335984
0.420682
-0.041978
-0.309198
0.357906
-0.639421
0.339756
-0.456755
-0.198071
-0.458242
-0.096353
-0.512381
-0.213984
-0.738109
-0.845402
-0.38511
0.220429
0.340245
0.084805
-0.000586
-0.070504
0.261629
-0.034034
0.047176
-0.368438
-0.038206
-0.081503
-0.386544
0.211356
-0.464904
0.213898
0.120673
-0.208621
-0.454555
-0.033476
0.207712
-0.091745
-0.478039
-0.028816
0.042671
-0.199475
-0.278762
-0.357418
-0.070748
0.11384
-0.064034
0.312983
0.038752
0.030116
-0.167034
0.044307
0.298608
0.026811
0.200269
0.111103
-0.331001
0.172423
0.485739
-0.689807
-0.161602
0.06451
-0.392413
-0.446217
-0.330451
-0.283242
-0.08132
-0.598169
-0.072701
0.000909
0.005365
0.290194
0.118925
0.350224
-0.297439
-0.789288
-0.120991
0.130143
-0.394073
0.199707
-0.47055
0.283398
-0.637468
-0.109561
-0.753856
0.054561
-0.478414
0.186767
-0.43629
0.301303
0.325709
0.413572
-0.15089
0.198181
-0.17513
-0.199768
-0.424152
-0.460967
0.193756
0.253908
-0.470083
-0.455129
-0.066362
-0.121989
-0.021845
0.282617
-0.55931
-0.406757
0.231306
-0.498251
-0.57878
0.41641
-0.567803
-0.305264
-0.464489
-0.146312
-0.199496
-0.112693
-0.448396
-0.135133
-0.534498
-0.134492
-0.110208
0.054378
0.318119
-0.155205
-0.660418
-0.25457
-0.387127
-0.111634
0.030287
-0.106174
-0.147853
-0.219559
-0.264052
0.097195
-0.01731
0.060756
0.096808
-0.543388
-0.06325
0.326807
-0.062416
0.245973
0.348384
0.4099
-0.335405
0.145863
-0.123698
0.331059
0.022578
-0.401386
0.064928
-0.056404
0.392261
0.239769
-0.125794
-0.331895
0.010566
-0.237135
0.110135
0.026109
-0.005835
-0.526023
-0.213239
-0.320878
-0.352272
0.09158
-0.548903
-0.321235
-0.561721
-0.451427
-0.697794
-0.365355
0.016959
-0.847569
-0.564357
0.105853
-0.431184
-0.740062
-0.255467
-0.877123
0.073055
0.122404
0.008631
0.045405
-0.046303
0.458007
-0.397653
-0.33693
0.402921
-0.09273
-0.446583
-0.555107
0.2575
0.228071
0.38291
0.043718
0.310611
-0.213819
-0.041664
0.162139
0.438902
0.098019
-0.309116
0.285821
0.32758
0.081243
-0.292065
-0.10907
0.07336
-0.229762
-0.46762
0.231242
0.147786
0.251933
-0.700388
0.011966
-0.199069
-0.221326
-0.456166
0.155943
-0.212079
-0.585382
-0.415232
-0.331397
0.098679
-0.529075
-0.454155
-0.091736
0.072463
-0.21268
0.235423
0.067501
0.278506
0.015162
-0.577905
-0.227805
-0.05612
-0.541038
-0.464568
0.004532
-0.390216
-0.267776
-0.476684
0.555779
-0.502219
-0.015946
-0.102853
0.015619
-0.333055
-0.247328
-0.203818
-0.195874
-0.256807
0.202191
-0.497488
0.052342
0.202274
-0.501263
-0.062804
-0.661995
-0.112558
0.082528
-0.530265
0.282818
-0.156709
-0.408499
-0.128471
0.016919
-0.253413
-0.206497
-0.655455
-0.682504
-0.084201
-0.217261
-0.542964
0.127409
0.080407
0.097043
0.216684
-0.440074
-0.308875
-0.18796
-0.486868
-0.203595
0.252596
-0.131581
-0.438853
-0.117502
0.459197
-0.4111
-0.025245
-0.270461
-0.084002
0.240645
-0.195111
0.127308
-0.174267
-0.500296
0.371007
0.274264
0.022691
-0.326127
-0.382107
-0.268212
0.135395
-0.060302
-0.570571
-0.191742
-0.040922
0.150267
-0.470113
-0.120301
-0.08099
-0.029926
-0.495291
-0.347258
-0.093811
-0.406931
-0.628526
0.176736
-0.233485
-0.699991
-0.367431
0.110611
-0.075246
-0.388372
-0.659288
0.151378
0.324497
-0.206272
-0.591302
-0.270147
0.265352
-0.429463
0.194488
0.180654
-0.581191
0.302432
0.092761
0.391812
0.303623
-0.015632
0.064837
0.141002
-0.197644
-0.17861
0.337162
0.224335
0.300327
-0.46288
0.000565
-0.316147
0.027665
0.472036
0.041002
-0.459767
0.086624
-0.073138
0.133329
0.236717
-0.255538
-0.691211
-0.771007
-0.599451
-0.025913
-0.264919
-0.530631
-0.271407
-0.577447
0.251466
-0.444539
0.202637
0.090072
0.121354
-0.394296
-0.258882
0.199289
0.241835
-0.067003
-0.406351
-0.062438
-0.257146
-0.428364
-0.515952
0.352239
-0.174001
-0.313392
0.208771
0.280694
-0.101144
0.395108
-0.403735
0.396908
-0.138639
-0.167461
0.134449
0.254579
-0.299667
-0.205945
-0.528617
0.409421
-0.551506
-0.217817
0.096689
-0.399371
-0.135679
-0.70701
-0.191327
0.374059
-0.111582
-0.029029
-0.525587
-0.573226
-0.366323
0.064299
0.288711
0.156075
0.064418
0.012232
-0.362352
0.092434
0.021448
-0.105408
0.274242
-0.100821
-0.250887
0.076208
0.510855
-0.381222
-0.519605
0.176186
0.136024
-0.351701
-0.26335
0.393957
-0.438902
0.123969
0.297763
-0.176565
-0.196576
0.197256
0.299564
-0.013901
-0.088375
-0.516959
0.014389
-0.585656
-0.059639
-0.438679
-0.22917
-0.583123
-0.220267
-0.286514
0.469634
0.056688
-0.253938
0.074987
0.051009
0.373125
0.240397
0.284954
0.070705
-0.420389
-0.219263
-0.285498
0.440144
0.567916
-0.585678
-0.445302
0.287295
-0.550011
-0.383532
-0.654344
-0.505231
-0.230381
-0.418546
-0.172295
-0.129087
0.213797
-0.58702
-0.003629
-0.489789
-0.044014
-0.28099
0.141722
-0.000259
-0.537519
0.218415
-0.445769
0.327265
-0.207327
-0.23509
0.27752
-0.352208
-0.575402
-0.204978
0.089505
0.364446
-0.562523
0.206024
0.393988
-0.420164
0.381903
0.470122
0.502371
0.374944
0.369115
-0.40857
-0.111661
-0.229435
0.110898
0.211679
-0.504224
-0.571325
-0.258986
-0.529209
0.081307
0.549309
-0.250645
-0.470785
-0.22682
0.21933
-0.339515
-0.342506
-0.47282
-0.23039
-0.412494
0.599695
-0.238945
-0.203626
-0.007566
0.017042
-0.051003
-0.49639
-0.115397
0.317927
-0.643388
-0.477926
-0.011756
0.180258
0.39881
-0.038246
0.410276
0.072793
-0.199545
0.153624
0.039851
-0.018409
-0.157329
0.237153
-0.489126
-0.252281
-0.125803
0.24994
-0.241517
0.022517
-0.129069
-0.324827
0.201022
0.146666
-0.376818
-0.596054
-0.521345
-0.640431
-0.266668
-0.331977
-0.020118
0.644731
-0.195953
0.199585
-0.512931
0.317875
-0.600876
0.074285
0.172646
-0.236036
-0.042457
-0.006372
0.376553
-0.370806
0.242412
-0.336699
-0.103098
-0.22566
-0.594018
-0.277032
-0.675249
-0.20448
-0.648058
0.584893
-0.245955
0.019251
0.076067
-0.063564
0.498413
-0.422993
0.066707
-0.536277
0.345708
-0.033454
0.34644
-0.14799
-0.118122
0.005487
-0.164266
-0.280917
0.115119
-0.515912
-0.379638
-0.361333
-0.068572
0.122678
0.003452
0.209055
-0.286456
-0.059255
-0.076516
-0.176302
0.153688
0.043403
0.319767
-0.299667
0.091742
0.031956
-0.473766
0.024348
0.110053
0.244053
0.175192
-0.437306
0.216288
0.130754
0.191833
0.20517
-0.054848
0.175658
0.061171
-0.11156
0.11092
0.16328
-0.351427
0.25989
0.141041
-0.197763
0.254946
-0.563042
-0.476858
0.009851
-0.112162
0.018549
-0.50405
-0.535759
-0.069994
0.00445
-0.084451
-0.169524
0.18645
0.379443
-0.371642
-0.033451
-0.408945
-0.281957
-0.11793
-0.484164
-0.645515
0.066146
0.205658
0.392004
-0.46577
-0.344234
0.389636
-0.437092
-0.391977
-0.39039
0.098242
0.339512
0.23231
0.19086
-0.15566
-0.324113
-0.533512
-0.044737
0.158446
-0.512625
-0.355324
0.261263
0.183114
-0.208121
0.175671
0.294742
0.224244
0.281722
0.5528
-0.235792
-0.310166
-0.568322
-0.244948
0.323276
-0.051643
-0.250441
-0.179913
0.175903
-0.062996
0.175619
0.170837
-0.378445
-0.447926
-0.162832
0.277163
-0.104239
-0.248039
-0.635698
-0.466848
-0.737285
-0.295782
0.073409
0.132026
0.216156
0.308353
-0.575637
0.119129
-0.055507
-0.575118
-0.042051
0.005222
-0.283096
-0.057433
0.119324
0.020319
0.046159
-0.585446
-0.325468
0.090002
-0.315253
0.095151
0.325282
0.115354
-0.189444
0.607926
0.42935
-0.462615
0.357967
0.077096
-0.268233
-0.332261
-0.048805
-0.447285
-0.285812
-0.133555
0.395788
-0.338578
0.367498
0.048366
0.184265
0.113788
-0.005133
-0.400653
-0.226972
-0.100534
0.0511
-0.416715
-0.014411
0.201782
-0.175631
-0.678384
0.199594
-0.037709
-0.232984
-0.473775
-0.427235
-0.17271
0.281252
-0.43282
0.265026
-0.392892
-0.133769
0.056432
-0.187875
-0.32042
0.132789
-0.671325
0.007968
-0.331223
-0.508078
-0.398892
-0.249208
0.030583
-0.076617
0.292434
-0.189282
-0.023972
0.230522
0.383288
-0.426319
0.263765
-0.412189
-0.001257
-0.581109
0.293002
-0.512809
0.294345
-0.314408
-0.371966
0.289462
-0.073046
0.18573
-0.014371
0.286868
0.091662
-0.68178
-0.283319
-0.016413
-0.294278
-0.55822
0.013053
-0.000232
-0.37864
-0.137901
-0.528739
0.005731
-0.551994
-0.41055
0.143959
0.092477
-0.034086
0.123777
-0.289486
0.384866
0.011487
-0.377612
0.098068
0.203491
0.216767
-0.092294
0.484222
-0.418293
-0.116688
0.570174
-0.28753
-0.555901
0.172109
0.42342
0.152141
-0.147868
-0.509269
0.267702
0.233186
-0.175793
-0.040657
0.217438
-0.211988
-0.464803
-0.064095
0.24991
-0.068734
0.102954
-0.117096
0.230387
0.208292
0.266686
-0.143843
0.371081
-0.255486
-0.335304
-0.303088
0.178942
-0.073861
-0.182894
-0.690814
-0.050423
-0.556227
-0.18034
0.302698
-0.337074
-0.369634
-0.74467
-0.616797
0.437245
-0.37571
-0.170248
0.171557
-0.202649
-0.010718
0.036576
0.232057
0.313938
-0.177865
0.159313
-0.307633
0.269402
-0.120411
0.315781
0.235353
0.107175
-0.544365
0.051021
0.244386
-0.479543
0.240419
-0.414112
0.083706
0.336552
-0.208142
-0.073525
0.094632
0.153227
0.051988
0.041264
-0.311133
-0.116718
-0.36216
0.112168
0.220746
0.063576
-0.160231
0.165688
-0.881231
-0.315232
0.157112
0.090133
-0.141368
-0.202121
-0.196759
-0.254164
0.057936
0.154213
-0.588974
0.173778
-0.324986
0.034663
-0.630174
-0.590417
-0.307733
0.424894
-0.074624
0.50875
0.4653
-0.208051
-0.326136
0.089221
0.319626
0.119932
-0.118509
-0.001563
-0.124094
-0.240828
-0.539604
0.109677
-0.015387
0.146849
0.032832
-0.444844
0.052181
0.054164
0.014154
-0.598138
-0.561058
0.216858
0.246431
-0.724375
0.21102
-0.294797
-0.386526
-0.058986
-0.173415
-0.410419
-0.030873
-0.65815
-0.561568
0.158159
-0.790835
-0.690155
-0.406232
0.042586
-0.680895
0.146858
0.112275
0.108396
0.628404
-0.513013
-0.175671
0.26581
-0.49765
0.445555
-0.350136
-0.342198
0.203674
0.060076
0.499786
0.38117
-0.046138
-0.469533
-0.51934
0.396979
0.026698
-0.53585
0.284457
-0.412983
-0.595788
0.232545
0.043941
-0.188031
0.127256
0.145018
0.235688
-0.072182
0.270968
-0.453145
-0.488659
-0.1833
0.277194
0.347325
0.238954
0.188586
-0.425129
0.383572
0.034751
0.009687
0.119279
-0.272069
-0.032002
-0.185702
-0.418336
-0.1566
-0.281378
-0.043944
-0.279003
0.294348
0.270095
-0.345332
0.268059
0.218763
0.418018
0.494903
-0.046211
0.267763
0.076138
-0.166463
0.013361
-0.380743
-0.0391
0.070949
-0.003485
-0.428516
-0.064278
-0.356676
-0.58413
0.022761
0.096127
-0.308182
-0.535331
-0.055855
0.177429
-0.235182
-0.26567
0.350804
0.26578
-0.290085
-0.135722
0.178079
-0.206088
-0.488607
-0.345842
-0.730378
0.203073
-0.670409
-0.129392
0.182464
0.152068
0.098804
-0.120981
-0.783947
-0.745097
0.239116
0.432249
-0.228297
0.028193
0.239506
-0.05291
0.447957
0.329524
-0.132423
-0.100046
-0.321265
0.26816
-0.237602
-0.227287
0.220276
0.069192
-0.332829
0.280581
-0.206861
-0.427509
0.257204
-0.287521
-0.414325
-0.552208
0.320103
0.115903
-0.375292
-0.493338
-0.156017
-0.243147
0.120481
-0.406421
0.370458
0.286654
-0.2086
0.036158
-0.032203
-0.153484
-0.424784
-0.163219
-0.118458
-0.058654
0.032859
-0.513462
0.018101
0.213816
-0.449272
-0.717743
-0.582272
-0.5498
-0.651405
0.028831
-0.026582
-0.150951
-0.001459
0.207108
-0.248506
0.38403
-0.338682
-0.510541
0.470714
0.392016
0.347002
-0.016535
0.395495
0.018152
-0.194836
-0.114389
0.200073
-0.551659
0.051906
-0.074013
-0.44048
-0.538658
0.139006
0.085171
-0.575921
0.030909
0.372289
0.26462
0.132719
-0.490286
0.084713
-0.20802
0.222565
0.226258
-0.028846
0.042232
-0.309677
0.325596
-0.309555
0.256136
-0.338151
0.385961
-0.058583
0.137284
-0.073995
-0.35858
0.019004
-0.491165
-0.510483
-0.456941
-0.043477
-0.588617
-0.591363
0.188723
0.260927
-0.477163
-0.246117
-0.046434
-0.153688
-0.317887
-0.335496
-0.048012
-0.527
-0.00257
-0.051552
-0.337327
-0.102274
0.320591
0.384283
-0.452474
-0.558617
-0.231367
-0.218519
0.196289
-0.219282
-0.525993
-0.245009
0.227448
0.169982
-0.15562
0.070614
-0.122599
-0.201093
0.113584
0.117185
0.208527
0.293551
-0.535331
-0.337785
-0.532432
-0.334571
-0.493124
-0.453236
-0.373949
0.316288
0.386785
-0.623887
-0.266839
-0.696307
0.215799
-0.537703
-0.58706
-0.025214
-0.204846
-0.225019
0.136961
-0.22685
0.318912
-0.043251
-0.196606
-0.273482
-0.163005
-0.44106
-0.345659
-0.179852
-0.240675
-0.245283
-0.538078
0.363134
-0.217969
0.08508
0.214966
0.053554
0.317325
0.294406
0.237275
-0.251448
-0.19209
-0.488119
0.268892
0.345769
-0.29216
-0.565422
-0.45876
-0.317582
-0.589807
-0.33101
0.378149
-0.141765
-0.096536
-0.113199
0.352757
-0.111673
-0.56231
-0.048469
-0.466878
0.092526
-0.018256
-0.327866
-0.253484
0.027134
-0.247542
0.339695
0.094052
0.065792
-0.402057
-0.296463
-0.352831
-0.564904
-0.485006
-0.456716
0.357121
-0.388171
0.082943
-0.507376
-0.291946
-0.512595
0.09451
0.271364
-0.253768
-0.19328
0.165465
-0.018134
-0.184826
0.0863
-0.396197
-0.373553
-0.370775
-0.480428
0.320103
-0.498556
-0.283981
-0.225752
0.059841
-0.375475
-0.240675
0.088498
-0.260237
-0.148448
-0.126383
-0.427509
0.168487
-0.160869
0.341496
0.121122
-0.066567
-0.490927
-0.154735
-0.155834
-0.265059
0.171142
-0.276107
-0.579461
-0.051155
-0.040016
0.286624
0.282565
-0.301193
-0.256789
-0.285659
0.036189
0.219941
0.156066
-0.419575
0.02447
-0.205792
-0.080636
-0.478384
-0.560692
0.03979
0.097104
0.090634
==========================================
# 1
0.987732
0.462233
0.383068
0.70394
0.641224
0.180029
0.860652
0.380322
0.278909
0.284005
0.44499
0.0967437
0.24659
0.453871
0.445021
0.382031
0.0910672
0.149419
0.681234
0.575741
0.191147
-0.0578539
0.215256
0.363881
0.975036
0.488144
0.55678
0.784112
0.53032
0.323038
0.40318
0.631001
0.512894
0.760674
0.0690329
0.2931
0.660704
0.57629
0.260933
0.152837
0.119022
0.056032
0.954741
0.980743
0.683309
0.893429
0.830409
0.254555
0.965728
0.314524
0.0219733
0.535813
0.891873
0.212836
0.337748
0.433363
0.0338755
0.175207
0.607471
0.186804
0.986053
0.980041
0.312998
0.399945
0.289041
0.448744
0.058177
0.85587
0.709778
0.832615
0.63455
0.545009
0.881933
0.114881
0.83878
0.337492
0.6146
-0.18934
-0.001376
0.330482
-0.225657
0.245213
0.563277
0.602606
0.347777
0.191766
0.71402
0.505976
0.789972
0.850826
0.452406
0.927488
0.265786
0.651173
0.721305
0.050325
0.290017
0.854915
0.915464
0.147557
0.672445
0.546922
0.737693
0.737907
0.474258
0.190466
0.357311
0.136387
0.78222
0.930143
0.626331
0.429914
0.906491
0.623005
0.110538
0.00955229
0.808567
0.780001
-0.0090548
0.090985
0.565535
0.597977
-0.207581
0.553612
0.377093
0.064086
0.495373
0.130454
0.321012
0.013721
0.686959
0.379751
0.564031
0.323362
0.407981
0.968902
0.133955
0.21901
0.351827
0.30314
0.259316
0.582476
0.371349
0.229316
0.982879
0.235603
0.950621
0.846431
0.155065
0.384747
0.296762
0.0538347
0.914182
0.606006
0.209601
0.368908
0.458632
0.552599
0.483657
0.644856
0.0182806
0.666128
0.800082
0.620267
-0.168963
0.072317
-0.53582
-0.368429
-0.369735
-0.457079
-0.454982
-0.480435
-0.64973
-0.395328
-0.22714
-0.938639
-0.344505
-0.22295
-0.848564
-0.540907
0.199512
-0.180407
0.140861
0.6163
0.420716
0.070446
0.067272
0.333454
0.780389
-0.0432356
0.515885
0.0542619
0.849574
0.259163
0.0634175
0.793176
0.951262
0.610492
0.206336
0.275765
0.263527
0.910886
0.0408032
0.223792
0.09064
0.339915
0.251106
0.41496
0.107608
0.247514
0.462334
0.849828
0.685293
-0.3957
0.013968
-1.0437
-0.198807
0.093136
-0.68999
-0.136506
0.143553
-0.877041
-0.596912
-0.624174
-0.886319
0.146257
-0.033009
-0.021229
-1.06626
-0.139265
-0.384207
-0.392367
-0.034455
-0.222193
0.024451
0.410266
0.447279
0.837742
0.307788
0.235267
0.253771
0.753594
0.113804
0.376995
0.98703
0.164861
0.487899
0.8081
0.902951
0.182073
0.963713
0.331523
0.880642
0.40379
0.437483
0.68276
0.940825
0.586993
0.581845
0.813694
0.318735
-0.247816
-0.744948
-0.210498
-0.500812
-0.295105
-0.437632
-0.170464
-0.381753
-0.346229
-1.37427
-0.176296
-0.860338
-0.69205
-0.682348
-0.644667
-0.989331
-0.566408
-1.6841
-0.837819
-0.895514
-0.648347
-0.564675
-0.633708
-0.644652
0.358098
-0.107443
-0.195425
0.192233
0.947233
0.660399
0.590686
0.377819
0.420301
0.867946
0.93997
0.558641
0.459548
0.202307
0.988586
0.0329295
0.850032
0.569109
0.337901
0.442335
0.829646
0.266854
0.455773
0.093365
-0.151021
-0.267583
-0.034748
-0.084271
-0.377636
-0.48674
-0.14713
-0.437309
-1.34914
-0.876989
0.027174
0.660692
0.499118
0.036305
-0.141133
-0.48627
-0.293341
0.279492
-0.766125
-1.03066
-1.0845
-1.22684
-0.349556
-0.348051
-0.605301
-1.21682
-0.208118
-0.829997
0.143867
-0.664327
-0.09447
0.303507
0.455834
0.653066
0.120283
0.177618
0.121006
0.967132
0.532426
0.628803
0.153539
0.0648824
0.592517
0.569964
0.421033
0.624439
0.923582
0.260537
0.059246
-0.704022
-0.297644
-0.811945
-0.447356
-0.514795
-0.165426
-0.232899
-1.03773
-0.905353
-0.544365
0.162191
-0.11789
-0.220368
-0.311954
0.040779
-0.394864
0.174816
-0.713453
0.362584
0.280715
-1.05234
-0.297464
-0.488763
-0.256307
-1.36461
-0.501105
-0.424787
-0.302417
-0.279061
-1.15366
-0.116489
0.232157
0.204999
0.632759
0.602637
0.157179
0.329814
0.716605
0.50148
0.533433
0.111301
0.355754
0.189611
0.982147
0.235511
0.543046
0.0360729
0.954253
0.575793
-0.220533
-0.725901
-0.359276
0.18706
-0.383059
-0.501312
-0.694876
-0.466976
-0.39913
-0.537144
-0.280383
-0.296802
-0.655016
-0.620838
-0.614216
-0.124668
-0.0313
0.032331
-1.07845
-0.220222
-0.271612
-0.290555
-0.804843
-0.477667
-0.125172
-0.845677
0.187967
-0.578649
-0.03358
-0.848454
-0.033403
-0.984515
-0.129145
0.047035
-0.253429
-0.501486
-0.0143956
0.111057
0.327921
0.537492
0.609241
0.950468
0.784265
0.629902
0.793664
0.475295
0.58681
0.256996
0.309946
-0.272515
0.244426
0.288965
-0.841939
0.376623
-0.75934
-1.20197
-0.948253
-0.910428
-1.25022
-1.06364
-0.489627
0.080651
-0.488
-0.065496
0.28858
-0.252605
0.350166
0.476757
-0.525101
0.599725
-0.291531
-0.790197
-0.108951
-0.113031
-0.6051
-0.15913
-0.277413
-0.369048
-0.791913
-0.318653
-0.687286
0.069939
-1.06932
0.092648
0.150047
-0.080218
0.069396
0.690054
0.781732
0.159825
0.124119
0.261086
0.283395
0.847957
0.966491
0.554796
0.316935
0.872616
0.909482
-0.002487
0.207236
-0.653026
-0.650649
0.192239
-0.530457
-0.247597
-0.038853
0.357335
-0.181631
-0.763591
-0.271145
0.060921
0.58934
-0.427519
-0.408435
-0.492758
-0.395068
0.387112
-0.312888
-0.168813
-0.28385
-1.03917
-0.426243
-0.642677
-0.349831
-0.590582
-0.587667
-1.22045
-0.00358
0.351109
0.28883
-0.682116
-0.138594
-0.033314
0.159325
-0.091824
-0.375698
0.358254
0.698874
0.381573
0.223853
0.613208
0.434431
0.289468
0.408338
0.579394
0.244514
0.930509
0.179647
0.857915
-0.294336
-0.464351
-0.437297
-1.58038
-0.432392
0.168081
-0.068365
-0.547774
-0.061919
0.393197
0.323716
-0.057216
0.758769
0.176202
0.572423
0.503705
-0.14641
0.562444
-0.708884
-0.152931
0.230198
-0.602667
-0.061925
-0.6859
-0.083514
-0.357897
-0.305356
-0.233912
-0.186789
-0.058681
-0.012711
0.142759
-0.456584
-0.701276
-0.814701
0.294479
0.780987
0.61757
0.605017
0.294748
0.138432
0.861385
0.851802
0.138676
0.796136
0.892087
0.0315256
0.934355
0.453429
-0.359004
-1.13799
0.19277
-1.01652
-1.33053
-0.383584
0.523157
-0.027046
-0.224937
0.129344
-0.260744
-0.472475
-0.300049
-0.002762
0.583511
0.224717
0.497064
0.204086
0.07481
-0.404663
0.21135
0.003671
-0.313355
-0.585504
-0.268969
0.589959
0.061104
-0.116016
-0.733705
0.286267
-0.433989
-0.013617
-0.488913
-0.214676
-0.69953
-0.606659
0.344096
0.270391
0.355632
0.107941
0.12595
0.549791
0.436842
0.123692
0.047792
0.735191
0.553301
0.180334
-0.111499
0.295514
-0.41854
-0.601563
-0.56379
-0.982608
-0.191183
-0.026475
-0.169671
0.203586
0.463637
0.311582
-0.319034
0.140364
0.237471
0.28638
-0.078842
-0.134507
-0.193469
0.000629
-0.151354
-0.63217
0.058071
0.631874
-0.386483
-0.25045
0.22804
0.244136
-0.092392
0.182946
-0.543596
0.347233
0.312201
0.092209
0.066402
-0.015744
-0.539863
0.592108
-0.726542
-0.070998
0.168715
0.314472
0.031095
0.874538
0.799463
0.55385
0.618671
0.193457
0.401013
0.763451
0.378628
0.452544
-0.208219
0.53285
-0.391745
-0.538618
-0.262148
0.078576
0.213266
0.637529
-0.016666
0.47871
0.428516
-0.031446
0.888455
-0.016901
0.41286
0.653035
0.632405
0.0299692
0.823969
-0.299237
0.336839
0.400586
0.179519
-0.725413
0.466259
0.642982
0.310849
-0.046055
0.261608
-0.203876
-0.684436
-0.197623
0.363329
0.745698
-0.284765
-0.980612
-0.219742
0.542851
0.524216
0.058788
-0.139839
0.416822
0.436384
0.793878
0.618885
0.513382
0.0353099
0.411298
-0.316483
0.089474
0.034986
-0.485183
-0.593408
0.396136
0.15623
-0.280139
0.107236
-0.319758
-0.253554
0.120466
0.595111
0.43683
0.0475173
0.60976
0.334468
-0.356999
0.319263
0.735047
0.703247
-0.195221
0.223869
0.46914
0.404572
0.247966
-0.021857
-0.321192
0.486389
0.384436
-0.020402
-0.128217
-0.474734
-0.214686
0.612412
0.303433
0.231233
-0.508368
-0.660167
0.02465
0.629475
0.694427
0.48923
0.351845
0.875118
0.215125
0.635884
0.140568
0.557573
0.317576
-0.508109
0.243745
-0.549391
-0.616996
0.60636
-0.064003
0.364275
-0.52107
-0.116868
-0.414609
0.655077
-0.446095
-0.377328
0.053475
0.450673
0.688406
0.293414
-0.294916
0.34514
0.33376
0.240059
0.009458
0.121345
-0.229472
0.234114
-0.386831
-0.743715
0.616837
0.273251
-0.233073
0.566311
0.118497
0.135905
-0.6129
-0.152565
0.052287
-0.0028901
-0.667013
-0.731852
-1.22706
0.111991
0.681784
0.170241
-0.164232
0.67279
0.081576
0.233955
0.12595
0.146428
0.164626
-0.636064
0.225538
-1.30193
-1.19887
0.752351
-0.450179
0.607367
-0.224244
0.274664
0.383911
0.083486
0.467208
0.175542
-0.048936
0.185327
0.613083
-0.4
-0.356157
0.35294
-0.35989
-0.373492
0.449413
-0.543501
0.542467
0.358602
-0.29982
-0.63057
-0.212311
-0.16932
-0.018567
0.471093
0.133085
0.584671
-0.673836
0.586145
-0.067244
0.473382
-0.070193
-0.333564
-0.582781
-0.052574
0.514713
0.721741
0.126029
0.281481
0.876888
0.805445
0.0757469
0.695883
0.144942
0.06162
-0.35645
-1.46928
0.18384
-0.160204
-0.351817
0.427937
0.173537
0.083383
-0.090551
0.277615
0.094504
0.598285
0.067629
-0.414609
0.351134
0.607785
0.743614
-0.083541
-0.235789
-0.299969
0.121369
-0.62689
0.463759
0.774386
0.134257
0.061446
0.313718
0.292782
0.635618
-0.296185
-0.500784
0.842473
-0.664324
-0.346443
0.508243
0.816227
-0.514185
-0.232609
0.338536
-0.48337
0.390921
0.492782
-0.238841
0.590237
0.131901
0.325571
0.172185
0.897885
0.479229
0.195016
0.663103
-0.871841
0.478344
0.531468
-0.358135
-0.040959
0.789035
0.374075
-0.364293
0.37513
0.459243
0.273922
0.106537
0.54583
-0.584771
-0.5511
-0.189319
0.17134
0.248662
-0.252678
0.534019
0.302463
-0.517704
0.175405
-0.166442
-0.159734
-0.304376
-0.1541
0.517295
-0.277538
-0.508567
0.303504
0.192718
0.502005
0.18442
0.583401
-0.183944
0.12461
-0.406369
-0.240675
0.173141
-0.088485
-0.08045
0.337452
0.422987
0.253456
0.787164
0.45204
-0.164437
-0.377987
-0.363869
-0.580639
0.155193
0.505304
-0.059896
0.506055
0.420176
0.273107
0.634874
-0.131693
-0.129353
0.178875
-0.061693
-0.282159
0.475546
-0.095953
0.142259
-0.528822
0.709626
0.351186
0.357805
0.138292
-0.687408
-0.607743
-0.204266
-0.793011
-0.339116
-0.021723
-0.337468
0.079376
0.383551
-0.283642
-0.146016
0.216321
0.553502
0.520978
0.027091
0.34644
-0.114319
0.044639
0.331837
0.595935
0.37279
-0.104355
0.484115
0.995117
0.690359
0.64803
0.660601
-0.581658
0.002078
-1.34983
-0.002649
0.713388
0.096918
0.438856
0.473156
-0.123704
0.688943
0.564467
-0.041093
-0.071377
0.611469
0.033723
0.214154
0.452321
-0.36343
0.17644
0.11222
-0.160381
-0.248973
-0.158022
-0.524915
-0.186798
-0.0796136
-0.767397
-0.000537
0.373586
0.672188
0.278906
0.254601
0.329585
0.529249
-0.035804
0.23437
-0.231773
0.525108
-0.095895
0.043474
-0.679556
-0.06813
0.387454
0.099893
0.878759
0.13249
0.784692
0.534837
0.522752
0.668352
0.029923
-0.42927
-0.590152
0.093423
0.283596
-0.840581
0.68583
0.166494
-0.219169
0.46111
0.172884
-0.287744
0.472921
0.245616
0.390905
0.183151
0.867101
-0.102728
-0.032292
0.152559
-0.327998
-0.495456
-0.604254
0.070888
-0.246025
-0.084533
-0.310074
-0.68399
-0.288916
0.240519
0.104218
-0.631019
0.671038
-0.21583
-0.337358
0.346303
0.119141
-0.114185
0.360692
0.420255
-0.837367
-0.0479049
-0.006186
0.458101
0.637468
0.461144
0.669485
0.812128
0.164016
0.720682
-0.041978
-0.509198
-0.442094
-0.539421
0.739756
-0.856755
0.201929
-0.258242
0.203647
-0.412381
0.186016
-0.138109
-0.445402
-0.18511
0.220429
0.240245
0.284805
0.199414
0.129496
0.361629
0.065966
0.247176
-0.368438
-0.438206
0.118497
-0.286544
-0.088644
-0.764904
0.113898
0.420673
0.091379
-0.154555
0.366524
0.507712
0.008255
0.221961
-0.028816
0.242671
-0.099475
-0.278762
-0.757418
0.329252
0.41384
0.335966
0.512983
0.538752
0.630116
0.432966
0.544307
0.598608
0.026811
-0.099731
-0.688897
-0.231001
0.672423
-0.014261
0.0101932
0.038398
0.36451
-0.292413
-0.246217
0.169549
0.516758
0.21868
-0.298169
0.227299
0.000909
0.105365
0.790194
0.618925
0.650224
0.202561
-0.489288
-0.520991
0.430143
-0.294073
-0.100293
-0.77055
0.083398
-0.137468
0.690439
-1.05386
0.354561
-0.178414
0.286767
0.06371
0.301303
0.625709
0.413572
-0.15089
-0.001819
0.12487
0.000232
-0.024152
-0.260967
0.693756
0.853908
0.129917
0.044871
0.233638
-0.021989
-0.321845
-0.517383
-0.35931
-0.006757
-0.268694
0.101749
-0.17878
0.11641
-0.367803
0.294736
0.035511
0.153688
0.300504
0.187307
0.051604
0.464867
-0.034498
0.065508
-0.010208
0.054378
0.418119
0.244795
-0.0604175
-0.45457
0.112873
-0.311634
0.130287
0.093826
0.252147
0.280441
-0.464052
0.197195
0.38269
0.260756
0.596808
-0.543388
0.33675
0.226807
-0.062416
0.045973
0.648384
0.6099
0.064595
0.345863
0.376302
0.931059
0.622578
0.198614
0.264928
0.043596
0.292261
-0.760231
0.074206
0.068105
-0.489434
0.362865
0.410135
-0.373891
-0.205835
-0.126023
0.286761
0.079122
0.147728
0.69158
0.051097
0.178765
0.138279
0.048573
-0.097794
-0.165355
0.116959
-0.747569
-0.164357
-0.094147
-0.231184
-0.940062
-0.455467
-0.377123
0.173055
0.222404
0.008631
0.345405
0.253697
0.758007
-0.097653
-0.33693
0.802921
-0.19273
-0.446583
-0.755107
0.5575
0.428071
0.78291
0.243718
0.810611
0.386181
0.558336
0.762139
0.638902
0.098019
-0.309116
-0.714179
0.32758
0.681243
-0.892065
0.59093
0.37336
0.270238
-0.76762
0.531242
0.247786
0.851933
-0.100388
0.511966
0.400931
0.278674
-0.156166
0.555943
0.187921
-0.185382
-0.015232
-0.431397
-0.301321
-0.529075
0.145845
-0.191736
0.172463
-0.01268
0.435423
0.367501
0.278506
0.415162
-0.477905
0.072195
-0.15612
-0.141038
-0.064568
-0.095468
-0.390216
-0.467776
-0.176684
0.755779
-0.102219
0.084054
0.497147
0.615619
0.266945
0.352672
-0.003818
-0.195874
-0.256807
-0.697809
-0.897488
0.252342
-0.397726
0.198737
0.337196
-0.261995
-0.012558
-0.217472
-0.230265
0.582818
0.543291
0.291501
0.371529
0.716919
0.346587
0.593503
-0.055455
0.017496
0.715799
0.482739
-0.542964
-0.272591
0.480407
0.097043
0.316684
0.159926
-0.308875
-0.08796
-0.286868
0.096405
0.352596
0.168419
-0.438853
0.182498
0.859197
-0.6111
-0.025245
-0.470461
0.215998
0.440645
0.204889
0.227308
0.425733
0.099704
0.971007
0.874264
0.222691
-0.326127
0.217893
-0.968212
-0.364605
0.139698
-0.470571
-0.191742
0.159078
0.250267
-0.170113
0.179699
-0.38099
0.270074
0.004709
0.352742
0.506189
0.193069
0.0714743
0.776736
0.466515
-0.099991
0.432569
0.910611
0.024754
-0.688372
-0.359288
-0.248622
0.224497
0.293728
-0.391302
-0.370147
0.565352
-0.129463
0.494488
0.280654
-0.581191
0.602432
0.492761
-0.208188
0.303623
-0.215632
0.364837
0.141002
0.302356
-0.07861
0.937162
0.824335
0.900327
0.13712
0.200565
-0.316147
0.527665
-0.227964
-0.458998
-0.259767
0.286624
0.126862
0.333329
0.136717
-0.155538
-0.491211
-0.0710074
-1.09945
-0.625913
0.435081
0.0693686
0.328593
-0.0774468
0.851466
0.055461
0.702637
0.690072
0.921354
0.005704
-0.458882
0.499289
-0.058165
0.132997
-0.106351
0.137562
-0.257146
-0.028364
-0.215952
0.452239
-0.274001
-0.313392
0.608771
0.580694
-0.101144
0.095108
-0.403735
0.696908
-0.238639
0.532539
0.234449
0.854579
0.300333
0.394055
0.0713828
0.709421
-0.651506
0.382183
-0.503311
-0.799371
-0.535679
-0.50701
0.008673
0.874059
0.188418
-0.029029
-0.425587
-0.073226
0.433677
-0.535701
-0.111289
0.856075
0.664418
0.612232
0.137648
0.592434
0.621448
0.494592
0.774242
0.399179
-0.450887
0.376208
0.110855
-0.481222
-0.119605
0.576186
-0.263976
0.048299
0.13665
0.493957
-1.0389
0.723969
0.697763
0.123435
-0.196576
-0.702744
0.299564
0.286099
-0.188375
0.183041
0.114389
0.0143437
0.540361
0.161321
0.37083
0.0168767
-0.620267
0.313486
0.569634
-0.243312
-1.25394
0.574987
0.151009
0.373125
0.640397
0.284954
0.070705
-0.020389
0.480737
0.414502
-0.159856
0.167916
0.114322
0.154698
0.887295
-0.0500107
0.116468
-0.0543443
0.094769
-0.030381
-0.518546
0.427705
-0.429087
0.113797
-0.18702
0.196371
-0.589789
0.355986
0.11901
0.241722
-0.600259
0.062481
0.618415
-0.245769
0.327265
-1.10733
0.36491
0.57752
-0.352208
0.024598
-0.004978
0.689505
0.964446
0.0374767
0.806024
0.993988
-0.820164
0.481903
0.570122
0.102371
0.174944
0.169115
-0.10857
-0.111661
0.070565
0.110898
0.611679
-0.004224
-0.071325
0.141014
-0.129209
-0.318693
0.349309
0.449355
0.129215
0.37318
0.81933
0.260485
0.257494
-0.27282
0.16961
-0.312494
0.399695
-0.438945
-0.203626
0.192434
0.217042
0.148997
-0.09639
-0.315397
0.017927
-0.0433882
-0.077926
-0.111756
-0.619742
-0.20119
0.561754
0.510276
0.072793
-0.099545
0.753624
0.639851
0.581591
0.442671
0.837153
0.110874
-0.052281
-0.125803
0.84994
-0.841517
-0.677483
-1.12907
-0.024827
0.101022
0.246666
-0.476818
-0.496054
-0.021345
0.159569
0.433332
0.068023
0.579882
-0.055269
-0.395953
0.799585
0.0870693
0.917875
0.0991241
0.574285
0.372646
-0.036036
-0.142457
-0.206372
0.476553
-0.370806
0.442412
-0.136699
0.096902
0.27434
-0.794018
-0.677032
-0.0752495
0.19552
-0.748058
0.084893
-0.245955
0.519251
0.276067
0.036436
0.698413
0.177007
0.666707
0.0637226
0.945708
0.566546
0.94644
0.35201
-0.318122
0.505487
-0.264266
-0.780917
-0.484881
-1.11591
-0.079638
-0.561333
-0.168572
0.222678
0.203452
0.809055
0.513544
0.640745
0.323484
0.123698
-0.246312
-0.156597
0.919767
0.300333
0.791742
0.731956
-0.273766
0.424348
0.710053
-0.655947
0.275192
-0.237306
0.216288
0.330754
0.391833
0.30517
-0.454848
0.175658
0.761171
-0.51156
-0.68908
-0.23672
-0.251427
0.75989
0.341041
-0.397763
0.754946
0.0369579
0.123142
0.609851
0.487838
0.618549
0.0959502
-0.0357585
-0.369994
0.10445
0.015549
-0.569524
-0.21355
-0.920557
-0.071642
-0.233451
-0.708945
-0.181957
-0.01793
0.215836
0.054485
0.766146
0.805658
0.492004
-0.06577
-0.144234
0.189636
0.162908
0.308023
0.30961
0.498242
0.539512
0.73231
-0.90914
0.14434
-0.524113
-0.833512
0.155263
0.558446
-0.912626
-0.155324
0.261263
0.683114
-1.30812
-0.224329
0.594742
0.824244
-0.318278
0.1528
0.264208
0.289834
0.0316782
0.355052
0.923276
0.548357
0.349559
0.420087
0.775903
0.437004
-0.024381
0.670837
-0.478445
-0.647926
-0.962832
-0.122837
0.595761
-1.14804
-1.0357
-0.466848
-0.0372845
0.304218
0.773409
0.832026
0.816156
0.408353
0.024363
0.119129
-0.055507
0.124882
0.657949
0.405222
0.016904
0.342567
-0.680676
0.420319
-0.353841
-0.285446
0.074532
0.690002
-0.515253
0.195151
0.025282
-0.784646
-1.08944
0.707926
0.42935
-0.262615
0.157967
0.077096
0.331767
0.267739
0.551195
0.152715
0.314188
0.466445
0.995788
0.261422
0.967498
0.548366
0.284265
0.413788
-0.005133
-0.900653
-0.626972
-0.700534
0.0511
-0.516715
-0.914411
0.001782
0.424369
-0.078384
0.799594
0.762291
0.367016
-0.173775
-0.227235
0.02729
0.681252
-0.23282
0.965026
-0.192892
0.366231
0.456432
-1.08787
0.17958
-0.067211
-0.671325
0.107968
-0.631223
-0.408078
-0.498892
-0.649208
-0.669417
0.123383
0.392434
0.110718
0.076028
0.130522
0.383288
0.173681
0.863765
0.187811
0.598743
0.018891
0.893002
0.0871914
0.894345
0.285592
0.128034
0.289462
-0.273046
0.68573
-0.114371
-0.113132
-0.708338
-1.48178
-1.08332
-1.11641
-0.694278
-0.25822
0.613053
0.699768
0.32136
0.662099
0.0712607
0.305731
-0.0519944
-0.31055
0.643959
-0.107523
0.165914
0.423777
0.310514
-0.315134
0.711487
-0.577612
-0.101932
0.503491
-0.083233
0.207706
0.384222
-1.41829
-0.716688
0.470174
-0.08753
-0.455901
0.172109
0.02342
0.152141
0.452132
0.0907315
0.867702
0.833186
0.424207
0.559343
0.817438
0.388012
0.135197
0.535905
0.74991
0.031266
0.302954
0.182904
0.030387
0.008292
-0.433314
-0.543843
-0.728919
-0.955486
-0.835304
-0.003088
0.878942
0.526139
0.517106
0.00918607
0.549577
-0.156227
0.31966
0.302698
-0.137074
-1.26963
-0.04467
0.083203
-0.262755
-0.07571
-1.07025
0.271557
-0.402649
-0.010718
0.236576
0.132057
-0.886062
-0.577865
0.259313
-0.007633
0.069402
0.079589
0.015781
0.835353
0.707175
0.0556352
0.651021
0.844386
0.120457
0.840419
0.185888
0.683706
0.936552
0.391858
0.426475
0.194632
0.153227
0.351988
0.241264
-0.411133
-0.516718
-0.96216
0.012168
-1.07925
-0.836424
-0.660231
-0.134312
-0.681231
0.084768
0.657112
0.690133
0.258632
-0.002121
0.103241
-0.154164
0.057936
0.254213
-0.188974
-0.326222
-1.02499
-0.665337
-0.530174
-1.09042
-0.107733
0.124894
-1.07462
-0.49125
0.6653
0.091949
-0.326136
0.289221
-0.180374
0.219932
0.481491
0.598437
0.475906
0.359172
0.0603961
0.709677
0.584613
0.746849
0.632832
0.155156
0.652181
0.554164
0.514154
-0.598138
-0.461058
0.516858
0.246431
-0.724375
-0.48898
-1.2948
-0.486526
-1.25899
0.126585
-0.810419
-0.530873
-0.35815
-0.261568
0.658159
-0.190835
-0.390155
-0.006232
0.042586
-0.680895
-0.353142
-0.987725
0.008396
-0.771596
-0.313013
-0.275671
-0.03419
-0.79765
-0.054445
-0.750136
-0.442198
0.403674
0.060076
0.699786
0.58117
-0.446138
0.130467
0.0806604
0.996979
0.626698
0.0641499
0.884457
0.187017
0.00421155
0.832545
0.643941
0.411969
0.727256
0.745018
0.735688
0.527818
0.270968
0.046855
0.211341
-0.1833
-0.222806
-0.652675
-0.661046
-0.111414
-0.825129
-0.316428
-0.065249
-0.190313
0.11928
-0.472069
-0.132002
-0.385702
-0.718336
-0.1566
-0.381378
-0.343944
-1.079
-0.405652
-1.02991
-0.745332
-0.531941
-0.281237
0.418018
-0.005097
-0.346211
0.567763
0.176138
0.033537
0.413361
-0.280743
0.0609
0.670949
0.596515
0.171484
0.535722
0.243324
0.0158696
0.622761
0.696127
0.291818
0.0646687
0.544145
0.777429
0.364818
0.23433
0.850804
0.86578
-0.390085
-0.135722
0.878079
-0.006088
-0.688607
-1.34584
-2.53038
-1.09693
-0.070409
-0.829392
-0.217536
-0.447932
-0.401196
-0.320981
-0.783947
-0.845097
-0.360884
-0.067751
-0.828297
-1.17181
-2.16049
-2.35291
-0.552043
0.129524
-0.432423
-0.500046
-0.621265
0.36816
-0.237602
-0.027287
0.620276
0.269192
-0.632829
0.780581
0.393139
0.172491
0.857204
0.312479
0.185675
0.047792
0.920103
0.715903
0.224708
0.106662
0.443983
0.356853
0.720481
0.193579
0.870458
0.786654
0.2914
0.036158
0.467797
-0.053484
-0.224784
-0.063219
-0.818458
-2.15865
-1.46714
-1.01346
-0.781899
-0.286184
-0.849272
-1.11774
-0.982272
-0.8498
-1.1514
-0.171169
0.37342
-0.750951
-1.10146
-1.49289
-0.848506
-0.31597
-0.038682
-0.910541
-0.029286
0.392016
0.447002
-0.016535
0.195495
0.218152
0.305164
0.385611
0.800073
0.0483413
0.651906
0.525987
0.15952
0.0613422
0.739006
0.685171
0.0240791
0.630909
0.972289
0.86462
0.732719
0.109714
0.684713
0.29198
0.722565
0.626258
0.071154
0.042232
0.090323
0.325596
-0.709555
-0.243864
-1.03815
-0.614039
-0.458583
-0.262716
-0.373995
-0.65858
-0.180996
-0.691165
-0.810483
-0.656941
-0.543477
-1.28862
-0.791363
-0.911277
-0.339073
-1.17716
-1.44612
-0.346434
-0.053688
-0.317887
-0.235496
0.151988
0.0730003
0.59743
0.548448
0.162673
0.497726
0.920591
0.984283
0.147526
0.0413831
0.368633
0.381481
0.796289
0.380718
0.0740074
0.354991
0.827448
0.769982
0.44438
0.670614
0.477401
0.398907
0.613584
0.517185
0.108527
0.193551
-0.735331
-0.537785
-0.932432
-0.434571
-0.893124
-1.35324
-1.27395
-0.583712
-0.213215
-1.12389
-0.966839
-1.09631
-0.484201
-0.837703
-0.98706
-1.12521
-1.10485
-1.12502
-0.363039
-0.12685
0.818912
0.556749
0.403394
0.326518
0.436995
0.15894
0.254341
0.420148
0.359325
0.354717
0.0619221
0.963134
0.382031
0.68508
0.814966
0.653554
0.917325
0.894406
0.837275
0.348552
0.40791
0.111881
0.868892
0.945769
0.30784
0.0345775
0.14124
0.282418
0.0101932
0.26899
0.978149
-0.041765
-0.096536
-0.013199
0.252757
-0.211673
-0.66231
-0.648469
-1.06688
-0.507474
-0.618256
-0.927866
-0.753484
-0.472866
-0.847542
0.239695
0.494052
0.465792
0.097943
0.203537
0.147169
-0.0649037
0.014994
0.043284
0.857121
0.111829
0.582943
0.0926237
0.308054
0.087405
0.69451
0.871364
0.346232
0.40672
0.765465
0.581866
0.415174
0.6863
0.203803
0.226447
0.229225
0.119572
0.920103
0.101444
0.316019
0.374248
0.659841
0.224525
0.359325
0.688498
0.339763
0.451552
0.473617
0.172491
0.768487
0.439131
0.941496
0.721122
0.533433
0.109073
0.445265
0.444166
0.334941
0.771142
0.323893
0.020539
0.548845
0.559984
0.886624
0.882565
0.298807
0.343211
0.314341
0.636189
0.819941
0.756066
0.180425
0.62447
0.394208
0.519364
0.121616
0.0393078
0.63979
0.697104
0.690634
==========================================
# 2
0.987732
0.462233
0.383068
0.70394
0.641224
0.180029
0.460652
0.380322
0.278909
0.284005
0.04499
0.0967437
0.24659
0.053871
0.445021
0.382031
0.0910672
-0.250581
0.681234
0.675741
-0.108853
0.0421461
0.315256
0.463881
0.575036
0.488144
0.55678
0.384112
0.53032
0.323038
0.40318
0.231001
0.512894
0.760674
-0.330967
0.2931
0.760704
0.67629
-0.139067
0.152837
0.119022
-0.343968
0.954741
0.980743
0.683309
0.493429
0.830409
0.254555
0.565728
0.314524
0.0219733
0.535813
0.491873
0.212836
0.337748
0.033363
0.0338755
0.175207
0.607471
-0.213196
0.986053
0.980041
-0.087002
0.399945
0.289041
0.448744
0.158177
0.95587
0.809778
0.532615
0.73455
0.645009
0.981933
0.214881
0.93878
0.537492
0.4146
0.11066
0.298624
0.630482
-0.0256569
0.445213
0.763277
0.202606
0.347777
0.291766
0.71402
0.605976
0.789972
0.850826
0.052406
0.927488
0.265786
0.651173
0.721305
0.050325
0.290017
0.454915
0.915464
0.147557
0.672445
0.546922
0.737693
0.737907
0.074258
0.190466
0.357311
0.136387
0.38222
0.930143
0.626331
0.029914
0.906491
0.623005
0.110538
-0.390448
0.908567
0.880001
-0.309055
0.190985
0.765535
0.697977
-0.407581
0.753612
0.577093
-0.235914
0.595373
0.130454
0.321012
-0.386279
0.786959
0.379751
0.264031
0.523362
0.507981
0.968902
-0.166045
0.31901
0.451827
-0.09686
0.259316
0.582476
0.371349
-0.170684
0.982879
0.235603
0.550621
0.846431
0.155065
0.384747
-0.103238
0.0538347
0.914182
0.206006
0.209601
0.368908
0.458632
0.552599
0.483657
0.644856
-0.381719
0.666128
0.900082
0.720267
0.0310373
0.272317
-0.43582
-0.568429
-0.169735
-0.257079
-0.754982
-0.380435
-0.64973
-0.395328
-0.62714
-0.838639
-0.244505
-0.52295
-0.348564
-0.540907
0.399512
-0.380407
0.340861
0.7163
0.220716
0.170446
0.167272
0.433454
0.380389
0.0567644
0.515885
0.0542619
0.449574
0.259163
0.0634175
0.393176
0.951262
0.610492
-0.193664
-0.124235
0.263527
0.910886
-0.359197
0.223792
0.09064
0.339915
-0.148894
0.41496
0.107608
-0.052486
0.562334
0.949828
0.685293
-0.6957
0.113968
-0.843696
-0.398807
0.193136
-0.48999
0.063494
-0.156447
-0.577041
-0.296912
-0.824174
-0.586319
0.346257
0.066991
-0.221229
-0.266262
-0.139265
-0.584207
-0.092367
0.265545
0.277807
-0.075549
0.710266
0.547279
0.637742
0.507788
0.235267
0.353771
0.753594
0.113804
0.376995
0.58703
0.164861
0.487899
0.8081
0.902951
0.182073
0.963713
-0.068477
0.880642
0.40379
0.437483
0.28276
0.940825
0.586993
0.281845
0.913694
0.318735
-0.247816
-0.844948
0.389502
0.199188
-0.295105
-0.037632
0.129536
-0.181753
-0.546229
-1.07427
-0.076296
-0.76034
-0.09205
0.217652
-0.144667
-0.68933
-0.266408
-0.7841
-1.03782
-0.195514
-0.548347
-0.564675
-0.633708
-0.744652
0.758098
-0.107443
0.104575
0.492233
0.947233
0.760399
0.190686
0.377819
0.020301
0.867946
0.93997
0.558641
0.459548
0.202307
0.988586
-0.36707
0.850032
0.569109
0.337901
0.442335
0.429646
0.266854
0.155773
0.193365
-0.151021
-0.167583
0.465252
0.215729
0.122364
-0.18674
0.35287
0.262691
-0.64914
-0.276989
0.527174
1.06069
0.499118
0.036305
0.158867
0.21373
0.206659
0.779492
-0.066125
-0.230662
-0.5845
-0.726838
0.350444
0.451949
0.194699
-0.416819
-0.408118
-0.529997
0.643867
-0.064327
0.40553
0.203507
0.555834
0.253066
0.420283
0.177618
0.121006
0.967132
0.532426
0.628803
-0.246461
-0.335118
0.192517
0.169964
0.021033
0.224439
0.523582
-0.139463
-0.240754
-0.504022
-0.297644
-0.811945
-0.747356
-0.814795
-0.765426
0.567101
-0.43773
-0.105353
-0.344365
0.262191
0.18211
-0.220368
-0.311954
0.040779
-0.494864
-0.025184
-0.013453
0.162584
-0.219285
-0.652342
-0.297464
0.211237
0.543693
-0.56461
0.198895
0.075213
0.397583
0.520939
-0.85366
-0.116489
0.132157
0.004999
0.232759
0.602637
0.057179
-0.070186
0.316605
0.10148
0.133433
-0.288699
-0.044246
-0.210389
0.582147
-0.164489
0.143046
-0.363927
0.554253
0.175793
-0.520533
-0.525901
0.140724
0.18706
-0.583059
-0.701312
-0.594876
0.533024
0.00087
0.062856
0.319617
0.303198
-0.655016
-0.220838
-0.114216
0.375332
0.3687
0.432331
0.021552
0.079778
-0.271612
0.109445
-1.00484
-0.277667
-0.125172
-1.04568
0.387967
-0.678649
-0.03358
-0.748454
0.666597
-0.384515
-0.029145
-0.152965
-0.153429
-0.301486
-0.314396
-0.288943
-0.072079
0.137492
0.209241
0.550468
0.384265
0.229902
0.393664
0.075295
0.18681
-0.143004
-0.090054
-0.672515
-0.055574
0.188965
-0.541939
0.076623
-1.05934
-1.00197
-0.448253
0.089572
-0.050224
-0.363643
-0.189627
0.280651
-0.288
-0.265496
-0.01142
-0.552605
0.050166
0.176757
-0.025101
0.099725
-0.391531
-0.390197
0.091049
0.086969
-0.7051
-0.35913
-0.277413
-0.169048
-0.191913
-0.318653
-0.487286
0.669939
-0.46932
0.492648
0.150047
-0.180218
-0.230604
0.290054
0.381732
-0.240175
-0.275881
-0.138914
-0.116605
0.447957
0.566491
0.154796
-0.083065
0.472616
0.509482
-0.402487
0.007236
-0.753026
-0.050649
0.092239
-0.030457
0.352403
-0.238853
0.157335
0.118369
-0.463591
0.128855
0.160921
0.48934
-0.427519
-0.308435
-0.392758
-0.395068
0.387112
0.687112
-0.068813
-0.08385
-0.239167
-0.026243
-0.242677
0.050169
-0.390582
-0.287667
-0.52045
0.39642
0.551109
0.28883
-0.882116
-0.538594
0.166686
0.159325
-0.091824
-0.275698
0.058254
0.298874
-0.018427
-0.176147
0.213208
0.034431
-0.110532
0.008338
0.179394
-0.155486
0.530509
-0.220353
0.457915
-0.394336
-0.464351
-0.437297
-0.98038
-0.332392
0.268081
-0.368365
-0.447774
0.338081
0.493197
0.323716
-0.257216
0.358769
-0.123798
0.272423
0.303705
-0.34641
0.362444
-0.008884
-0.352931
0.030198
-0.202667
-0.361925
-0.4859
-0.283514
-0.357897
-0.305356
-0.633912
-0.386789
-0.358681
-0.212711
-0.157241
-0.656584
-1.10128
-0.7147
0.894479
0.580987
0.31757
0.205017
-0.105252
-0.261568
0.461385
0.451802
-0.261324
0.396136
0.492087
-0.368474
0.534355
0.053429
-0.559004
-1.13799
-0.00723
-0.71652
-0.63053
0.016416
0.223157
-0.227046
-0.524937
0.329344
-0.060744
-0.072475
0.299951
0.097238
0.483511
-0.075283
0.197064
-0.095914
-0.22519
0.095337
-0.18865
-0.396329
0.186645
-0.485504
0.231031
0.389959
-0.338896
-0.616016
-1.03371
0.086267
-0.733989
-0.013617
-0.988913
-0.114676
-0.49953
-0.606659
0.544096
0.170391
-0.044368
-0.192059
-0.27405
0.149791
0.036842
-0.276308
-0.352208
0.335191
0.153301
-0.219666
-0.511499
-0.004486
-0.51854
-0.701563
-0.46379
-0.48261
0.008817
0.073525
-0.169671
0.003586
-0.036363
0.111582
-0.119034
-0.059636
0.437471
0.58638
-0.278842
-0.234507
-0.293469
-0.099371
-0.251353
0.06783
0.258071
0.431874
-0.286483
-0.25045
0.22804
0.044136
-0.292392
-0.217054
-0.943596
0.047233
-0.387799
0.292209
0.066402
-0.315744
-0.839863
0.392108
-1.12654
0.329002
-0.131285
0.014472
-0.268905
0.474538
0.399463
0.15385
0.218671
-0.206543
0.001013
0.363451
-0.021372
0.252544
-0.308219
0.33285
-0.391745
-0.438618
-0.362148
0.278576
0.513266
0.537529
-0.316666
0.17871
0.528516
0.068554
0.488455
0.083099
0.51286
0.253035
0.232405
-0.370031
0.423969
-0.399237
0.336839
-0.099414
-0.220481
-0.525413
0.366259
0.442982
0.110849
-0.146055
-0.038392
-0.203876
-0.984436
-0.197623
0.063329
0.445698
-0.584765
-1.18061
-0.519742
0.542851
0.524216
-0.241212
-0.439839
0.016822
0.036384
0.393878
0.218885
0.113382
-0.36469
0.011298
-0.616483
-0.010526
-0.365014
-0.385183
-0.493408
-0.003864
-0.14377
-0.180139
0.407236
-0.319758
-0.153554
-0.179534
0.195111
0.73683
-0.052483
0.20976
0.534468
-0.256999
0.019263
0.435047
0.403247
-0.195221
0.323869
0.06914
0.104572
0.347966
0.178143
-0.221192
0.586389
0.584436
-0.120402
-0.228217
-0.874734
-0.214686
0.312412
-0.096567
-0.068767
-0.908368
-0.760167
0.12465
0.229475
0.794427
0.08923
0.051845
0.475118
-0.184875
0.235884
-0.259432
0.157573
-0.082424
-0.808109
0.143745
-1.04939
-0.316996
0.60636
-0.364003
0.064275
-0.22107
-0.416868
-0.214609
0.555077
-0.246095
-0.077328
0.253475
0.750673
0.688406
-0.006586
-0.194916
0.44514
0.03376
-0.159941
-0.090542
0.421345
-0.429472
0.134114
-0.086831
-0.243715
0.516837
0.073251
-0.333073
0.066311
-0.081503
-0.264095
-0.8129
-0.452565
-0.347713
-0.40289
-0.967013
-1.13185
-0.92706
-0.088009
0.681784
-0.129759
-0.564232
0.37279
-0.318424
-0.166045
-0.27405
-0.253572
-0.135374
-0.836064
-0.074462
-1.50193
-0.79887
0.452351
-0.550179
0.307367
-0.324244
0.174664
0.283911
-0.016514
0.067208
-0.224458
0.251064
0.185327
0.913083
-0.1
-0.256157
0.55294
-0.15989
-0.073492
0.249413
-0.143501
0.042467
-0.041398
-0.29982
-0.43057
-0.212311
-0.26932
-0.218567
-0.028907
-0.066915
0.084671
-0.773836
0.286145
-0.367244
0.073382
-0.470193
-0.633564
-0.582781
-0.352574
0.714713
0.421741
-0.273971
-0.018519
0.476888
0.405445
-0.324253
0.295883
-0.155058
-0.13838
-0.65645
-1.66928
0.38384
-0.460204
-0.351817
0.327937
-0.126463
0.083383
-0.190551
0.177615
-0.005496
0.198285
-0.332371
-0.114609
0.251134
0.707785
0.743614
-0.283541
-0.435789
-0.399969
0.021369
0.07311
-0.036241
0.374386
0.034257
0.361446
0.113718
0.092782
0.335618
-0.596185
-0.700784
0.242473
-0.964324
-0.446443
0.308243
0.416227
-0.914185
-0.532609
0.338536
-0.68337
0.490921
0.092782
-0.538841
0.290237
-0.268099
-0.074429
-0.227815
0.497885
0.379229
-0.004984
0.263103
-0.971841
0.678344
0.231468
-0.458135
-0.140959
0.489035
0.074075
-0.364293
0.27513
0.059243
0.173922
0.106537
0.54583
-0.184771
0.0489
0.010681
0.27134
0.248662
-0.152678
0.334019
0.502463
-0.117704
0.275405
-0.266442
0.340266
-0.204376
-0.3541
0.517295
-0.577538
-0.808567
-0.096496
-0.107282
0.302005
-0.01558
0.183401
-0.483944
-0.17539
-0.506369
-0.640675
-0.126859
0.111515
-0.38045
0.037452
0.022987
-0.146544
0.387164
0.05204
-0.264437
-0.777987
-0.763869
-0.680639
0.355193
0.205304
-0.359896
0.406055
0.320176
0.173107
0.534874
0.068307
-0.029353
0.178875
0.138307
-0.082159
0.575546
0.004047
0.842259
-0.128822
0.709626
0.451186
0.457805
0.538292
-0.487408
-0.507743
-0.104266
-0.493011
-0.339116
-0.021723
-0.337468
-0.220624
-0.016449
-0.783642
-0.346016
0.116321
0.253502
0.320978
-0.272909
0.04644
-0.314319
-0.255361
0.031837
0.595935
0.17279
-0.304355
0.084115
0.595117
0.290359
0.24803
0.560601
-0.881658
-0.397922
-1.44983
0.197351
0.413388
-0.003082
0.038856
0.373156
-0.323704
0.488943
0.464467
0.058907
-0.071377
0.211469
-0.366277
0.214154
0.452321
-0.06343
0.77644
0.31222
0.139619
-0.148973
0.341978
-0.324915
-0.286798
-0.579614
-0.367397
0.399463
0.073586
0.272188
-0.121094
-0.345399
0.029585
0.329249
-0.135804
0.03437
-0.331773
0.125108
-0.395895
-0.156526
-0.979556
-0.36813
0.287454
-0.100107
0.578759
-0.16751
0.384692
0.134837
0.122752
0.568352
-0.370077
-0.82927
-0.690152
0.293423
-0.016404
-0.940581
0.38583
0.166494
-0.219169
0.36111
-0.027116
-0.287744
0.372921
0.445616
0.490905
-0.116849
0.567101
-0.102728
-0.032292
0.352559
-0.027998
0.004544
0.195746
0.470888
-0.146025
0.115467
-0.210074
-0.38399
0.011084
0.340519
-0.095782
-1.03102
0.471038
-0.51583
-0.337358
0.046303
-0.180859
-0.414185
0.060692
0.220255
-1.13737
-0.447905
0.093814
0.058101
0.537468
0.161144
0.269485
0.412128
-0.135984
0.520682
-0.441978
-0.909198
-0.642094
-0.239421
0.439756
-0.956755
-0.098071
-0.358242
0.103647
-0.312381
0.186016
-0.338109
-0.345402
-0.08511
0.420429
0.540245
0.284805
0.199414
0.029496
0.461629
0.265966
0.347176
0.431562
0.461794
0.418497
0.013456
0.411356
-0.464904
0.113898
-0.179327
-0.108621
-0.254555
0.166524
0.407712
-0.091745
-0.178039
-0.328816
-0.057329
-0.399475
-0.478762
-1.05742
-0.070748
0.51384
-0.064034
0.412983
0.238752
0.230116
0.032966
0.244307
0.398608
-0.373189
-0.499731
-0.888897
0.068999
0.372423
-0.114261
-0.389807
-0.061602
0.26451
-0.192413
-0.246217
-0.030451
0.316758
0.31868
-0.398169
0.127299
0.200909
0.205365
0.390194
0.218925
0.550224
-0.197439
-0.389288
0.079009
0.730143
0.105927
0.399707
-0.37055
0.083398
-0.637468
0.190439
-0.753856
0.154561
-0.278414
0.186767
-0.33629
0.001303
0.325709
0.113572
-0.35089
-0.401819
-0.17513
0.100232
-0.424152
-0.360967
0.393756
0.453908
-0.270083
-0.255129
0.033638
-0.421989
-0.721845
-0.717383
-0.15931
-0.206757
-0.368694
-0.298251
-0.37878
0.51641
-0.367803
0.094736
-0.164489
0.053688
0.100504
0.287307
-0.048396
0.164867
-0.234498
-0.034492
-0.110208
-0.145622
0.118119
0.244795
-0.660418
-0.15457
0.412873
-0.111634
-0.069713
0.293826
0.352147
-0.019559
-0.464052
0.297195
0.18269
0.260756
0.196808
-0.843388
0.03675
0.126807
-0.462416
-0.354027
0.348384
0.7099
-0.335405
0.245863
0.076302
0.531059
0.222578
-0.201386
0.164928
-0.356404
-0.107739
-0.960231
0.274206
-0.131895
-0.589434
-0.137135
0.210135
0.126109
0.194165
-0.326023
-0.013239
-0.120878
-0.052272
0.29158
-0.248903
-0.021235
-0.261721
-0.151427
-0.397794
-0.265355
0.116959
-0.847569
-0.564357
-0.394147
-0.431184
-0.240062
-0.255467
-0.277123
0.173055
0.222404
-0.291369
0.245405
0.153697
0.558007
-0.297653
-0.63693
0.502921
-0.29273
-0.846583
-1.15511
0.6575
0.128071
0.38291
0.143718
0.510611
-0.013819
0.158336
0.362139
0.538902
-0.201981
-0.809116
-0.914179
0.62758
0.381243
-0.992065
0.19093
0.07336
0.170238
-0.36762
0.531242
0.247786
0.551933
-0.300388
0.311966
0.100931
-0.021326
-0.256166
0.355943
-0.112079
-0.485382
-0.615232
-0.331397
0.198679
-0.829075
-0.454155
0.308264
0.272463
-0.11268
0.335423
0.367501
0.078506
0.115162
-0.277905
-0.127805
-0.35612
-0.441038
-0.164568
-0.395468
-0.790216
-0.867776
-0.076684
0.455779
-0.502219
0.084054
0.097147
0.215619
-0.133055
-0.047328
-0.103818
-0.495874
-0.756807
-0.897809
-0.59749
-0.047658
-0.497726
-0.301263
0.137196
-0.361995
-0.112558
0.082528
-0.330265
0.582818
0.143291
0.091501
0.271529
0.216919
-0.053413
0.093503
-0.355455
-0.482504
0.115799
0.082739
-0.742964
-0.172591
0.480407
0.397043
0.516684
-0.240074
-0.108875
-0.18796
-0.186868
-0.003595
0.452596
-0.031581
-0.738853
-0.017502
0.759197
-0.9111
-0.425245
-0.870461
0.315998
0.140645
-0.195111
0.227308
0.025733
-0.300296
0.571007
0.474264
0.122691
-0.626127
-0.282107
-1.36821
0.135395
0.239698
-0.870571
-0.191742
0.159078
0.250267
-0.470113
0.079699
-0.08099
0.370074
-0.295291
0.052742
0.206189
-0.106931
-0.528526
0.276736
-0.033485
-0.299991
-0.067431
0.510611
0.224754
-0.788372
-0.559288
0.051378
0.724497
-0.006272
-0.491302
-0.470147
0.565352
-0.229463
0.294488
0.380654
-0.881191
0.402432
0.392761
-0.508188
-0.096377
-0.615632
0.464837
-0.158998
-0.197644
-0.07861
0.537162
0.424335
0.500327
-0.26288
0.100565
-0.616147
0.127665
-0.727964
-0.358998
-0.259767
-0.113376
0.026862
0.333329
0.236717
-0.055538
-0.591211
-0.371007
-0.399451
-0.125913
0.135081
-0.330631
-0.071407
-0.377447
0.451466
-0.444539
0.202637
0.390072
0.521354
-0.194296
-0.258882
0.299289
-0.058165
0.332997
-0.106351
0.237562
-0.557146
-0.128364
-0.315952
0.452239
-0.174001
-0.613392
0.508771
0.380694
-0.501144
-0.204892
-0.403735
0.396908
-0.438639
0.032539
0.234449
0.454579
-0.099667
-0.005945
-0.328617
0.509421
-0.851506
-0.017817
-1.00331
-0.99937
-0.135679
-0.90701
0.008673
0.574059
-0.111582
0.070971
-0.125587
-0.573226
0.033677
-0.035701
0.288711
0.456075
0.264418
0.212232
-0.162352
0.292434
0.221448
-0.005408
0.274242
0.099179
-0.150887
0.376208
0.210855
-0.281222
-0.019605
0.276186
-0.363976
-0.051701
0.03665
0.493957
-0.838902
0.623969
0.397763
-0.076565
-0.596576
-1.00274
0.299564
-0.013901
-0.388375
-0.316959
0.114389
-0.385656
0.140361
-0.238679
-0.02917
-0.383123
-0.620267
-0.086514
0.069634
-0.443312
-0.65394
0.374987
-0.148991
0.373125
0.440397
0.484954
0.170705
-0.120389
-0.019263
-0.085498
0.440144
0.467916
-0.285678
-0.245302
0.487295
-0.350011
-0.183532
-0.354344
-0.505231
-0.330381
-0.218546
0.227705
-0.229087
0.313797
-0.18702
-0.103629
-0.589789
0.155986
0.01901
0.241722
-0.400259
-0.037519
0.318415
-0.445769
-0.072735
-1.00733
0.36491
0.27752
-0.652208
-0.375402
-0.104978
0.289505
0.564446
-0.362523
0.406024
0.593988
-0.820164
0.081903
0.170122
-0.397629
0.474944
0.269115
-0.60857
-0.111661
-0.029435
0.310898
0.411679
-0.304224
-0.371325
-0.058986
-0.229209
0.081307
0.549309
0.049355
-0.270785
-0.02682
0.41933
-0.039515
-0.142506
-0.37282
-0.13039
-0.412494
0.599695
-0.038945
-0.103626
-0.107566
0.317042
-0.051003
-0.19639
-0.415397
0.517927
-0.143388
-0.377926
-0.411756
-0.61974
-0.10119
0.161754
0.210276
-0.227207
-0.099545
0.353624
0.239851
0.181591
0.042671
0.437153
-0.289126
-0.152281
-0.425803
0.44994
-1.34152
-0.87748
-0.529069
-0.524827
0.101022
0.346666
-0.176818
-0.296054
-0.221345
-0.240431
-0.266668
0.068023
0.079882
0.444731
-0.295953
0.399585
-0.312931
0.517875
-0.300876
0.274285
0.272646
0.063964
-0.142457
0.093628
0.576553
-0.170806
0.042412
-0.036699
-0.103098
0.07434
-0.694018
-0.077032
-0.37525
-0.10448
-1.14806
0.184893
-0.145955
0.119251
-0.023933
-0.163564
0.598413
-0.222993
0.266707
-0.336277
0.545708
0.166546
0.54644
0.05201
-0.518122
0.205487
-0.664266
-0.98092
-0.384881
-0.91591
-0.379638
-0.361333
0.231428
0.322678
0.303452
0.509055
0.113544
0.040745
0.123484
0.323698
-0.046312
-0.056597
0.419767
-0.099667
0.391742
0.231956
-0.373766
0.324348
0.310053
0.044053
0.375192
-0.237306
-0.083712
0.430754
0.191833
0.10517
-0.354848
0.475658
0.461171
-0.71156
-1.08908
-0.13672
-0.551427
0.35989
0.041041
-0.397763
0.454946
-0.363042
-0.276858
0.209851
0.087838
0.218549
-0.30405
-0.335759
-0.469994
-0.29555
-0.284451
-0.869524
-0.51355
-0.220557
-0.371642
-0.133451
-0.208945
-0.081957
0.08207
-0.084164
-0.245515
0.266146
0.105658
0.792004
-0.16577
-0.344234
0.389636
-0.337092
-0.091977
-0.19039
0.198242
0.639512
0.53231
-0.00914
-0.25566
-0.524113
-0.733512
0.155263
0.458446
-0.812626
-0.055324
0.561263
0.483114
-1.60812
-0.224329
0.794742
0.424244
-0.418278
0.2528
-0.035792
-0.110166
-0.368322
-0.044948
0.523276
0.148357
-0.050441
0.020087
0.375903
0.137004
-0.224381
0.370837
-0.778445
-1.04793
-0.76283
0.377163
0.395761
-0.348039
-0.435698
-0.266848
-0.337285
0.004218
0.473409
0.232026
0.216156
0.608353
-0.175637
0.119129
-0.055507
-0.375118
0.157949
0.205222
-0.083096
0.242567
0.119324
0.020319
-0.253841
-0.285446
-0.025468
0.590002
-0.515253
0.395151
0.525282
-0.884646
-1.08944
0.907926
0.42935
-0.462615
-0.142033
-0.022904
-0.068233
-0.132261
0.151195
-0.247285
-0.085812
0.066445
0.595788
-0.138578
0.567498
0.248366
-0.115735
0.213788
-0.205133
-1.30065
-1.02697
-0.000534
0.1511
-0.516715
-0.114411
0.501782
0.124369
-0.278384
0.499594
0.362291
-0.232984
-0.473775
-0.227235
0.02729
0.481252
-0.23282
0.365026
-0.092892
-0.033769
0.356432
-0.087875
-0.42042
0.032789
-0.371325
0.407968
-0.531223
-0.608078
-0.198892
0.150792
-0.569417
0.123383
0.292434
-0.089282
-0.223972
-0.269478
0.283288
-0.226319
0.463765
-0.212189
0.198743
-0.381109
0.493002
-0.312809
0.494345
-0.114408
-0.171966
-0.010538
-0.473046
0.38573
-0.414371
-0.413132
-0.80834
-0.58178
-0.683319
-0.516413
0.205722
-0.55822
0.513053
0.399768
-0.07864
0.262099
-0.528739
0.205731
-0.451994
-0.31055
0.443959
-0.107523
0.265914
0.123777
0.110514
0.384866
0.311487
-0.777612
0.498068
0.603491
-0.183233
0.607706
0.884222
-0.91829
-0.916688
0.270174
-0.18753
-0.755901
-0.027891
-0.07658
0.052141
0.052132
-0.309269
0.467702
0.433186
0.024207
0.159343
0.417438
-0.011988
-0.264803
0.135905
0.44991
-0.368734
0.202954
-0.217096
-0.169613
-0.091708
-0.833314
-0.243843
-0.028919
-0.355486
-0.135304
0.196912
0.578942
0.126139
0.117106
-0.390814
-0.050423
-0.256227
-0.18034
0.402698
0.062926
-0.469634
-0.64467
-0.016797
0.337245
-0.07571
-0.970248
0.771557
-0.502649
0.489282
0.536576
-0.167943
-0.786062
-0.677865
0.159313
-0.307633
-0.030598
-0.120411
-0.184219
0.435353
0.307175
-0.344365
0.251021
0.444386
-0.279543
0.440419
-0.214112
0.283706
0.536552
-0.008142
0.126475
-0.205368
-0.146773
0.151988
-0.058736
-0.711133
-0.516718
-0.46216
0.412168
0.020746
-0.236424
0.339769
0.565688
-0.181231
-0.015232
0.557112
0.590133
-0.041368
0.197879
-0.096759
-0.154164
0.357936
0.254213
-0.288974
0.073778
-0.724986
-0.265337
-0.130174
-0.390417
-0.207733
-0.075106
-1.07462
-0.19125
0.3653
-0.208051
-0.526136
0.089221
-0.180374
-0.080068
0.081491
0.198437
0.075906
-0.040828
-0.339604
0.309677
0.184613
0.346849
0.232832
-0.244844
0.252181
0.254164
0.214154
-0.898138
-0.861058
0.416858
0.046431
-0.92438
-0.18898
-1.3948
-0.786526
-0.158986
0.426585
-0.610419
0.369127
-0.15815
-0.161568
0.658159
-0.190835
-0.190155
0.293768
0.242586
-0.180895
0.546858
0.112275
0.308396
0.528404
0.386987
-0.475671
-0.13419
-0.99765
-0.054445
-0.750136
-0.442198
0.203674
-0.139924
0.499786
0.38117
-0.446138
-0.269533
-0.31934
0.596979
0.226698
-0.33585
0.484457
-0.212983
-0.395788
0.432545
0.243941
0.011969
0.327256
0.345018
0.435688
0.127818
-0.029032
-0.253145
-0.188659
-0.3833
0.077194
-0.252675
-0.361046
0.088586
-0.625129
0.58357
0.23475
0.209687
0.51928
0.127931
0.667998
0.314298
0.281664
0.5434
0.118622
-0.043944
-0.379003
0.194348
-0.029905
-0.345332
-0.631941
-0.381237
0.418018
-0.105097
-0.346211
0.267763
-0.023862
-0.166463
0.013361
-0.380743
-0.2391
0.270949
0.196515
-0.228516
0.135722
-0.156676
-0.38413
0.222761
0.296127
-0.108182
-0.335331
0.144145
0.377429
-0.035182
-0.06567
0.550804
0.46578
-0.590085
-0.435722
0.478079
-0.406088
-0.588607
-1.34584
-1.83038
-0.79693
0.129591
0.070608
0.282464
0.252068
-0.201196
-0.520981
-0.883947
-0.945097
0.139116
0.132249
-0.628297
-0.271807
-0.660494
-1.15291
-0.352043
0.029524
-0.332423
-0.600046
-1.02126
0.06816
-0.437602
-0.227287
0.220276
0.069192
-0.732829
0.480581
-0.006861
-0.227509
0.457204
-0.087521
-0.214325
-0.352208
0.520103
0.315903
-0.175292
-0.293338
0.043983
-0.043147
0.320481
-0.206421
0.570458
0.486654
-0.0086
-0.263842
0.167797
-0.353484
-0.524784
-0.263219
-0.618458
-1.85865
-1.26714
-0.91346
-0.381899
0.413816
-0.049272
-0.317743
-0.282272
-0.2498
-0.551405
-0.071169
0.473418
-0.450951
-0.701459
-0.292892
-0.348506
-0.01597
-0.138682
-1.11054
0.070714
0.292016
0.247002
-0.216535
-0.004505
-0.181848
0.005164
0.085611
0.400073
-0.351659
0.251906
0.125987
-0.24048
-0.338658
0.339006
0.285171
-0.375921
0.230909
0.572289
0.46462
0.332719
-0.290286
0.284713
-0.00802
0.422565
0.426258
-0.328846
-0.257768
-0.109677
0.125596
-0.709555
0.056136
-1.13815
-0.614039
-0.658583
-0.462716
-0.573995
-0.65858
-0.180996
-0.591165
-0.710483
-0.456941
-0.443477
-1.08862
-0.691363
-0.411277
-0.439073
-1.37716
-1.64612
-0.546434
-0.453688
-0.717887
-0.635496
-0.248012
-0.327
0.19743
0.148448
-0.137327
0.097726
0.520591
0.584283
-0.252474
-0.358617
-0.031367
-0.018519
0.396289
-0.019282
-0.325993
-0.045009
0.427448
0.369982
0.04438
0.270614
0.077401
-0.001093
0.313584
0.317185
-0.091473
-0.006449
-0.835331
-0.637785
-0.932432
-0.634571
-0.893124
-1.35324
-1.37395
-0.683712
-0.413215
-1.32389
-1.16684
-1.39631
-0.884201
-1.2377
-1.38706
-1.52521
-1.50485
-1.52502
-0.763039
-0.52685
0.418912
0.156749
0.003394
-0.073482
0.036995
-0.24106
-0.145659
0.020148
-0.040675
-0.045283
-0.338078
0.563134
-0.017969
0.28508
0.414966
0.253554
0.517325
0.494406
0.437275
-0.051448
0.00791
-0.288119
0.468892
0.545769
-0.09216
-0.365422
-0.25876
-0.117582
-0.389807
-0.13101
0.578149
-0.441765
-0.396536
-0.413199
-0.147243
-0.611673
-1.06231
-0.948469
-1.36688
-0.807474
-0.918256
-1.22787
-1.05348
-0.772866
-1.14754
-0.060305
0.194052
0.165792
-0.202057
-0.096463
-0.152831
-0.364904
-0.285006
-0.256716
0.557121
-0.188171
0.282943
-0.307376
-0.091946
-0.312595
0.29451
0.471364
-0.053768
0.00672
0.365465
0.181866
0.015174
0.2863
-0.196197
-0.173553
-0.170775
-0.280428
0.520103
-0.298556
-0.083981
-0.025752
0.259841
-0.175475
-0.040675
0.288498
-0.060237
0.051552
0.073617
-0.227509
0.368487
0.039131
0.541496
0.321122
0.133433
-0.290927
0.045265
0.044166
-0.065059
0.371142
-0.076107
-0.379461
0.148845
0.159984
0.486624
0.482565
-0.101193
-0.056789
-0.085659
0.236189
0.419941
0.356066
-0.219575
0.22447
-0.005792
0.119364
-0.278384
-0.360692
0.23979
0.297104
0.290634
==========================================
# 3
0.987732
0.462233
0.383068
0.70394
0.641224
0.180029
0.460652
0.380322
0.278909
0.284005
0.04499
0.0967437
0.24659
0.053871
0.445021
0.382031
0.0910672
-0.250581
0.681234
0.675741
-0.108853
0.0421461
0.315256
0.463881
0.575036
0.488144
0.55678
0.384112
0.53032
0.323038
0.40318
0.231001
0.512894
0.760674
-0.330967
0.2931
0.760704
0.67629
-0.139067
0.152837
0.119022
-0.343968
0.954741
0.980743
0.683309
0.493429
0.830409
0.254555
0.565728
0.314524
0.0219733
0.535813
0.491873
0.212836
0.337748
0.033363
0.0338755
0.175207
0.607471
-0.213196
0.986053
0.980041
-0.087002
0.399945
0.289041
0.448744
0.158177
0.95587
0.809778
0.532615
0.73455
0.645009
0.981933
0.214881
0.93878
0.537492
0.4146
0.01066
0.198624
0.530482
-0.125657
0.345213
0.663277
0.202606
0.347777
0.291766
0.71402
0.605976
0.789972
0.850826
0.052406
0.927488
0.265786
0.651173
0.721305
0.050325
0.290017
0.454915
0.915464
0.147557
0.672445
0.546922
0.737693
0.737907
0.074258
0.190466
0.357311
0.136387
0.38222
0.930143
0.626331
0.029914
0.906491
0.623005
0.110538
-0.390448
0.908567
0.880001
-0.309055
0.190985
0.765535
0.697977
-0.507581
0.653612
0.477093
-0.335914
0.495373
0.130454
0.321012
-0.386279
0.786959
0.379751
0.164031
0.423362
0.507981
0.968902
-0.166045
0.31901
0.451827
-0.09686
0.259316
0.582476
0.371349
-0.170684
0.982879
0.235603
0.550621
0.846431
0.155065
0.384747
-0.103238
0.0538347
0.914182
0.206006
0.209601
0.368908
0.458632
0.552599
0.483657
0.644856
-0.381719
0.666128
0.900082
0.720267
0.0310373
0.272317
-0.43582
-0.568429
-0.169735
-0.257079
-0.854982
-0.480435
-0.64973
-0.395328
-0.62714
-0.838639
-0.244505
-0.52295
-0.348564
-0.540907
0.399512
-0.380407
0.340861
0.6163
0.120716
0.170446
0.167272
0.433454
0.380389
0.0567644
0.515885
0.0542619
0.449574
0.259163
0.0634175
0.393176
0.951262
0.610492
-0.193664
-0.124235
0.263527
0.910886
-0.359197
0.223792
0.09064
0.339915
-0.148894
0.41496
0.107608
-0.052486
0.562334
0.949828
0.685293
-0.6957
0.113968
-0.843696
-0.398807
0.193136
-0.58999
-0.036506
-0.156447
-0.577041
-0.296912
-0.824174
-0.586319
0.346257
0.066991
-0.221229
-0.266262
-0.139265
-0.584207
-0.092367
0.165545
0.177807
-0.275549
0.510266
0.447279
0.537742
0.407788
0.235267
0.353771
0.753594
0.113804
0.376995
0.58703
0.164861
0.487899
0.8081
0.902951
0.182073
0.963713
-0.068477
0.880642
0.40379
0.437483
0.28276
0.940825
0.586993
0.281845
0.913694
0.318735
-0.247816
-0.844948
0.289502
-0.100812
-0.495105
-0.137632
-0.070464
-0.381753
-0.646229
-1.17427
-0.176296
-1.26034
-0.59205
-0.382348
-0.444667
-0.98933
-0.566408
-1.0841
-1.33782
-0.595514
-0.448347
-0.464675
-0.433708
-0.744652
0.758098
-0.207443
0.004575
0.492233
0.947233
0.760399
0.190686
0.377819
0.020301
0.867946
0.93997
0.558641
0.459548
0.202307
0.988586
-0.36707
0.850032
0.569109
0.337901
0.442335
0.429646
0.266854
0.155773
0.193365
-0.151021
-0.167583
0.465252
0.215729
-0.177636
-0.68674
0.15287
-0.337309
-1.04914
-0.576989
0.227174
0.960692
0.399118
0.236305
0.358867
0.31373
0.206659
0.679492
-0.366125
-0.730662
-0.8845
-0.926838
-0.149556
-0.048051
-0.405301
-0.816819
-0.408118
-0.529997
0.543867
-0.064327
0.50553
0.403507
0.555834
0.253066
0.220283
0.177618
0.121006
0.967132
0.532426
0.628803
-0.246461
-0.335118
0.192517
0.169964
0.021033
0.224439
0.523582
-0.139463
-0.240754
-0.604022
-0.297644
-0.811945
-0.747356
-0.814795
-0.565426
-0.032899
-0.93773
-0.705353
-0.244365
0.262191
0.28211
-0.120368
-0.111954
0.340779
-0.294864
0.174816
-0.013453
0.362584
0.180715
-0.252342
-0.297464
-0.288763
-0.156307
-1.06461
-0.301105
-0.424787
-0.302417
-0.279061
-1.25366
-0.116489
0.032157
0.004999
0.232759
0.402637
-0.142821
-0.070186
0.316605
0.10148
0.133433
-0.288699
-0.044246
-0.210389
0.582147
-0.164489
0.143046
-0.363927
0.554253
0.175793
-0.520533
-0.625901
0.040724
0.18706
-0.283059
-0.401312
-0.794876
-0.166976
-0.59913
-0.137144
0.219617
0.303198
-0.555016
-0.420838
-0.514216
-0.024668
-0.0313
0.132331
-0.278448
-0.120222
-0.471612
-0.190555
-0.604843
0.022333
0.174828
-0.845677
0.187967
-0.778649
0.06642
-0.748454
0.066597
-0.584515
-0.029145
-0.252965
-0.453429
-0.501486
-0.314396
-0.288943
-0.072079
0.137492
0.209241
0.550468
0.384265
0.229902
0.393664
0.075295
0.18681
-0.143004
-0.090054
-0.672515
-0.055574
0.188965
-0.641939
0.276623
-0.85934
-1.10197
-0.848253
-0.210428
-0.350224
-0.063643
0.410373
0.380651
0.012
0.034504
0.48858
-0.052605
0.550166
0.676757
0.374899
0.799725
0.008469
-0.090197
0.091049
-0.013031
-0.4051
0.04087
-0.077413
-0.169048
-0.391913
-0.318653
-0.587286
0.169939
-1.26932
0.092648
-0.049953
-0.280218
-0.230604
0.290054
0.381732
-0.240175
-0.275881
-0.138914
-0.116605
0.447957
0.566491
0.154796
-0.083065
0.472616
0.509482
-0.402487
0.007236
-0.753026
-0.150649
0.392239
-0.530457
-0.347597
-0.038853
0.757335
0.218369
-0.263591
0.128855
0.160921
0.48934
-0.327519
-0.308435
-0.392758
-0.295068
0.487112
0.487112
-0.168813
0.01615
-0.139167
0.473757
-0.142677
-0.149831
-0.490582
-0.287667
-0.82045
0.19642
0.451109
0.08883
-0.882116
-0.438594
-0.433314
-0.040675
-0.191824
-0.375698
0.058254
0.298874
-0.018427
-0.176147
0.213208
0.034431
-0.110532
0.008338
0.179394
-0.155486
0.530509
-0.220353
0.457915
-0.394336
-0.464351
-0.437297
-1.48038
-0.832392
0.268081
-0.068365
-0.247774
0.338081
0.193197
0.323716
-0.157216
0.458769
-0.123798
0.372423
0.403705
-0.34641
0.362444
-0.108884
-0.352931
0.030198
-0.402667
-0.361925
-0.2859
0.316486
-0.057897
-0.105356
-0.333912
-0.386789
-0.158681
-0.112711
-0.057241
-0.556584
-1.00128
-1.1147
0.294479
0.480987
0.31757
0.205017
-0.105252
-0.261568
0.461385
0.451802
-0.261324
0.396136
0.492087
-0.368474
0.534355
0.053429
-0.559004
-1.13799
-0.00723
-1.11652
-1.33053
-0.183584
0.223157
-0.127046
-0.124937
0.229344
-0.260744
-0.172475
0.299951
0.097238
0.483511
-0.075283
0.197064
-0.095914
-0.22519
-0.004663
-0.18865
-0.396329
0.086645
-0.485504
0.131031
0.589959
0.361104
-0.016016
-0.733705
0.486267
-0.233989
-0.113617
-0.888913
-0.114676
-0.39953
-0.506659
-0.055904
0.070391
-0.044368
-0.192059
-0.27405
0.149791
0.036842
-0.276308
-0.352208
0.335191
0.153301
-0.219666
-0.511499
-0.004486
-0.51854
-0.701563
-0.86379
-1.08261
-0.091183
-0.126475
-0.069671
0.203586
0.063637
0.011582
-0.419034
-0.059636
0.237471
0.48638
-0.278842
-0.334507
-0.393469
-0.199371
-0.351353
-0.13217
0.158071
0.331874
-0.386483
-0.25045
0.12804
-0.055864
-0.292392
-0.017054
-0.243596
0.247233
0.412201
0.192209
0.066402
-0.315744
-0.839863
0.492108
-1.12654
-0.370998
-0.131285
0.014472
-0.268905
0.474538
0.399463
0.15385
0.218671
-0.206543
0.001013
0.363451
-0.021372
0.252544
-0.308219
0.33285
-0.791745
-0.638618
-0.262148
0.178576
0.513266
0.537529
-0.216666
0.27871
0.428516
-0.231446
0.588455
-0.016901
0.41286
0.253035
0.232405
-0.370031
0.423969
-0.499237
0.336839
-0.099414
-0.320481
-0.525413
0.266259
0.342982
0.110849
-0.246055
0.461608
-0.103876
-0.184436
0.002377
0.063329
0.445698
-0.584765
-1.08061
-0.519742
0.242851
0.124216
-0.241212
-0.439839
0.016822
0.036384
0.393878
0.218885
0.113382
-0.36469
0.011298
-0.616483
-0.010526
-0.365014
-0.785183
-0.693408
-0.003864
-0.14377
-0.180139
0.307236
-0.319758
-0.053554
-0.179534
0.195111
0.13683
-0.352483
0.30976
0.434468
-0.356999
0.019263
0.435047
0.403247
-0.295221
0.323869
0.06914
0.004572
0.347966
0.078143
-0.321192
0.586389
0.484436
0.179598
-0.128217
-0.074734
0.185314
0.312412
-0.096567
-0.068767
-0.808368
-0.760167
-0.17535
0.229475
0.394427
0.08923
0.051845
0.475118
-0.184875
0.235884
-0.259432
0.157573
-0.082424
-0.808109
0.143745
-1.04939
-0.716996
0.40636
-0.364003
0.064275
-0.32107
-0.416868
-0.314609
0.555077
-0.246095
-0.077328
0.053475
0.350673
0.288406
0.093414
-0.094916
0.34514
0.03376
-0.159941
-0.190542
0.421345
-0.429472
0.034114
-0.086831
-0.343715
0.416837
0.073251
-0.433073
0.366311
0.018497
0.135905
-0.2129
-0.452565
-0.347713
-0.40289
-0.867013
-1.13185
-1.22706
-0.088009
0.281784
-0.129759
-0.564232
0.37279
-0.318424
-0.166045
-0.27405
-0.253572
-0.135374
-0.836064
-0.074462
-1.50193
-1.39887
0.452351
-0.550179
0.307367
-0.424244
0.174664
0.183911
-0.116514
0.067208
-0.224458
0.051064
-0.114673
0.413083
-0.4
-0.056157
0.55294
-0.25989
-0.173492
0.249413
-0.243501
0.042467
-0.141398
-0.29982
-0.53057
-0.312311
-0.26932
-0.318567
0.271093
0.133085
0.384671
-0.173836
0.386145
-0.367244
0.073382
-0.370193
-0.633564
-0.882781
-0.352574
0.314713
0.421741
-0.273971
-0.018519
0.476888
0.405445
-0.324253
0.295883
-0.155058
-0.13838
-0.65645
-1.66928
-0.21616
-0.460204
-0.351817
0.327937
-0.226463
-0.016617
-0.190551
0.077615
-0.105496
0.198285
-0.332371
-0.314609
0.051134
0.307785
0.343614
-0.183541
-0.235789
-0.299969
-0.078631
-0.12689
-0.036241
0.274386
0.034257
0.261446
0.113718
0.092782
0.235618
-0.296185
-0.700784
0.842473
-0.464324
-0.246443
0.308243
0.416227
-0.814185
-0.632609
0.138536
-0.68337
0.090921
0.092782
-0.538841
0.290237
-0.268099
-0.074429
-0.227815
0.497885
0.379229
-0.004984
0.263103
-0.971841
0.078344
0.231468
-0.458135
-0.140959
0.389035
-0.025925
-0.464293
0.27513
0.059243
0.073922
0.006537
0.54583
-0.384771
-0.3511
-0.389319
-0.12866
0.148662
-0.152678
0.534019
0.602463
-0.217704
0.075405
-0.266442
0.240266
-0.304376
-0.3541
0.417295
-0.277538
-0.708567
0.503504
0.192718
0.502005
-0.01558
0.183401
-0.483944
-0.17539
-0.706369
-0.640675
-0.126859
-0.288485
-0.38045
0.037452
0.022987
-0.146544
0.387164
0.05204
-0.264437
-0.777987
-0.763869
-0.680639
-0.244807
0.205304
-0.359896
0.406055
0.220176
0.173107
0.434874
-0.031693
-0.029353
0.178875
0.038307
-0.182159
0.475546
-0.295953
0.442259
-0.228822
0.409626
0.051186
0.257805
0.638292
-0.287408
-0.507743
-0.204266
-0.493011
-0.439116
-0.021723
-0.437468
0.079376
0.383551
-0.183642
-0.346016
0.216321
0.253502
0.320978
-0.272909
0.04644
-0.514319
-0.255361
0.031837
0.195935
0.17279
-0.304355
0.084115
0.595117
0.290359
0.24803
0.560601
-0.881658
-0.397922
-1.44983
-0.402649
0.413388
-0.003082
0.038856
0.273156
-0.323704
0.488943
0.364467
-0.041093
-0.071377
0.211469
-0.366277
0.114154
0.352321
-0.46343
0.37644
0.31222
-0.060381
-0.548973
0.041978
-0.324915
-0.386798
-0.379614
-0.267397
0.199463
0.073586
0.472188
0.278906
0.154601
0.629585
0.229249
0.064196
-0.06563
-0.331773
0.125108
-0.395895
-0.356526
-0.979556
-0.36813
-0.112546
-0.100107
0.578759
-0.16751
0.384692
0.134837
0.122752
0.568352
-0.370077
-0.82927
-0.690152
-0.306577
-0.016404
-0.940581
0.38583
0.066494
-0.219169
0.36111
-0.027116
-0.287744
0.272921
0.345616
0.490905
-0.116849
0.567101
-0.202728
-0.232292
0.052559
-0.227998
-0.195456
-0.204254
0.170888
-0.346025
0.115467
-0.010074
-0.28399
-0.088916
0.640519
0.204218
-0.131019
0.271038
-0.51583
-0.337358
0.046303
-0.080859
-0.414185
0.060692
0.020255
-1.13737
-0.447905
-0.306186
0.058101
0.537468
0.161144
0.269485
0.412128
-0.135984
0.520682
-0.441978
-0.909198
-0.642094
-0.839421
0.439756
-0.956755
-0.098071
-0.458242
0.103647
-0.312381
0.186016
-0.338109
-0.345402
-0.18511
0.320429
0.340245
0.184805
0.099414
0.029496
0.261629
0.065966
0.047176
-0.068438
0.061794
0.018497
-0.286544
0.211356
-0.564904
0.213898
0.720673
0.091379
0.045445
0.066524
0.407712
-0.091745
-0.078039
-0.328816
-0.057329
-0.399475
-0.678762
-1.05742
-0.070748
0.11384
-0.064034
0.412983
0.238752
0.230116
0.032966
0.244307
0.398608
-0.373189
-0.499731
-0.888897
-0.531001
0.372423
-0.114261
-0.389807
-0.161602
0.26451
-0.192413
-0.246217
-0.030451
0.216758
0.21868
-0.498169
0.027299
0.100909
0.105365
0.490194
0.318925
0.450224
-0.197439
-0.389288
-0.120991
0.230143
-0.194073
0.299707
-0.57055
0.683398
0.062532
0.790439
-0.953856
0.054561
-0.278414
0.286767
-0.33629
0.001303
0.325709
0.113572
-0.55089
-0.401819
-0.17513
-0.299768
-0.424152
-0.360967
0.393756
0.453908
-0.270083
-0.255129
0.033638
-0.421989
-0.721845
-0.717383
-0.75931
-0.206757
-0.368694
-0.298251
-0.47878
0.51641
-0.467803
-0.005264
-0.264489
-0.146312
0.000504
0.187307
-0.148396
0.064867
-0.434498
0.165508
0.089792
0.354378
0.418119
0.144795
-0.560418
-0.35457
0.312873
0.288366
0.830287
0.293826
0.652147
0.380441
-0.564052
0.497195
0.28269
0.260756
0.196808
-0.843388
0.03675
-0.073193
-0.462416
-0.354027
0.348384
0.3099
-0.335405
0.245863
0.076302
0.531059
0.222578
-0.201386
0.164928
-0.356404
-0.107739
-0.960231
-0.325794
-0.131895
-0.589434
-0.137135
0.110135
0.126109
0.094165
-0.326023
-0.113239
-0.320878
-0.052272
0.29158
-0.248903
-0.021235
-0.261721
-0.051427
0.002206
0.234645
0.616959
-0.347569
-0.164357
0.305853
0.168816
-0.140062
0.244533
0.022877
0.373055
0.422404
0.108631
0.545405
0.053697
0.558007
-0.297653
-0.63693
0.502921
-0.49273
-0.846583
-1.15511
0.2575
0.128071
0.38291
0.143718
0.510611
-0.013819
0.158336
0.362139
0.538902
-0.201981
-0.809116
-0.914179
0.02758
0.381243
-0.992065
0.19093
-0.02664
0.170238
-0.46762
0.531242
0.247786
0.351933
-0.400388
0.311966
0.100931
-0.021326
-0.256166
0.555943
0.287921
-0.285382
0.184768
0.368603
0.398679
-0.329075
0.145845
0.408264
0.672463
0.38732
0.235423
0.267501
0.078506
0.315162
-0.477905
-0.127805
-0.35612
-0.441038
-0.364568
-0.395468
-0.790216
-0.867776
-0.476684
0.455779
-0.502219
0.084054
0.097147
0.215619
-0.133055
-0.047328
-0.103818
-0.495874
-0.756807
-0.897809
-1.19749
-0.047658
-0.497726
-0.301263
0.137196
-0.461995
-0.212558
0.082528
-0.330265
0.382818
0.143291
-0.008499
0.171529
0.416919
0.146587
0.293503
0.044545
-0.082504
0.715799
0.782739
0.357036
0.627409
0.480407
0.397043
0.516684
-0.240074
-0.308875
-0.28796
-0.286868
-0.003595
0.452596
-0.031581
-0.738853
-0.017502
0.559197
-0.9111
-0.425245
-0.870461
-0.084002
0.140645
-0.195111
0.227308
0.025733
-0.300296
0.571007
0.474264
0.122691
-0.626127
-0.282107
-1.36821
-0.464605
-0.160302
-0.870571
-0.291742
0.059078
0.150267
-0.570113
0.079699
-0.28099
0.170074
-0.295291
-0.047258
0.206189
-0.106931
-0.228526
0.576736
0.266515
-0.299991
0.132569
0.810611
0.224754
-0.288372
-0.459288
0.051378
0.324497
0.093728
-0.491302
-0.470147
0.465352
-0.229463
0.394488
0.280654
-0.881191
0.402432
0.192761
-0.508188
-0.096377
-0.615632
0.064837
-0.158998
-0.197644
-0.07861
0.537162
0.424335
0.500327
-0.26288
0.100565
-0.616147
0.127665
-0.727964
-0.558998
-0.659767
-0.113376
0.026862
0.233329
0.036717
-0.255538
-0.691211
-0.471007
-0.799451
-0.225913
-0.064919
-0.430631
-0.171407
-0.377447
0.451466
-0.244539
0.402637
0.290072
0.521354
-0.194296
-0.258882
0.799289
0.341835
0.032997
-0.206351
0.137562
-0.457146
-0.228364
-0.315952
0.552239
-0.274001
-0.613392
0.308771
0.380694
-0.501144
-0.204892
-0.803735
0.396908
-0.438639
0.032539
0.234449
0.454579
-0.099667
-0.005945
-0.328617
0.509421
-0.851506
-0.017817
-1.00331
-1.19937
-0.535679
-0.90701
0.008673
0.574059
-0.111582
-0.029029
-0.325587
-0.673226
-0.166323
-0.135701
0.088711
0.356075
0.064418
0.012232
-0.362352
0.192434
0.121448
0.194592
0.574242
0.199179
0.049113
0.476208
0.710855
-0.081222
-0.219605
0.376186
-0.063976
-0.151701
-0.06335
0.593957
-0.938902
0.423969
0.397763
-0.076565
-0.596576
-1.00274
-0.100436
-0.013901
-0.388375
-0.316959
0.114389
-0.385656
0.140361
-0.238679
-0.02917
-0.383123
-0.620267
-0.086514
0.069634
-0.643312
-1.25394
0.374987
-0.148991
0.373125
0.440397
0.384954
0.070705
-0.320389
-0.119263
-0.185498
0.240144
0.467916
-0.285678
-0.245302
0.487295
-0.350011
-0.183532
-0.354344
-0.205231
-0.130381
-0.318546
0.527705
-0.129087
0.613797
-0.28702
-0.103629
-0.389789
0.155986
-0.08099
0.341722
-0.500259
-0.237519
0.318415
-0.445769
-0.072735
-1.40733
-0.03509
0.27752
-0.652208
-0.375402
-0.104978
0.289505
0.564446
-0.362523
0.406024
0.593988
-0.820164
0.081903
0.170122
-0.397629
-0.125056
0.269115
-0.60857
-0.111661
-0.029435
0.110898
0.311679
-0.404224
-0.571325
-0.258986
-0.429209
-0.018693
0.549309
0.049355
-0.270785
-0.02682
0.41933
-0.039515
-0.142506
-0.47282
0.06961
0.187506
0.499695
-0.038945
0.196374
-0.107566
0.317042
0.048997
-0.29639
-0.315397
0.217927
-0.343388
-0.377926
-0.411756
-1.01974
-0.50119
0.161754
0.210276
-0.227207
-0.099545
0.353624
0.239851
0.181591
0.042671
0.437153
-0.289126
-0.152281
-0.425803
0.44994
-1.34152
-1.07748
-0.929069
-0.524827
0.101022
0.346666
-0.376818
-0.496054
-0.321345
-0.340431
-0.366668
-0.131977
0.079882
0.344731
-0.295953
0.399585
-0.312931
0.517875
-0.300876
0.274285
0.172646
-0.036036
0.357543
0.093628
0.476553
0.129194
0.142412
0.063301
-0.103098
-0.02566
-0.694018
-0.477032
-0.37525
-0.10448
-1.14806
-0.215107
-0.545955
0.119251
-0.023933
-0.163564
0.598413
-0.222993
0.266707
-0.336277
0.545708
0.166546
0.54644
0.05201
-0.518122
0.205487
-0.664266
-1.18092
-0.784881
-1.01591
-0.379638
-0.361333
0.031428
0.322678
0.003452
0.509055
-0.086456
-0.059255
0.023484
0.123698
-0.046312
-0.056597
0.419767
-0.099667
0.391742
0.231956
-0.473766
0.224348
0.510053
0.344053
0.275192
0.062694
0.116288
0.530754
0.191833
0.00517
-0.354848
0.275658
0.461171
-0.71156
-1.08908
-0.53672
-0.551427
0.35989
0.041041
-0.397763
0.454946
-0.363042
-0.276858
0.209851
0.087838
0.218549
-0.30405
-0.335759
-0.469994
-0.29555
-0.284451
-0.869524
-0.71355
-0.720557
-0.371642
-0.133451
-0.008945
0.118043
-0.11793
-0.184164
-0.445515
0.166146
0.105658
0.592004
-0.26577
-0.344234
0.389636
-0.337092
-0.091977
-0.19039
0.098242
0.539512
0.63231
0.29086
0.04434
-0.224113
-0.533512
0.255263
0.258446
-0.912626
-0.255324
0.361263
0.483114
-1.60812
-0.624329
0.394742
0.424244
-0.418278
0.2528
-0.035792
-0.110166
-0.368322
-0.044948
0.523276
0.148357
-0.050441
0.020087
0.375903
0.137004
-0.224381
0.370837
-0.778445
-1.04793
-1.06283
-0.022837
0.295761
-0.048039
-0.235698
-0.466848
-0.437285
-0.195782
0.373409
0.232026
0.216156
0.408353
-0.275637
0.119129
-0.055507
-0.375118
0.157949
0.105222
-0.183096
0.342567
0.119324
0.320319
0.046159
-0.085446
0.074532
0.390002
-0.715253
0.295151
0.325282
-0.884646
-1.48944
0.507926
0.42935
-0.462615
-0.142033
-0.022904
-0.068233
-0.132261
0.151195
-0.247285
-0.085812
0.066445
0.595788
-0.138578
0.567498
0.248366
-0.115735
0.213788
-0.205133
-1.30065
-1.02697
-0.800534
0.0511
-0.116715
0.385589
0.301782
-0.075631
-0.378384
0.299594
0.362291
-0.232984
-0.573775
-0.327235
-0.07271
0.481252
-0.23282
0.365026
-0.292892
-0.033769
0.456432
-0.087875
-0.12042
0.332789
-0.171325
0.307968
-0.731223
-0.608078
-0.298892
-0.349208
-0.969417
-0.276617
0.292434
-0.089282
-0.223972
-0.269478
0.283288
-0.226319
0.463765
-0.212189
0.198743
-0.381109
0.493002
-0.312809
0.494345
-0.114408
-0.171966
-0.010538
-0.473046
0.38573
-0.414371
-0.413132
-1.00834
-0.98178
-0.583319
0.083587
0.105722
-0.45822
0.313053
0.199768
-0.07864
0.262099
-0.528739
0.105731
-0.451994
-0.41055
0.443959
-0.107523
0.065914
0.323777
0.110514
0.584866
0.311487
-0.277612
0.498068
0.603491
-0.283233
0.107706
0.484222
-1.41829
-0.916688
0.270174
-0.18753
-0.755901
-0.027891
-0.07658
0.052141
0.052132
-0.309269
0.467702
0.433186
0.024207
0.159343
0.417438
-0.011988
-0.264803
0.135905
0.44991
-0.368734
0.202954
-0.217096
-0.169613
-0.291708
-0.433314
-0.543843
0.171081
0.144514
-0.235304
-0.003088
0.378942
0.126139
0.117106
-0.390814
-0.050423
-0.356227
-0.18034
0.302698
-0.137074
-0.569634
-0.54467
-0.216797
0.737245
-0.17571
-0.170248
0.671557
-0.602649
-0.110718
0.136576
-0.167943
-0.886062
-0.677865
0.159313
-0.307633
-0.030598
-0.120411
-0.184219
0.435353
0.307175
-0.344365
0.251021
0.444386
-0.279543
0.440419
-0.214112
0.283706
0.536552
-0.008142
0.126475
-0.205368
-0.146773
0.151988
-0.058736
-0.811133
-0.616718
-0.66216
0.112168
0.320746
0.163576
0.139769
0.265688
-0.381231
-0.115232
0.457112
0.490133
-0.141368
-0.002121
-0.196759
-0.254164
0.457936
0.154213
0.011026
0.273778
-0.324986
0.134663
-0.630174
-0.990417
-0.307733
-0.075106
-1.17462
-0.29125
0.3653
-0.208051
-0.526136
0.089221
-0.180374
-0.080068
0.081491
0.198437
0.075906
-0.040828
-0.339604
0.309677
0.184613
0.346849
0.232832
-0.244844
0.252181
0.254164
0.214154
-0.898138
-0.861058
0.416858
0.046431
-1.12438
-0.28898
-1.0948
-0.286526
-0.058986
0.526585
-0.310419
0.169127
-0.25815
-0.261568
0.558159
-0.290835
-0.390155
0.093768
0.242586
-0.280895
