==========================================
# 0
2.1916
-6.2987
-27.1962
-1.5073
-14.2732
-3.7565
-22.3041
-19.6582
-1.64
-9.4665
-21.9501
-9.7488
3.7862
14.6019
-2.6014
19.7611
15.9752
-14.2472
-18.7914
15.3054
21.071
-13.0838
14.9429
-23.8767
15.95
-26.0984
0.1521
-1.1175
11.8346
-3.1446
0.5954
-25.2537
13.9259
-16.7665
-25.478
-1.2051
19.23
-9.8358
19.6817
12.0551
-6.494
-5.5952
18.0291
6.9524
19.5642
-7.7117
21.3084
-18.9852
21.5372
-13.765
-27.2176
-22.0768
-26.9933
16.6589
-7.2661
-12.7579
-20.9644
22.1079
-20.6943
-1.8384
-3.8069
-14.557
1.2272
-22.4399
-20.3723
-1.1441
-15.9929
17.6934
28.8241
13.104
23.6985
-17.5952
27.1619
9.8701
-14.1174
-3.9624
-14.4759
0.8014
12.2184
11.8147
0.6031
10.4453
10.459
0.3803
-0.0393
0.4917
4.189
-7.08
5.1671
-25.6139
-0.0149
-5.0261
4.9855
-15.9624
12.5679
-23.914
-25.3026
-23.1418
4.8848
6.809
-0.5429
-18.0086
10.7322
-2.8943
-9.6984
18.4869
-8.554
-17.4761
6.9265
-16.7345
3.2445
-21.5762
-23.769
1.7063
-23.2304
6.5787
28.716
6.5595
-5.5845
1.8835
-10.1832
26.1704
7.8262
-16.0869
-15.8763
-16.4455
-4.0032
-4.7487
18.8541
16.3973
-3.4481
-6.47
-19.4482
-3.014
-20.061
15.0215
-26.7766
19.874
6.3558
21.9889
11.7408
21.8729
10.3171
-7.5667
16.7947
17.402
12.0612
10.9855
-26.5111
9.1895
4.3019
21.7829
7.5384
20.7071
-10.2066
22.0606
-14.2427
0.9373
-1.724
17.5485
-18.8799
-14.5127
-15.6221
-14.9965
25.404
29.8223
-14.5896
14.9833
-21.6079
-5.427
-24.4743
9.8074
-6.7737
-15.5477
-21.0394
17.9342
-17.2444
-14.3808
26.7259
20.0894
16.1765
17.8861
10.2994
14.0326
-0.2093
-13.0882
12.6298
12.6136
1.9032
11.75
20.1303
-6.9716
19.8404
9.0079
-10.6918
10.1432
21.9798
9.8181
12.1665
-25.2141
1.1463
-15.2498
4.8451
-20.0366
-20.9567
-8.4182
0.391
-17.5798
-7.228
21.9538
-9.9853
-14.8942
-21.265
14.9423
-7.0027
-5.9964
-5.191
5.8199
-12.3549
19.0756
-20.3675
18.5559
0.0611
-18.2927
-4.9348
-16.8996
0.6577
-20.0219
-16.0435
14.3568
4.6429
-6.0116
-1.0431
12.5532
16.1703
-11.5586
-3.3643
-18.8226
-21.8882
-4.3684
-8.5082
-4.109
2.4311
11.5668
9.0048
-16.1714
7.9168
15.0399
5.3014
-24.712
-8.9752
-2.3481
-1.5317
12.3268
11.6431
-3.4361
1.5614
7.1691
3.9143
21.8699
21.731
1.0822
-6.7149
1.2662
13.3471
6.1708
-17.2701
20.0092
9.2253
1.5002
63.7278
26.5442
26.5579
59.2325
18.1272
30.3714
21.5315
55.2052
59.9129
46.6359
47.648
57.6404
-3.3712
11.8512
-6.3118
-21.6284
-24.3367
16.5398
-6.1949
7.8811
6.7785
3.893
4.601
13.3034
18.7555
-9.3795
-13.3073
9.4336
-4.5668
-11.4884
-10.1974
18.052
-9.172
13.2835
8.5043
5.2724
-17.8896
-18.1216
21.5769
20.907
-13.6323
30.8564
16.4599
13.6798
-9.4565
11.1622
-13.5003
-9.0553
30.9205
57.3373
56.7895
21.1649
15.1619
11.2495
-14.2106
7.4654
-20.8392
8.1393
0.7617
-21.4422
-9.8084
-11.8939
45.1939
52.0582
63.3794
17.0918
11.3758
9.9706
16.0027
0.8503
2.3145
6.1941
-5.757
-17.4746
13.282
0.4886
-23.4074
-18.3398
1.6468
5.1442
22.227
9.4214
-5.9859
-7.791
-4.8094
8.0633
-14.5784
-13.8383
18.2733
-4.4157
-8.3842
-10.5002
7.5566
5.5427
-14.5625
24.3449
32.7196
55.3353
22.5325
-15.0483
20.0312
20.0525
2.8279
-14.8515
-16.292
13.8743
-17.8284
12.74
0.7327
16.2208
2.6203
-21.2742
-3.9961
-6.939
-29.7048
31.2322
69.4048
-12.1812
-6.2576
-10.1121
-24.9379
-2.7943
-26.9506
1.7017
-26.7934
15.6792
4.1829
5.2419
-15.6419
-20.8972
-13.353
-0.4986
-2.9584
-6.5505
20.1181
18.4808
-14.853
-15.6724
10.9
22.6806
-10.8517
4.2382
2.7071
-7.1067
5.4707
57.9279
22.5615
-23.3311
-26.2486
9.368
22.1049
-0.3583
21.3236
13.7764
-22.2339
-4.7789
-11.0029
19.6555
11.9115
-7.0159
16.7794
1.6101
17.7025
-10.9945
17.1325
-1.2234
20.452
53.7545
14.7561
16.1232
-7.4539
-1.1936
-28.3001
-17.6241
7.926
-21.0117
18.7341
-22.5071
-18.146
7.9794
-6.4025
-25.0828
0.9739
-15.8815
11.6554
-9.613
18.3877
22.1476
-18.445
26.7913
-13.9008
6.0442
-18.5845
46.7897
28.7934
-2.2443
20.4508
1.5202
12.5785
-13.5987
9.5404
-15.5092
16.9488
1.4332
16.0622
1.9779
-22.5114
6.859
5.3973
7.8344
4.5247
-15.9578
-22.2843
4.8451
-17.2281
9.0849
-18.327
-22.1415
51.0412
13.1846
-19.2234
20.5332
-18.7264
9.7815
-1.402
14.5378
10.7337
-8.4563
11.6004
-23.0625
-9.4924
-12.2849
7.3232
14.8735
17.8918
-17.502
-9.2834
15.8669
-1.4003
-7.5487
5.5526
-11.9315
11.8393
18.7635
-18.706
-12.3154
-13.3302
0.362
7.0059
-20.0747
-0.4269
-0.4971
-24.1856
-14.5539
15.2352
1.6544
-15.6158
-24.1264
6.8408
-4.7346
15.2336
-11.9522
-8.0703
-23.148
20.7782
-3.7539
-25.1258
14.1624
33.5632
54.0503
-21.5456
-2.6808
-3.513
-2.4814
8.7744
10.9107
17.3348
5.335
7.192
16.0363
-14.7111
-1.9483
-0.462
-3.2667
12.2734
-16.9817
-22.5452
-26.7764
-8.0333
25.5015
-19.0493
1.1183
17.257
66.4303
19.0057
9.8288
-17.7706
-25.7649
14.1121
-8.7905
11.5119
-4.4981
-15.1979
-9.7641
-12.5
-20.6958
5.0605
-7.9302
6.2488
5.0557
5.8141
-25.5421
4.1798
-12.1796
4.2043
24.6142
1.9651
12.3062
-20.7607
46.7594
12.3728
-15.9973
-15.3902
6.1629
-14.6074
-8.9767
-5.7921
-18.2757
-18.9425
13.1065
4.7276
7.8466
15.6838
12.1513
-26.8575
-17.0046
17.9025
16.3554
11.9605
-23.7444
-20.8778
57.0727
59.968
-9.7595
-17.6622
5.7393
6.5542
5.779
-16.0768
4.5186
5.1656
8.3853
-19.1226
-0.9518
16.2774
-11.6791
9.0096
-13.9058
9.9232
-23.3158
-26.7095
-16.0371
12.7586
-17.9003
17.4127
-23.8642
8.2914
-4.7418
10.9793
-2.8045
33.571
-0.3001
17.4142
-17.4294
-11.8058
17.0571
21.2427
9.8731
-5.1222
-1.2311
0.5863
9.0353
3.8838
-1.9086
-13.7864
13.5841
19.3231
-21.82
17.5141
-27.3491
-20.3529
61.9162
1.8147
20.6598
-0.845
-6.3765
-9.7534
-24.4069
-27.0269
8.3471
-18.616
14.7194
12.6197
-15.5412
19.5551
-4.2997
-2.0137
-2.3972
4.7839
9.8578
2.7851
11.6279
21.8089
7.3934
-1.4859
17.7916
-1.4969
27.0823
-18.9676
10.9465
55.2405
40.5444
-8.6056
16.4828
-7.6751
8.605
20.1792
-13.8734
15.548
-17.3372
-21.3718
-16.559
11.9499
9.3771
7.865
-3.7855
-13.2552
9.3684
-3.4675
15.4593
45.2638
60.8847
9.194
20.0968
-17.145
6.2963
-18.5442
2.6188
-25.0416
-1.8201
-10.3973
11.6508
-7.141
-26.7369
-13.3149
-22.6825
3.1669
-15.2638
-22.9971
17.3883
-17.5142
-8.9111
1.4072
-6.4086
-21.9257
-24.7543
5.942
2.1045
-14.1377
-5.7873
-26.9889
30.986
9.3955
-4.0911
-11.6669
13.9839
-23.1937
-10.994
15.4137
-22.8687
4.2912
5.4708
20.1425
-2.0566
-5.2275
1.5461
0.9558
-0.8069
-24.636
-12.8895
61.3179
8.8444
-11.9522
22.4177
-10.8261
7.7032
-14.467
7.3263
-15.526
-24.6647
11.196
-22.8138
-13.2035
-24.6708
12.3069
4.6544
9.5879
-2.8809
4.1522
15.3527
-16.5926
4.7109
8.9011
-16.4827
-1.3272
9.5638
12.2352
4.2869
-15.0457
-15.5739
-16.5295
52.1094
-16.6796
-0.2015
-12.9716
-25.2476
10.105
-16.2508
-27.0864
2.5349
15.0811
19.9732
12.4427
-15.6312
-16.7513
-20.3845
-20.6633
24.1768
-12.4881
31.5564
-25.6034
20.9219
-11.629
-12.143
-6.2239
-20.1617
-4.8719
-0.9747
2.4708
-21.5732
21.5433
14.6752
-13.4309
-14.1664
11.7255
-17.589
-8.1204
-27.2713
2.2875
18.7646
11.6142
9.1162
15.5724
-7.054
14.7194
-19.6368
-13.3515
-11.926
-0.1602
1.1836
-17.1032
61.9685
48.8562
24.4673
3.9488
18.1375
-3.2728
-6.4772
-25.2461
-16.7284
-25.1179
2.1488
-21.709
8.338
20.8811
15.9096
-9.2657
-12.0904
-30.0774
60.698
-24.6771
-1.5594
5.4446
-23.0625
-1.1502
18.0475
9.1483
4.2897
-5.0551
-24.5228
9.1772
8.8187
2.7623
-17.9476
16.6589
2.9026
-23.662
-23.8624
-12.0303
-24.7868
-1.8888
-6.935
0.4398
-22.9236
-0.5109
3.4576
10.4748
-6.6982
-12.8722
18.3852
9.4549
-13.7064
53.1288
-0.8588
-5.1699
7.4255
-26.8712
-16.8718
-5.3313
21.8379
20.7575
10.3385
-25.2721
-19.327
-5.0398
-7.672
-0.275
-7.4963
14.5107
24.6679
21.7339
-23.2794
20.2718
-27.111
6.9875
-17.8209
10.7306
-11.2579
10.5552
12.0246
-21.4465
-23.8163
-13.4599
-13.9634
-0.0714
-16.115
-8.3524
3.5325
-8.4611
-9.8938
-21.9684
-24.7502
0.7831
-2.8867
-9.1186
-19.323
6.8995
21.3797
-17.7519
7.1123
19.1058
-7.6774
29.0604
3.0186
-2.9817
-17.1068
-19.8184
-27.0162
7.9306
-14.0412
9.4977
22.3292
-10.466
-22.2797
-1.9788
-5.2748
25.24
15.6173
48.1847
19.1304
2.7203
4.9626
-26.5998
-17.4551
-9.3141
-19.8962
-12.761
-14.4761
-20.1846
9.8487
14.9987
-13.0738
14.6416
9.0735
-6.1919
8.2403
15.6871
-5.313
13.0926
-18.4161
7.308
9.9387
-21.7517
-27.0925
-20.4354
-13.527
-4.1726
20.0826
10.5556
12.2826
28.3453
11.5736
48.6258
52.5368
6.5492
-8.5082
18.0475
-7.3287
-23.7843
17.4722
0.6214
7.6422
10.5094
-24.8875
1.7033
15.6807
7.6232
8.9414
26.327
-4.2573
6.8022
15.6375
-4.5988
13.1734
19.8324
14.4033
11.0328
-13.2218
-10.7346
-1.4462
-22.3621
-27.0711
4.2394
-10.6979
-19.4827
-7.4675
-0.1324
21.4273
-22.0419
7.2378
3.0385
4.3385
1.2989
-19.0681
-21.8067
-8.603
17.8723
-11.2795
-5.1561
-10.2169
19.9023
-11.6043
-27.6381
58.1552
-18.743
-7.7801
-26.7217
0.6122
-14.3647
-22.9633
-4.1868
-11.6516
5.7256
18.9127
7.5964
9.2383
23.9583
18.1795
48.7139
21.8499
-11.5741
-15.9081
-5.2524
-25.4964
8.8062
12.7508
-11.1437
-14.1313
-20
-5.5998
-10.2936
-23.3738
7.2836
-13.7559
-23.9979
-16.4781
-14.5631
16.4955
5.2371
-15.5031
4.3874
18.7138
-10.4802
-22.565
-5.774
5.9802
14.7148
-17.7187
-0.7062
8.9014
2.8225
18.8213
-13.6774
20.9831
15.194
11.3153
-2.989
-4.2097
-27.2893
-17.2197
-26.7873
-14.4181
-14.2671
-16.263
-11.3403
19.1492
-4.2988
16.1393
62.3755
16.8799
19.564
21.9842
11.4136
-9.8684
5.307
-20.8516
15.2411
-16.4692
-8.0964
-26.3814
-3.1309
-8.9675
-4.701
11.7637
-18.999
-26.8788
5.042
-14.1253
-17.7082
-11.5906
14.3908
-16.4558
4.308
5.3943
16.2436
20.2829
-21.1112
-20.5097
0.0904
-21.8917
-16.2257
0.1165
0.2879
64.5604
0.9495
-14.1188
-16.089
-15.0178
10.3843
-10.7758
-10.1089
-5.638
-17.5798
-23.7934
8.8202
-19.5361
2.8623
2.8445
41.1295
-8.3452
-20.8547
13.6284
11.9315
19.7397
-0.1447
-13.9747
-2.8339
-0.6307
-3.8552
-23.9223
-5.9479
0.9418
17.2173
12.2138
17.6156
-10.3241
4.3472
-3.2263
20.3191
9.5964
-10.6208
-1.4175
-10.5898
10.9366
21.5752
-25.7378
5.2387
-21.0694
-13.7391
-16.7143
-8.1337
10.8865
-4.8636
51.7274
14.7896
-3.0986
7.5369
1.1295
-20.357
-7.9299
8.3075
-18.265
21.966
13.9473
-7.6522
-7.965
24.5015
-9.5964
57.4654
4.6015
-23.8318
-0.1904
-10.9314
-21.0147
7.2119
-9.6008
-23.1296
15.4763
11.8154
-11.1041
13.1042
12.6876
-25.7673
-24.0399
-15.098
21.0527
-16.3701
-13.105
-7.0131
7.2207
-8.5665
10.8234
18.3767
-21.8848
-11.9999
7.7352
-19.3057
15.1759
-9.4467
-15.8811
-18.7174
-1.0601
11.1159
66.2054
7.8039
-12.5166
-9.9441
1.3645
3.7648
-9.41
14.0266
19.0134
22.0896
1.9886
-9.8144
-18.9654
4.7362
23.6718
38.7331
8.4635
-2.8061
6.6763
-0.0989
-21.5808
-15.5397
17.9895
8.135
3.4627
-18.7075
-1.9559
-3.3661
-23.0017
3.6837
-4.0512
0.2214
-24.874
19.445
7.7439
18.1571
13.6099
4.2193
6.4075
3.5603
2.2557
17.6095
-22.6658
-14.5494
9.8901
-19.5208
-10.9493
1.5881
5.0329
-25.1417
29.7358
0.4276
17.4251
4.3797
13.1935
2.1671
-1.1548
13.488
-5.9203
-11.9049
-4.376
-11.5311
-13.8307
26.7477
-15.4538
67.7709
-17.3857
7.5824
0.0766
-23.2883
-15.204
-18.8846
0.2231
-19.2309
14.315
2.1687
6.0262
18.5312
4.7658
11.901
6.7129
7.3934
-26.2975
-26.3951
-9.2852
-26.731
-8.1372
0.1026
18.1649
16.9427
-2.8608
-4.318
1.4774
-1.6492
-15.9774
13.1996
-5.2698
15.4694
-6.6663
2.0091
26.4688
12.6365
12.6841
5.6096
0.4779
11.3868
-24.0269
13.6909
10.8664
-0.9259
-11.9095
6.5847
-19.9054
-4.2988
-11.198
33.0401
-20.3406
-17.8227
-3.758
-10.8414
12.0611
1.4285
-10.3974
-15.4466
13.1828
-8.4472
-20.0427
20.3424
-21.0452
-0.8572
19.5169
-16.4705
-12.7488
0.2918
-20.9769
-7.637
16.7841
-20.4104
14.4264
-23.8194
18.7585
2.5944
6.101
-13.6308
-19.6457
-5.1573
-18.9383
21.9492
24.5037
15.6204
25.2709
14.37
11.9409
-2.1665
-6.2865
2.2816
0.5283
21.2153
-23.9613
-3.5703
-0.9061
19.3048
-10.0403
16.0294
-7.087
23.6938
48.7491
15.7172
-9.0957
-24.341
20.6475
-21.384
-24.7303
4.6848
-6.282
8.3975
-0.4132
9.0262
-3.99
21.1634
16.375
6.7907
18.197
-21.4221
10.9317
5.9544
19.2164
-20.7522
-15.1368
-14.2167
-10.2386
2.5105
-19.4766
1.7796
-15.454
-18.3581
20.6442
8.9743
28.9762
5.7806
32.6106
14.2329
-24.5305
-7.2127
-22.4674
-22.9526
0.7236
-12.381
4.4118
-7.1456
22.2804
-8.8775
14.0877
-16.2684
-6.9756
-10.1576
51.6812
-4.1391
17.1609
-21.5119
-11.0594
-21.1781
2.135
7.4423
-20.8331
-8.8913
-17.4212
21.76
2.0374
-17.6317
9.0033
7.8375
5.2739
15.696
-2.4415
-26.9049
-26.1203
-14.4944
-10.2402
-3.195
-10.6308
-23.7797
-19.8932
-24.0554
-11.3645
3.8434
-3.0335
-25.5696
-8.0366
10.8574
20.0956
-0.1062
-12.2818
-9.993
9.0384
-12.1018
-22.4933
2.9408
0.3849
-7.7407
22.6908
12.2322
-20.8881
17.5217
13.3238
-8.2153
44.5904
5.9167
15.6502
-8.0123
-11.6623
16.3707
-24.7746
9.1359
-18.6312
2.3167
-27.265
1.8711
-5.8653
0.8243
-6.7275
14.4798
21.8791
11.6019
6.751
2.8824
19.0087
-21.7942
-15.413
22.0439
-5.2885
-13.5819
12.6991
13.0887
-0.9917
-22.8786
4.3008
10.7963
25.874
13.5567
48.3802
6.939
-12.175
-14.8134
9.307
12.7174
-22.9969
-19.9008
-0.5719
-18.8433
15.1451
5.718
-8.7737
-13.1056
-21.7018
-14.3937
24.1971
-4.9684
6.2059
21.139
-13.9848
4.2882
10.8712
-19.878
6.3039
-5.4625
3.0568
17.382
-0.659
14.7331
-2.0688
1.0532
-8.5891
22.5138
-6.346
-1.2605
15.3022
-22.9616
7.0165
1.7246
3.4749
0.5359
-2.3862
-18.9222
11.804
20.9063
-8.7627
12.9554
25.8246
-2.377
55.8147
16.3293
-6.0347
-24.3336
-16.1241
-17.1297
-10.6903
11.8491
-12.7137
0.9296
7.7871
15.9096
14.3166
-0.8191
-8.072
-3.4208
-18.6815
53.1239
-6.7771
13.8859
0.4703
-7.5011
21.6578
12.5955
-4.5575
-23.5554
-26.2532
3.3833
6.9554
20.7055
20.1548
-21.1765
-25.1607
21.8592
-2.8348
-17.7603
-13.3562
-14.3874
-0.9167
15.3664
13.3903
7.192
1.6804
-2.9824
-21.1621
-17.1766
-11.8836
27.3189
24.1781
-15.1942
70.8039
4.3538
-24.5091
10.5384
-7.8734
15.873
-21.9669
-0.4697
11.5623
19.5139
17.6965
19.5261
12.4748
0.5909
-18.7097
3.5211
9.5153
41.1407
-19.0459
13.5567
-25.4906
0.7614
6.682
-27.1917
-15.5916
10.4591
0.4126
-8.4808
11.5668
-22.7756
14.2493
-9.6099
4.1005
0.2552
-10.7269
-3.4685
4.3903
3.0997
-23.3066
15.6167
-6.4833
-16.2065
-7.9177
1.7617
-22.9658
-19.9065
-16.7223
-7.9154
-23.7313
36.3369
21.045
-26.447
6.2032
9.1864
6.6961
-7.9711
-14.2808
-19.2523
16.8557
21.4976
14.0694
5.7042
-18.7853
3.0095
22.2928
-21.8498
-13.3339
26.3446
40.8808
13.6024
-11.7722
-2.1375
12.638
-20.4031
-7.4157
-6.8709
4.4514
11.4938
-2.1451
-3.1095
13.8495
-16.9742
-1.6156
5.9163
-13.907
-23.3803
16.5931
16.9167
11.7654
0.3116
11.2861
-14.1236
6.8166
-16.8652
-8.1989
12.9497
-17.7188
24.5166
7.5859
48.7717
22.1522
-19.1058
-26.8529
-22.7649
-11.4807
10.7657
20.5347
2.3167
-23.1068
8.7881
-24.9837
-20.7507
16.8389
1.0395
-10.9467
-9.7957
9.079
-7.3265
45.7552
5.9061
-4.1029
-16.6124
4.7261
-15.4237
2.5254
-16.4324
-12.3262
1.1493
1.5723
-6.8221
21.0093
15.9416
14.2798
-15.5534
6.0277
-7.7213
17.3181
1.0134
16.1632
20.5851
-15.8952
14.4005
-13.3358
-21.2528
9.163
-9.5184
21.1657
12.7939
20.0177
55.7556
1.5858
-18.9944
-2.9264
14.1701
7.1005
0.3208
15.6365
-23.2746
21.4457
-18.9608
12.8715
-15.0819
-7.0235
-9.2895
-26.7339
5.4818
-23.2599
-2.4954
73.1478
36.291
9.4046
22.0652
16.3827
20.6934
18.5159
0.1404
-17.412
19.529
-19.5117
-19.2932
9.1681
-21.2985
3.3496
13.198
1.453
-3.0779
17.3959
-1.5501
11.7502
-22.5956
11.0633
6.7434
-6.4538
-3.5518
-23.0114
-11.0856
3.4329
-5.4684
31.4235
-26.0374
1.0898
7.7764
18.3008
13.7062
15.3878
15.1772
20.7148
6.159
18.3282
-22.7329
-13.7437
10.427
-16.205
3.1819
20.1792
-5.9689
26.6352
5.7813
-19.5402
19.1156
7.7893
-4.225
-11.2747
-5.023
6.5313
-0.9259
10.3732
-27.2435
-18.3383
-14.917
-1.0798
8.8309
-18.8128
-26.6745
0.5893
-14.9771
-25.6535
-19.524
7.0686
17.1075
15.432
21.9035
18.4085
6.2831
1.7641
5.7401
-24.338
-1.1637
40.3835
-10.6445
3.0095
19.2835
-24.5991
-12.6847
0.4871
20.0708
-8.4808
-10.91
-21.9257
-11.3419
-18.5976
-16.6231
0.7709
11.8202
14.4447
0.6625
6.7149
10.95
-4.7507
38.131
47.1037
11.2556
1.6972
-17.2564
-1.6202
2.4601
-19.6963
22.3518
6.6549
-15.053
-7.7758
8.9699
21.4535
-13.2722
-18.0042
2.5802
6.4703
13.964
14.3671
-20.0106
-1.7331
-17.3149
-0.737
-5.1965
-8.3793
12.2156
-16.3739
54.5863
9.9409
-8.7722
2.8431
-17.412
9.6137
-25.3453
-18.5198
9.223
-5.8867
21.7951
6.6045
-21.1368
16.2743
13.7169
0.6473
2.2557
-15.2894
-22.9572
7.5416
-7.7443
-17.967
23.6097
59.7939
3.7158
-20.2624
-12.6374
-17.9827
17.9071
8.3777
-5.5666
-17.1343
-4.994
-0.6422
19.2133
16.4821
11.0513
-26.151
0.7261
-14.2961
20.8734
7.4928
15.9356
-24.9415
16.6578
20.0983
4.3049
-1.4987
-24.8003
34.7997
19.8282
5.4959
-14.5402
11.8858
-23.0244
21.7204
-26.9216
20.3073
-24.535
-7.8033
2.1824
-3.7473
3.2643
5.6554
-20.0534
-17.5249
14.2754
-21.0818
-4.727
21.9278
-4.1423
22.3116
16.7287
23.9428
61.5024
-12.137
-20.2563
-1.8323
3.4917
7.7627
3.1453
10.6052
-22.5055
-27.1689
-19.4568
1.8711
-1.1195
20.7119
4.9316
6.6472
-2.3786
-15.8999
-10.5386
-15.0219
35.6669
5.6472
5.1435
57.8289
28.432
-5.8864
-5.8363
-21.2536
8.0175
-26.0365
-18.5885
-3.4055
3.2902
7.0165
7.7703
-5.4121
17.2616
-26.2349
-16.0204
-20.7339
-4.7239
-22.3499
6.2902
17.1807
-3.2056
-9.227
4.9521
18.7623
-1.2499
24.9886
54.2054
-26.5293
11.9803
21.6608
5.2434
-18.0315
3.7205
4.5854
12.5431
4.2287
14.9421
2.6539
20.9421
-26.2835
15.6269
-10.2815
-13.3663
18.5056
-25.0852
34.8685
27.5092
56.1555
55.0073
43.572
-7.1438
-11.7569
-9.5986
20.8772
19.0515
10.6727
15.6243
-0.3186
10.7078
-16.7742
-11.6944
11.8736
-20.3937
21.5174
4.1844
-25.1835
0.539
4.9153
-11.0596
-4.9116
-22.0783
-27.2756
-5.2306
3.7726
-7.0551
-0.611
20.3688
13.9117
-10.5879
-14.9416
6.1437
16.3415
2.9103
9.5587
11.9587
-1.8476
2.4159
-3.1783
-20.7324
-5.4365
6.4945
-11.6555
-6.4555
15.6303
63.0099
44.9523
-9.1195
16.015
2.9604
11.7731
15.7359
15.0032
-27.3817
-8.2641
-1.6889
-7.6552
5.4677
-4.0708
13.5444
-16.7772
13.0363
12.7891
3.7465
11.8629
14.634
-10.3195
-4.7087
18.6944
5.3029
17.4813
12.5618
14.5821
-24.5762
-16.0708
10.8911
0.0747
-1.0258
23.6196
17.2436
6.3043
11.4828
4.99
-23.9369
2.6905
-0.2347
18.5263
-15.587
-12.0378
-6.2866
-11.9599
10.3217
-4.5574
21.4416
59.4784
19.135
29.0076
-3.4819
0.8302
-10.8367
15.3192
3.4435
3.1978
-19.6071
-25.5543
-15.3306
22.0286
-26.5737
1.1539
-19.8199
7.5231
4.0746
-11.8637
11.457
0.0171
-21.3306
-24.9898
18.1649
-20.0641
-17.3861
0.5176
-25.7466
-20.0412
-20.6714
15.0444
-15.5932
13.6866
19.0762
30.4449
-11.7697
20.2496
29.6684
-16.4354
-3.1615
-21.6557
-15.3734
-9.5703
-1.7243
-18.5366
34.3084
37.9967
44.4199
63.7308
11.2492
13.5238
-5.8185
11.1684
-23.8852
-21.8159
14.2984
-9.4063
8.0633
-3.5383
7.8299
0.1667
0.452
-27.1459
-4.5851
4.7917
-18.6053
4.6498
-1.0907
-20.5981
7.073
14.7362
0.3635
0.7175
3.6961
-19.6353
-24.6434
-5.0505
8.7668
15.6197
-23.1068
-7.6262
-11.3846
-22.1592
11.9164
26.7991
-11.5879
-16.7674
30.277
50.7028
51.321
39.4123
45.8913
35.8003
52.4254
22.8485
8.0895
-5.9445
-0.8155
13.3598
-1.034
12.416
18.4947
16.2939
5.3656
19.0934
1.9695
13.6513
20.1044
12.0597
-2.078
-6.8892
10.3186
-7.9543
-3.2041
7.8268
-1.3333
-19.9923
22.4253
16.7825
1.0837
-25.5513
15.3618
15.1467
6.603
9.6686
-6.4635
11.6447
-23.5233
14.6248
6.9128
20.8719
-1.5164
6.2795
-8.4961
18.6669
16.2667
-20.19
-6.6133
21.6449
-10.7825
1.0866
-17.7509
26.8748
25.1233
-21.5608
-8.7591
24.4409
-16.4491
-0.5648
27.8727
-20.2991
17.0162
22.2497
-9.4704
-21.2338
21.0474
-23.766
8.6874
-11.9416
-17.5737
-11.1389
14.9788
-16.7528
14.9178
6.4474
9.3253
-17.9583
3.5969
-6.4849
13.903
-4.3302
6.513
-24.2527
-22.826
-22.797
-5.9538
-21.8433
-9.3597
-22.4353
12.2032
-8.5357
20.9223
5.4982
-16.118
-25.4674
-16.2523
14.2934
-10.3915
-21.5733
16.5483
0.052
-18.6879
-12.2629
-2.5061
-5.9292
-19.5634
24.8313
18.5946
-0.0258
-19.797
-8.4518
17.0809
-10.0304
-16.646
-8.2137
-16.1012
8.927
-6.0179
-9.3032
-26.9918
-0.5948
3.1254
9.5236
13.7978
-22.8718
-5.9981
-8.203
21.1054
-13.7269
-7.0052
6.6412
17.7667
-7.2707
-25.7558
-8.7753
-11.5174
-21.2512
6.9235
15.2108
17.7606
-14.6241
9.2413
-25.0416
-11.5036
-27.0879
-1.7362
0.3635
-7.2081
-5.6153
-0.8223
-18.3384
-18.9015
3.6478
4.458
0.4571
2.6941
-6.2936
-2.4286
-26.6386
14.6255
-21.6641
21.6212
-17.8728
1.7613
-24.2054
20.6873
12.6396
-0.9351
1.45
-11.232
-20.0183
12.0445
-21.8769
-20.0183
-11.5616
2.985
18.5892
-17.8911
21.3633
6.6991
-11.2549
11.428
12.957
-3.5062
15.9646
18.9691
-14.261
2.9789
-11.0916
22.256
11.5684
12.2642
19.1919
1.6102
-20.9964
-4.8811
10.1599
-24.9501
-25.1668
-6.3536
3.1056
-9.1201
12.5724
17.0388
-3.7428
2.01
15.7372
-27.0162
6.8075
11.0801
-11.2656
-13.7238
21.3404
0.4474
-16.8489
-18.8128
4.9474
-13.9008
-7.7376
-20.8102
14.3379
9.5542
-18.4222
-11.4472
-14.7279
6.8075
-11.7508
-12.5931
-10.3683
==========================================
# 1
2.6216
-5.8687
-26.7662
-1.0773
-13.8432
-3.3265
-21.8741
-19.2282
-1.21
-9.0365
-21.5201
-9.3188
4.2162
15.0319
-2.1714
20.1911
16.4052
-13.8172
-18.3614
15.7354
22.541
-11.6138
16.4129
-22.4067
17.42
-24.6284
1.6221
0.3525
13.3046
-2.7146
1.0254
-24.8237
14.3559
-16.3365
-25.048
-0.7751
19.66
-9.4058
20.1117
12.4851
-6.064
-5.1652
18.4591
7.3824
19.9942
-7.2817
21.7384
-18.5552
21.9672
-13.335
-26.7876
-21.6468
-26.5633
17.0889
-6.8361
-12.3279
-20.5344
22.5379
-20.2643
-1.4084
-3.3769
-14.127
1.6572
-22.0099
-19.9423
-0.7141
-15.5629
18.1234
21.6941
5.974
16.5685
-25.7652
18.5919
1.3001
-22.6874
-12.5324
-14.4459
1.2314
12.8084
13.4447
1.0331
10.8753
10.889
0.8103
0.3907
0.9217
4.619
-6.65
5.5971
-25.1839
0.4151
-4.5961
5.4155
-15.5324
12.9979
-23.484
-24.8726
-22.7119
5.3148
7.239
-0.1129
-17.5786
11.1622
-2.4643
-9.2684
18.9169
-8.124
-17.0461
7.3565
-16.3045
3.6745
-21.1462
-23.339
2.1363
-22.8004
-1.9913
21.186
-0.9705
-14.3545
1.7135
-13.7532
22.7604
4.3562
-18.9569
-18.7463
-14.7155
-15.4732
-15.3587
20.0841
65.2273
-0.8181
-5.08
-17.6582
-1.224
-19.471
15.6115
-26.3466
20.304
6.7858
22.4189
12.1708
22.3029
10.7471
-7.1367
17.2247
17.832
12.4912
11.4155
-26.0811
9.6195
4.7319
22.2129
7.9684
21.1371
-9.7766
22.4906
-13.8127
1.3673
-1.294
17.9785
-18.4499
-14.0827
-15.1921
-14.5665
16.834
22.2923
-16.7196
12.4133
-23.8779
-7.697
-25.3443
10.9974
-2.1237
-10.8977
-16.5894
26.9842
-13.3144
-19.1108
14.9159
56.2594
16.8065
19.7561
11.9694
14.6626
1.4207
-11.2982
14.4198
13.0436
2.3332
12.18
20.5603
-6.5416
20.2704
9.4379
-10.2618
10.5732
22.4098
10.2481
12.5965
-24.7841
1.5763
-14.8198
5.2751
-19.6066
-20.5267
-7.9882
0.821
-17.1498
-6.798
22.3838
-9.5553
-14.4642
-20.835
6.3723
-9.1327
-8.9664
-6.461
7.9499
-9.3249
23.5256
-16.9175
18.8059
-1.9089
-20.2627
-6.9048
-13.3696
-1.4323
-21.9519
-11.4135
56.5468
-7.3671
-8.9816
-0.4731
14.0232
17.2003
-11.1286
-2.9343
-17.0326
-20.0982
-3.9384
-8.0782
-3.679
2.8611
11.9968
9.4348
-15.7414
8.3468
15.4699
5.7314
-24.282
-8.5452
-1.9181
-1.1017
12.7568
12.0731
-3.0061
1.9914
7.5991
4.3443
22.2999
22.161
1.5122
-18.6849
-0.6638
14.9171
8.3008
-13.8401
21.2592
8.6753
-0.8698
16.5578
-17.8258
-17.8121
14.8625
-26.2428
-8.3386
-22.9585
8.0752
12.9429
49.8659
6.478
4.0304
-2.8012
12.0212
-4.8418
-20.5984
-23.9067
16.9698
-5.6049
9.5111
7.2085
4.323
5.031
13.7334
19.1855
-8.9495
-12.8773
9.8636
-4.1368
-11.0584
-9.7674
18.482
-8.742
13.7135
8.9343
5.7024
-17.4596
-17.6916
22.0069
21.337
-13.2023
18.8864
5.7299
15.4498
-6.9265
15.6122
-14.0503
-9.2253
-13.4495
12.9673
12.4195
21.5949
15.5919
11.6795
-13.7806
13.5554
-20.3292
8.6093
1.3917
23.7879
-12.1784
-20.1239
-6.4161
8.2282
16.6494
14.5618
12.4058
10.6006
16.4327
1.4403
3.9445
6.6241
-5.327
-17.0446
13.712
0.9186
-22.9774
-17.9098
2.0768
5.5742
22.657
9.8514
-5.5559
-7.361
-4.3794
8.4933
-14.1484
-13.4083
18.7033
-3.9857
-11.7542
-21.2302
11.3666
8.5327
-14.9125
21.5949
-11.6504
10.9653
-21.8375
-14.6183
20.4612
20.4825
3.2579
-14.4215
-15.862
19.9643
-17.1584
13.21
1.3627
64.2508
0.2503
-23.6442
-3.5661
-15.949
-25.6748
-13.6978
21.0348
-14.5512
-5.6276
-9.3221
-24.3479
-1.1643
-26.5206
2.1317
-26.3634
16.1092
4.6129
5.6719
-15.2119
-20.4672
-12.923
-0.0686
-2.5284
-6.1205
20.5481
18.9108
-14.423
-15.2424
11.33
19.3106
-22.8217
-1.5518
4.2571
-7.6567
2.5207
13.5579
-21.8085
-22.9011
-25.8186
9.798
22.5349
0.0717
21.7536
14.2064
-21.8039
1.1511
-10.3329
20.1255
60.1415
-6.5859
17.2094
-0.7599
15.3325
-11.8045
8.1225
2.8066
-23.478
6.3845
12.1861
16.7532
-6.6639
0.4364
-26.6701
-17.1941
8.356
-20.5817
19.1641
-22.0771
-17.716
8.4094
-5.9725
-24.6528
1.4039
-15.4515
12.0854
-9.183
18.8177
22.5776
-18.015
14.8213
-11.2308
7.7942
-19.5345
0.4197
-15.7766
-1.8143
20.8808
1.9502
13.0085
-13.1687
9.9704
-15.0792
17.3788
1.8632
16.4922
7.9079
-21.8414
7.329
53.6273
8.2644
4.9547
-15.5278
-21.8543
2.4751
-17.6381
2.3149
-15.297
-21.2715
7.0712
10.2146
-18.4334
20.9632
-17.0964
10.2115
-0.972
14.9678
11.1637
-8.0263
12.0304
-22.6325
-9.0624
-11.8549
7.7532
15.3035
18.3218
-17.072
-8.8534
16.2969
-1.3703
-18.3187
7.1826
-11.7815
10.6693
-25.6065
-18.276
-11.8854
-12.9002
0.792
7.4359
-19.6447
0.0031
-0.0671
-23.7556
-14.1239
15.6652
7.5844
-14.9458
-23.6564
55.0708
-4.3046
15.6636
-11.5222
-7.6403
-22.718
17.1682
-14.5039
-24.2958
17.6324
-10.4068
10.0803
-24.3156
-1.8908
-1.883
-0.8514
9.2044
11.3407
17.7648
5.765
7.622
16.4663
-14.2811
-1.5183
-0.032
-2.8367
12.7034
-16.5517
-22.1152
-26.7464
-20.0033
19.5715
-17.6593
-0.2917
-26.313
22.0603
19.4357
10.2588
-17.3406
-25.3349
14.5421
-8.3605
11.9419
-4.0681
-14.7679
-9.3341
-12.07
-14.7658
5.7305
-7.4602
54.4788
5.4857
6.2441
-25.1121
4.6098
-11.7496
4.6343
21.4042
-5.2049
14.7362
-19.2907
2.7894
9.4028
-18.6073
-14.8002
7.7929
-14.1774
-8.5467
-5.3621
-17.8457
-18.5125
13.5365
5.1576
8.2766
16.1138
12.5813
-26.4275
-16.5746
18.3325
16.3854
0.4105
-19.9144
-21.5478
13.9027
15.598
-9.3295
-17.2322
6.1693
6.9842
6.209
-15.6468
4.9486
5.5956
8.8153
-18.6926
-0.5218
16.7074
-5.7491
9.6796
-13.4358
58.1532
-22.8858
-26.2795
-15.6071
13.1886
-17.4703
17.8427
-24.6742
7.3214
-10.5118
14.6493
-1.9745
-10.799
-3.0701
18.0042
-15.7994
-11.3758
17.4871
21.6727
10.3031
-4.6922
-0.8011
1.0163
9.4653
4.3138
-1.4786
-13.3564
14.0141
19.7531
-25.19
10.3641
-25.1791
-19.1229
18.3462
2.2447
21.0898
-0.415
-5.9465
-9.3234
-23.9769
-26.5969
8.7771
-18.186
15.1494
13.0497
-15.1112
19.9851
1.6303
-1.3437
-1.9272
53.0139
10.2878
3.2151
12.0579
22.2389
7.8234
-1.0559
18.1616
-0.8469
15.9123
-16.3376
12.4165
11.2705
-3.6256
-11.5756
18.2728
-7.2451
9.035
20.6092
-13.4434
15.978
-16.9072
-20.9418
-16.129
12.3799
9.8071
8.295
-3.3555
-13.2252
5.9984
-10.1775
14.3893
1.6938
17.3147
9.624
20.5268
-16.715
6.7263
-18.1142
3.0488
-24.6116
-1.3901
-9.9673
12.0808
-6.711
-26.3069
-12.8849
-16.7526
3.8369
-14.7938
25.2329
17.8183
-17.0842
-8.4811
1.8372
-5.9786
-21.4957
-24.3843
6.592
-0.4655
-21.9077
-2.5173
-26.1589
-13.184
9.8255
-5.7011
-11.2369
14.4139
-22.7637
-10.564
15.8437
-22.4387
4.7212
5.9008
20.5725
-1.6266
-4.7975
1.9761
0.9858
-12.3569
-22.466
-11.8595
18.1479
9.6744
-11.5222
22.8477
-10.3961
8.1332
-14.037
7.7563
-15.096
-24.2347
11.626
-22.3838
-12.7735
-24.2408
12.7369
10.5844
10.2579
-2.4109
52.3822
15.7827
-16.1626
5.1409
9.3311
-16.0527
-0.8972
9.9338
13.6052
3.7369
-25.6157
-21.9439
-14.6595
7.9394
-16.2496
-1.8115
-12.5416
-24.8176
10.535
-15.8208
-26.6564
2.9649
15.5111
20.4032
12.8727
-15.2012
-16.3213
-19.9545
-24.0333
16.0268
-10.3181
-12.0136
-24.7734
22.1519
-10.799
-11.713
-5.7939
-19.7317
-4.4419
-0.5447
2.9008
-21.1432
21.9733
15.1052
-13.0009
-13.7364
12.1555
-11.659
-7.4504
-26.8013
50.5175
19.1946
12.0442
9.5462
16.0024
-6.624
15.1494
-19.2068
-11.9815
-12.476
-2.1302
-4.7864
-15.4332
17.5985
4.4862
21.4973
5.7388
18.5675
-2.8428
-6.0472
-24.8161
-16.2984
-24.6879
2.5788
-21.279
8.768
21.3111
16.3396
-13.8157
-21.7004
-25.2674
18.128
-23.8471
-0.7294
6.2746
-22.6325
-0.7202
18.4775
9.5783
4.7197
-4.6251
-24.0928
9.6072
9.2487
3.1923
-17.5176
21.6889
8.8326
-22.992
-23.3924
36.1997
-24.3568
-1.4588
-6.505
0.8698
-22.4937
-0.0809
4.8876
10.8448
-7.2482
-16.0222
12.8152
10.0849
-12.2364
8.7588
-0.4288
-6.7799
7.8555
-26.4412
-16.4418
-4.9013
22.2679
21.1875
10.7685
-24.8421
-18.897
-4.6098
-7.242
-4.825
-16.1063
18.3207
-17.9021
22.5639
-22.4494
21.5018
-26.281
7.4175
-17.3909
11.1606
-10.8279
10.9852
12.4546
-21.0165
-23.3863
-13.0299
-13.5334
4.9586
-14.785
-7.6824
4.0025
39.7689
-9.4638
-21.5384
-24.3202
1.2131
-2.4567
-8.6886
-17.893
7.2695
22.4097
-21.3019
5.3423
12.7358
-6.2074
-15.3096
3.4486
-4.5917
-16.6768
-19.3884
-26.5862
8.3606
-13.6112
9.9277
22.7592
-10.036
-21.8497
-1.5488
-4.8448
20.69
6.9473
7.2547
20.3604
4.5503
5.3926
-25.7698
-16.2251
-8.4841
-19.4662
-12.331
-14.0461
-19.7546
10.2787
15.4287
-12.6438
15.0716
9.5035
-1.1619
9.5703
15.6771
-4.003
61.3226
-17.9861
7.738
10.3687
-21.3217
-26.6625
-19.0054
-13.097
-3.8026
21.1126
9.8056
9.3326
21.9753
13.0436
4.2558
8.1668
4.9392
-8.0782
18.4775
-6.8987
-23.3543
17.9022
1.0514
8.0722
10.9394
-24.4575
2.1333
16.1107
3.0732
0.2714
-22.803
-3.2273
8.6322
17.0675
-4.1688
14.0034
21.0624
15.2333
11.4628
-12.7918
-10.3046
-1.0162
-21.9321
-26.6411
4.6694
-10.2679
-14.4527
-6.1375
-0.3024
22.7373
26.1881
7.6678
3.4685
4.7685
1.7289
-17.6381
-21.3767
-7.773
18.4423
-10.4495
-4.1261
-13.7669
13.5323
-11.1743
-26.1681
13.7852
-20.353
-10.7501
-26.2917
1.0422
-13.9347
-22.5333
-3.7568
-11.2216
6.1556
19.3427
8.0264
9.6683
19.4083
18.1095
-0.4161
22.6799
-10.5441
-14.2781
-3.8224
-25.0664
9.6362
13.5808
-10.3137
-13.7013
-19.57
-5.1698
-9.8636
-22.9438
7.7136
-13.3259
-18.9679
-16.0481
-13.8331
17.8055
53.4671
-15.0731
4.8174
20.1438
-9.0502
-22.1351
-4.944
6.8102
14.9448
-16.3487
-0.2762
5.3514
-3.1475
18.8513
-12.2074
-22.1869
15.624
8.5053
-2.559
-3.7797
-26.8593
-16.7897
-26.3573
-13.9881
-13.8371
-15.833
-10.9103
19.5792
-8.6888
15.9093
13.2455
17.7099
20.394
22.6142
13.0436
-8.2384
6.737
-20.0216
16.0711
-15.6392
-7.2664
-25.9514
-2.7009
-8.5375
-4.271
12.1937
-13.969
-26.4488
5.772
-12.4153
30.5218
-11.1606
15.8208
-15.0258
4.738
6.2243
17.0736
20.5129
-20.0812
-19.1397
0.5204
-25.4417
-22.1957
0.1465
1.7579
21.3904
1.3795
-16.9288
-15.659
-14.5878
10.8143
-10.3458
-9.6789
-5.208
-17.1498
-23.3634
9.2502
-19.1061
-1.5277
1.6145
-7.0005
-7.5152
-20.0247
14.0584
12.3615
20.1697
0.4853
-12.3447
-1.2039
1.3993
-1.4252
-22.0923
-5.1179
1.3718
17.6473
12.6438
22.6456
-9.8941
5.6772
-0.6763
69.7091
11.0264
-8.7908
-0.5875
-9.7598
11.3666
22.2052
-24.9078
5.8687
-20.2994
-13.3091
-20.2643
-14.1037
10.9165
-3.3936
8.5574
15.2196
-5.9086
7.9669
1.5595
-19.927
-7.4999
8.7375
-17.835
22.396
14.3773
-7.2222
-7.535
20.1115
-10.8264
8.2954
6.4715
-23.0018
0.2396
-10.5014
-20.5847
7.6419
-9.3708
-22.6997
15.9063
12.6454
-10.0741
15.1342
14.7176
-23.7373
-22.0099
-8.468
23.0827
-15.4401
-10.955
41.9769
8.2507
-7.5365
11.8534
19.4067
-20.8548
-11.1699
8.1652
-18.8757
15.9459
-9.0167
-19.4311
-16.0874
-9.6301
12.5859
23.0354
8.2339
-15.3266
-9.5141
1.7945
4.1948
-8.98
14.4566
19.4434
22.5196
2.4186
-9.3844
-18.5354
0.3462
22.4418
-10.4369
10.5335
-1.9761
7.1063
0.3311
-20.2508
-15.1097
18.2195
8.565
3.8927
-18.2775
-1.5259
-2.5361
-22.1717
4.5137
-3.2212
5.6514
-24.044
20.175
9.6939
66.9471
14.4399
5.0493
7.2375
3.7903
2.4857
18.0395
-22.2358
-14.1194
10.6601
-19.0908
-14.4993
4.2181
-3.5371
-23.6717
-13.4342
0.8576
14.6151
4.8097
13.6235
2.5971
-0.7248
13.918
-5.4903
-11.4749
-3.946
-11.1011
-13.4007
22.3577
-17.8838
19.6009
-15.3157
8.4124
-1.0934
-22.8583
-14.774
-17.3546
0.4531
-19.0009
14.745
2.5987
6.4562
18.9612
5.1958
12.331
7.1429
12.4234
-25.8675
-26.0651
-7.7352
21.499
-7.5472
0.5326
18.3949
17.1727
-2.4308
-3.888
1.9074
-1.2192
-15.2074
13.6296
-8.8198
18.0994
-15.2363
3.4791
-16.7012
13.0665
9.8741
6.0396
0.9079
11.8168
-23.5969
14.1209
11.2964
-0.4959
-11.4795
7.0147
-19.4754
-8.6888
-13.628
-16.5299
-16.8706
-16.9927
-4.528
-11.6114
60.4911
3.3585
-9.0674
-15.0166
13.4128
-8.0172
-19.6127
20.7724
-20.6152
-0.4272
19.9469
-11.4405
-12.3188
0.6218
-19.4269
40.393
17.5741
-20.1804
14.6564
-23.3894
19.1885
3.0244
6.531
-13.2008
-18.8757
-4.7273
-20.2883
22.3792
15.9337
17.0904
-17.8991
14.8
9.1309
-1.7365
-5.8565
2.7116
0.9583
21.6453
-23.5313
-3.1403
-0.4761
19.7348
-9.6103
12.0394
-9.917
-25.8762
7.4191
16.5472
-8.4657
-23.351
67.4775
-20.554
-23.4003
5.1148
-5.652
8.6275
-0.1832
9.4562
-3.56
21.5934
16.805
11.8207
18.627
-21.0921
12.4817
53.7844
19.8064
-20.3222
-14.7068
-13.7867
-9.8086
2.9405
-19.0466
2.2096
-14.684
-17.9281
19.2942
9.4043
20.4062
8.4506
-10.5594
11.2629
-23.9405
-6.7827
-22.0374
-22.5226
1.1536
-11.951
4.8418
-6.7156
22.7104
-8.4475
14.5177
-20.2584
-9.6456
-6.3276
0.5112
2.5309
22.3909
-20.0419
-12.0694
27.2519
50.565
8.9723
-20.4031
-8.2613
-17.1912
21.99
2.2674
-17.4017
9.2333
12.6675
5.5039
15.826
-1.0915
21.1251
-25.3303
-14.0644
-9.8102
-2.765
-10.2008
-23.3497
-19.4632
-23.6854
-10.5945
6.4734
-4.3835
-25.1396
-16.6066
13.5274
-24.2744
-2.9162
-11.8518
-9.563
9.4684
-11.6718
-22.0633
3.3708
0.8149
-7.3107
23.1208
12.6622
-20.4581
13.3717
10.6538
-7.7853
-3.1796
7.9867
16.0802
-2.9823
-10.3523
15.3607
-23.9446
57.3659
-16.9012
2.7467
-26.635
2.3011
-5.4353
1.2543
-6.2975
19.5098
22.3091
11.5319
8.661
50.9524
19.6387
-21.2042
-14.983
22.4739
-4.8585
-13.1519
13.1291
13.4587
-0.1617
-20.2486
0.7508
11.2263
17.304
16.2267
4.0102
4.129
-11.745
-14.3834
9.737
13.1474
-22.5669
-19.4708
-0.1419
-18.4133
15.5751
6.148
-8.3437
-16.0756
-25.5518
-13.9637
-24.9729
-1.4984
6.6759
21.569
-8.7548
5.3982
9.8612
28.352
7.1339
-3.3325
4.3868
18.012
-0.029
15.1631
-1.6388
6.0832
-8.1591
21.5438
-3.536
46.8095
15.9322
-22.3716
7.4465
2.1546
3.9049
0.9659
-1.9562
-18.5522
14.834
23.5363
-12.3127
13.3854
18.4546
0.293
8.2047
16.7593
-5.6047
-23.9036
-15.6941
-16.6997
-10.2603
12.2791
-12.2837
1.3596
8.2171
16.3396
14.7466
-0.3891
-15.322
-2.9908
-23.4515
12.3539
-5.3071
14.3559
0.9003
-2.2711
27.3678
16.1855
43.4325
-22.7254
-24.1232
4.7133
7.5854
21.3355
20.5848
-16.1465
-24.7307
20.8892
-0.0248
30.3097
-12.7262
-13.7974
-0.4867
15.7964
13.8203
7.622
2.1104
-2.6124
-18.1321
-20.7266
-11.4536
19.1489
16.8081
-13.7242
23.1939
4.7838
-24.0791
10.9684
-7.4434
16.303
-21.5369
-0.0397
11.9923
19.9439
18.1265
19.9561
12.9048
1.0209
-26.0597
4.0511
12.1453
-8.2293
-16.9759
13.9867
-25.0206
1.2314
7.352
-26.0817
-12.3616
57.0491
1.4026
-6.3508
12.8968
-22.3456
14.8793
-4.5799
4.5305
-0.7148
-7.9169
44.6015
5.0203
3.6897
-22.8767
16.0467
-6.0533
-15.7765
-7.4877
2.1317
-19.9358
-23.4565
-16.2923
-14.8854
-22.5013
-10.2331
-26.565
-26.017
6.6332
9.6164
7.1261
-7.5411
-13.8508
-18.8223
17.2857
21.9276
14.4994
6.1342
-18.3553
3.4395
19.3228
-25.6998
-10.7039
-24.6254
0.7508
14.0324
-11.3422
-1.7075
13.068
-19.7331
-1.9057
-3.4409
50.8814
12.4838
-0.9151
-1.7795
14.4795
-16.3442
3.4144
4.9463
-11.097
24.6897
17.2231
17.3467
12.3554
0.7416
11.7161
-13.6936
7.2466
-16.4952
-6.3489
9.3997
-25.8888
17.5466
7.7759
2.2017
22.5822
-18.6758
-26.4229
-22.335
-11.0507
11.1957
20.9647
2.7467
-22.6768
9.2181
-24.5537
-20.3207
17.2689
1.4695
-10.5167
-15.8057
8.269
-13.2965
4.9852
7.7761
-3.6729
-16.1824
5.1561
-14.9937
2.9954
-15.3224
38.7038
47.5793
2.5623
-5.9921
22.3393
16.5716
19.5098
-16.5234
8.8377
40.3487
17.7481
1.6434
16.7532
21.0151
-15.4652
14.8305
-12.9658
-20.8228
8.213
-9.0884
14.1957
12.8239
17.2077
12.4256
2.0158
-18.5644
-2.4964
14.6001
7.5305
0.7508
16.0665
-22.8446
21.8757
-18.5308
13.3015
-14.6519
-6.5935
-8.8595
-26.3039
-0.5282
-24.0699
-8.4654
22.1778
-4.239
9.8346
22.4952
16.8127
21.1234
18.7459
0.8104
-11.702
70.559
-20.6817
-17.9032
10.8981
-19.9685
8.5796
12.428
4.463
44.9921
17.8259
-0.9201
12.3402
-22.1656
11.4933
7.1734
-6.0838
-3.9018
-23.1814
-19.2556
-3.5371
-5.2784
-15.1465
-24.5674
1.5198
8.2064
18.7308
14.1362
15.8178
15.6072
21.1448
6.589
18.7582
-22.3029
-13.3137
10.857
-15.775
3.6119
20.6092
-11.7389
22.1852
8.4113
-25.1102
-21.6544
9.2593
-3.795
-10.8447
-4.593
6.9613
-0.4959
10.8432
-21.5335
32.6917
31.673
0.3102
10.5609
-13.7828
-27.6445
2.2993
34.3929
-25.2235
-18.894
7.6586
17.5375
15.862
22.3335
17.5985
6.5131
-9.2059
-1.2299
-24.148
-3.9737
-2.9465
-10.2145
3.4395
19.7135
-24.1691
-12.2547
0.9171
20.5008
-8.0508
-10.48
-21.4957
-10.9119
-18.1676
-16.1931
1.2009
12.2502
14.8747
-1.7075
3.3449
9.9
-10.7207
-4.239
6.5737
11.6856
2.1272
-16.8264
-1.1902
2.6901
-19.0663
22.8218
12.3649
35.977
-8.9458
10.3599
22.9435
-8.9422
-16.0942
51.9502
6.9003
14.594
14.9571
-19.5806
-1.3031
-18.1249
-2.707
-4.9665
-15.3493
12.2456
-19.5839
6.8163
11.4109
-8.3422
3.2731
-16.982
10.0437
-24.9153
-18.0898
9.653
-5.4567
22.2251
7.0345
-20.7068
16.7043
14.1469
1.0773
2.6857
-14.8594
-22.5272
1.7716
-11.0143
-18.717
18.4397
18.6239
6.7858
-19.8324
-12.2074
-17.5527
18.1371
8.8077
-4.8966
-15.8243
0.036
50.3878
20.4433
17.8721
15.5413
-24.841
50.6961
-13.8661
21.5034
8.0828
16.3656
-25.7515
17.0278
21.3283
-3.8651
-8.8687
-24.7703
-12.8103
20.2582
6.9659
-14.1102
12.3158
-22.5944
22.1504
-26.4916
20.7373
-24.105
-7.3733
2.6124
-3.3173
3.6943
6.0854
-19.6234
-17.0949
14.7054
-20.6518
-4.297
19.5578
-7.1123
22.4416
9.5787
-17.4272
20.7724
-11.507
-19.8263
-1.4023
3.7217
8.1927
3.5753
11.2752
-21.3955
25.4611
26.9732
3.1011
2.8705
23.0819
54.9016
7.2772
-1.9486
-15.2699
-11.1286
-14.6519
-10.1031
8.0772
-1.8265
13.0589
-19.338
-8.6964
-5.4063
-19.7836
8.4475
-25.6065
-18.1585
-2.9755
3.7202
7.4465
8.2003
-4.9821
17.6916
-25.8049
-15.5904
-20.3039
-4.2939
-21.9199
6.7202
17.6107
-2.7756
-11.597
-0.8179
15.8923
-11.0599
17.2186
15.0354
-24.0593
12.6103
22.0908
5.4734
-17.6015
4.1505
5.0554
13.2131
5.3387
65.9721
7.6839
20.5721
-19.3135
64.4969
-8.7515
-14.1163
17.9556
-24.5552
-12.3615
-14.4608
4.3855
1.6373
-0.798
-9.9538
-11.1669
-8.1286
22.3472
19.4815
11.1027
16.0543
0.1114
11.1378
-16.3442
-11.2644
12.3036
-19.9637
21.9474
4.6144
-24.7535
0.969
5.3453
-10.6296
-4.4816
-21.6483
-26.8456
-7.6006
-1.8374
-6.5251
-10.361
23.7988
-25.6183
-8.1179
-14.3116
6.5737
16.5715
3.3403
9.9887
12.4287
-0.5376
1.2459
47.8517
-21.1024
0.8735
56.4245
-11.3455
-7.0055
16.2603
18.7399
2.5823
-15.6895
7.445
3.7904
8.8031
12.9259
15.4332
-25.9117
-7.8341
-1.2589
-7.2252
5.8977
-3.6408
13.9744
-16.3472
13.4663
13.2191
4.1765
12.2929
15.064
-9.8895
-4.2787
19.1244
5.7329
17.9113
12.9918
15.0121
-24.1462
-18.4408
8.0811
-1.1353
-10.4358
-18.1504
-20.8864
8.9343
12.1128
5.42
-23.5069
3.1205
0.1953
18.9963
-14.277
34.5922
44.7434
-5.2499
57.6117
-2.6674
-22.5684
15.6484
21.725
18.8376
-11.6519
1.6602
-13.4467
12.7092
4.9135
4.6678
-18.1371
-25.1243
-14.9006
22.4586
-26.1437
1.5839
-19.3899
7.9531
4.5046
-11.4337
11.887
0.4471
-20.9006
-24.5598
18.5949
-19.6341
-16.9561
0.9476
-25.3166
-19.6112
-20.2414
15.4744
-17.9632
10.8766
16.2662
21.0349
-17.3997
-17.8804
-13.1016
-16.2054
-2.7315
-21.0257
-14.9434
-9.1403
-1.2543
-18.8266
39.5584
-2.0733
53.0899
21.4608
15.2792
7.5538
-15.6285
11.9984
-22.8952
-24.0259
11.6884
-7.9363
8.4933
-3.1083
8.2599
0.5967
0.882
-26.7159
-4.1551
5.2217
-18.1753
5.0798
-0.6607
-20.1681
7.503
15.1662
0.7935
1.1475
4.1261
-19.2053
-24.2134
-4.6205
9.1968
16.0497
-22.6768
-7.1962
-10.9546
-24.5292
6.3064
23.2091
-15.7979
-25.7774
-17.653
8.9328
9.151
-5.1577
1.5213
-8.5697
7.8554
-22.1815
6.8195
47.7055
46.5945
10.1298
-9.104
12.006
16.4447
14.4839
2.7556
20.5634
3.4395
14.0813
20.5344
12.4897
-1.648
-6.4592
10.7486
-7.5243
-2.7741
8.2568
-0.9033
-19.5623
22.8553
17.2125
1.5137
-25.1213
15.7918
15.5767
7.033
10.0986
-6.0335
12.0747
-23.0933
15.0548
7.3428
21.3019
-1.0864
6.7095
-10.8661
16.2969
11.0567
-24.18
-19.6633
12.6349
-16.4325
-2.1834
-21.0209
23.6048
20.8733
-25.8108
-12.7091
69.4509
32.7809
-3.9748
23.0627
-22.1491
14.4062
22.6797
-8.2004
-19.9638
21.2774
-23.336
9.1174
-11.5116
-17.1437
-10.7089
15.4088
-16.3228
15.3478
6.8774
9.7553
-17.5283
4.0269
-6.0549
14.333
-3.9002
6.943
-23.8227
-22.396
-22.367
-5.5238
-21.4133
-8.9297
-22.0054
12.6332
-8.1057
21.3523
5.9282
-15.688
-25.0374
-15.8223
12.3234
-12.3615
-23.9433
11.8183
-5.858
-24.5979
-19.2129
-9.4561
-11.6992
-25.3334
20.1813
71.6646
1.2042
-18.967
-8.0218
18.7109
-8.5604
-16.216
-7.7837
-15.6712
9.357
-5.5879
-8.8732
-26.5618
-0.1648
3.5554
9.9536
14.2278
-22.4418
-5.5681
-7.773
21.5354
-13.2969
-6.5752
7.0712
18.1967
-6.8407
-25.3258
-8.3453
-11.0874
-20.8212
7.3535
15.6408
18.1906
-14.1941
9.6713
-24.6116
-11.0736
-26.6579
-1.3062
0.7935
-6.7781
-4.7853
0.0077
-17.5084
-18.0715
5.5178
6.328
2.3271
4.5641
-4.4236
-0.9186
-25.1686
16.0955
-20.1941
22.0512
-17.4428
2.1913
-23.7754
21.1173
13.0696
-0.5051
1.88
-10.802
-19.5883
12.4745
-21.4469
-19.5883
-11.1316
3.415
19.0192
-17.4611
21.7933
7.1291
-10.8249
11.858
13.387
-3.0762
16.3946
19.3991
-13.831
3.4089
-10.6616
22.686
11.9984
12.6942
19.6219
2.0402
-20.5664
-4.4511
10.5899
-24.5201
-24.7368
-5.9236
3.5356
-8.6901
13.0024
17.4688
-3.3128
2.44
16.1672
-26.5862
7.2375
11.5101
-10.8356
-13.2938
21.7704
0.8774
-16.4189
-18.3828
5.3774
-13.4708
-7.3076
-20.3802
14.7679
9.9842
-17.9922
-11.0172
-14.2979
7.2375
-11.3208
-12.1631
-9.9383
==========================================
# 2
3.7816
-4.7087
-25.6062
0.0827
-12.6832
-2.1665
-20.7141
-18.0682
-0.05
-7.8765
-20.3601
-8.1588
5.3762
16.1919
-1.0114
21.3511
17.5652
-12.6572
-17.2014
16.8954
23.701
-10.4538
17.5729
-21.2467
18.58
-23.4684
2.7821
1.5125
14.4646
-1.5546
2.1854
-23.6637
15.5159
-15.1765
-23.888
0.3849
20.82
-8.2458
21.2717
13.6451
-4.904
-4.0052
19.6191
8.5424
21.1542
-6.1217
22.8984
-17.3952
23.1272
-12.175
-25.6276
-20.4868
-25.4033
18.2489
-5.6761
-11.1679
-19.3744
23.6979
-19.1043
-0.2484
-2.2169
-12.967
2.8172
-20.8499
-18.7823
0.4459
-14.4029
19.2834
22.8541
7.134
17.7285
-24.6052
19.7519
2.4601
-21.5274
-11.3724
-13.2859
2.3914
13.8084
14.4447
2.1931
12.0353
12.049
1.9703
1.5507
2.0817
5.779
-5.49
6.7571
-24.0239
1.5751
-3.4361
6.5755
-14.3724
14.1579
-22.324
-23.7126
-21.5519
6.4748
8.399
1.0471
-16.4186
12.3222
-1.3043
-8.1084
20.0769
-6.964
-15.8861
8.5165
-15.1445
4.8345
-19.9862
-22.179
3.2963
-21.6404
-0.8313
22.346
0.1895
-12.9945
3.0735
-12.3932
23.9604
5.5562
-17.7569
-17.5463
-18.1155
-14.2732
-14.1587
21.4441
19.1873
0.1819
-4.08
-16.6582
-0.224
-18.471
16.6115
-25.1866
21.464
7.9458
23.5789
13.3308
23.4629
11.9071
-5.9767
18.3847
18.992
13.6512
12.5755
-24.9211
10.7795
5.8919
23.3729
9.1284
22.2971
-8.6166
23.6506
-12.6527
2.5273
-0.134
19.1385
-17.2899
-12.9227
-14.0321
-13.4065
17.994
23.4523
-15.3596
13.7733
-22.8779
-6.697
-24.3443
12.1574
-1.7637
-10.5377
-16.2294
22.7442
35.1256
-19.4708
16.0759
10.2194
18.1665
21.1161
13.1294
20.8226
7.5807
-5.2982
20.4198
19.2036
8.4932
13.34
21.7203
-5.3816
21.4304
10.5979
-9.1018
11.7332
23.5698
11.4081
13.7565
-23.6241
2.7363
-13.6598
6.4351
-18.4466
-19.3667
-6.8282
1.981
-15.9898
-5.638
23.5438
-8.3953
-13.3042
-19.675
7.5323
-7.7727
-7.6064
-5.461
8.9499
-8.1649
23.8856
-16.5575
19.1659
-0.7489
-19.1027
-5.7448
-12.7096
52.4077
-15.3919
-5.6535
14.9068
-0.8071
-2.4216
6.2869
20.9832
18.9603
-9.3686
-0.7743
-15.0326
-18.4982
-2.1784
-6.9182
-2.519
4.0211
13.1568
10.5948
-14.5814
9.5068
16.6299
6.8914
-23.122
-7.3852
-0.7581
0.0583
13.9168
13.2331
-1.8461
3.1514
8.7591
5.5043
23.4599
23.321
2.6722
-17.5249
0.6962
16.3171
9.5008
-12.4801
28.4192
14.8353
6.0902
23.5178
-10.8658
-10.8521
21.4225
-19.2828
-7.4186
26.8815
10.2352
14.7029
4.2259
7.438
4.9904
-1.8412
13.7812
-3.0818
-19.0384
-22.3467
18.1298
-4.6049
10.6711
8.3685
5.483
6.191
14.8934
20.3455
-7.7895
-11.7173
11.0236
-2.9768
-9.8984
-8.6074
19.642
-7.582
14.8735
10.0943
6.8624
-16.2996
-16.5316
23.1669
22.497
-12.0423
20.0464
7.0899
16.6498
-5.7265
21.7722
-7.8903
-8.6653
-12.6895
13.7273
13.1795
22.5549
16.5519
12.2395
-13.0206
8.4754
28.1108
9.5693
2.3517
-22.4522
-10.8184
-18.7639
-6.0561
8.5882
17.8094
15.9218
13.5658
11.7606
17.5927
2.4403
5.1045
7.7841
-4.167
-15.8846
14.872
2.0786
-21.8174
-16.7498
3.2368
6.7342
23.817
11.0114
-4.3959
-6.201
-3.2194
9.6533
-12.9884
-12.2483
19.8633
-2.8257
-10.5942
-20.0702
12.5266
9.9327
-13.9525
27.9549
-10.6904
11.9253
-20.8775
-13.4583
21.8212
21.6425
5.2179
-12.8615
-14.102
15.8843
31.5416
14.97
3.1227
18.4108
1.0103
-22.4842
-2.2061
-14.589
-25.1148
-13.1378
22.5948
-13.3912
-4.4676
-8.3221
-23.3479
-0.0043
-25.3606
3.2917
-25.2034
17.2692
5.7729
6.8319
-14.0519
-19.3072
-11.763
1.0914
-1.3684
-4.9605
21.7081
20.0708
-13.263
-14.0824
12.49
20.4706
-21.6617
-0.3918
5.2571
-7.0967
4.0807
20.1179
-20.0485
-21.1411
-23.8586
11.758
23.0949
0.6317
22.3136
13.5664
-22.2439
-4.5889
36.3671
19.8855
12.5015
-7.0259
18.9694
0.8001
16.8925
-10.8445
9.2825
3.1666
-22.118
7.5445
13.3461
17.9132
-5.6639
1.5964
-25.5101
-16.0341
9.516
-19.4217
20.3241
-20.9171
-16.556
9.5694
-4.8125
-23.4928
2.5639
-14.2915
13.2454
-8.023
19.9777
23.7376
-16.855
15.9813
-10.0708
8.7942
-19.1745
1.5797
-13.0166
0.3457
27.8408
1.7102
12.7685
-13.4087
11.1304
-13.9192
18.5388
2.6232
17.4522
3.5679
26.2586
8.489
7.3873
9.4244
4.7147
-15.9678
-21.2943
4.2351
-16.8781
3.4749
-14.937
-19.9115
8.2312
11.3746
-17.4334
22.1232
-15.9364
11.3715
0.188
16.1278
12.3237
-6.8663
13.1904
-21.4725
-7.9024
-10.6949
8.9132
16.4635
19.4818
-15.912
-7.6934
17.4569
-0.2103
-17.1587
8.3426
-11.5815
12.6293
-23.4465
-15.716
-10.5254
-6.3402
0.552
8.5959
-18.4847
1.1631
1.0929
-22.5956
-13.3639
16.6252
3.2444
33.1542
-22.4964
8.8308
-3.1446
16.8236
-10.3622
-6.6803
-22.958
17.5282
-12.9439
-23.3358
18.1924
-9.2468
11.2403
-23.1556
-0.8908
-0.723
0.3086
10.3644
12.5007
18.9248
6.925
8.782
17.6263
-13.1211
-0.3583
1.128
-1.6767
13.8634
-15.3917
-20.9552
-25.5864
-18.8433
20.7315
-17.4593
0.7083
-24.353
23.2203
20.5957
12.0188
-12.1806
-24.1749
15.7021
-7.2005
13.1019
-2.9081
-13.6079
-8.5741
-11.11
-19.1058
53.8305
-6.3002
8.2388
6.6457
7.4041
-23.9521
5.5698
-10.5896
4.3943
21.1642
-3.4449
15.0962
-18.1307
3.9494
10.5628
-17.6073
-13.8002
8.9529
-13.0174
-7.3867
-4.2021
-16.6857
-17.3525
14.6965
6.3176
9.4366
17.2738
13.7413
-25.2675
-15.4146
19.4925
17.5454
1.5705
-19.5544
-19.7478
15.8627
16.758
-8.3695
-15.8722
6.5293
12.5442
12.369
-14.4868
6.1086
6.7556
9.9753
-17.5326
0.6382
17.2674
-10.0891
57.7796
-12.2758
11.9132
-21.7258
-25.1195
-14.4471
14.3486
-16.5103
19.0027
-24.9142
7.0814
-9.3518
14.8093
-0.8145
-9.639
-1.9101
19.0042
-14.6394
-10.2158
18.6471
22.8327
11.4631
-3.5322
0.3589
2.1763
10.6253
5.4738
-0.3186
-12.1964
15.1741
20.9131
-24.03
11.5241
-24.1791
-17.1629
19.5062
3.4047
22.2498
0.745
-4.3865
-7.3634
-17.4169
-25.4369
9.9371
-17.026
16.3094
14.2097
-13.9512
20.5451
-2.7097
46.7563
-0.7672
6.7739
11.4478
4.3751
13.2179
23.3989
8.7834
0.1041
19.3216
-1.0869
17.2723
-15.3776
13.3765
12.4305
-2.4656
-10.4156
19.2728
-6.0851
10.195
21.7692
-12.2834
17.138
-15.7472
-19.7818
-14.969
13.5399
10.9671
9.455
-2.1955
-12.0652
7.1584
-9.8175
16.1893
2.8538
18.4747
10.784
21.6868
-15.555
8.0863
-16.1542
5.0088
-18.4516
-0.2301
-8.8073
13.2408
-5.551
-25.1469
-12.3249
-21.0926
51.9369
-13.6338
-21.0071
18.9783
-15.9242
-7.3211
2.9972
-4.8186
-20.5357
-23.2243
7.752
-0.5055
-20.7477
-1.7573
-25.1989
-12.024
10.9855
-4.7011
-10.0769
15.5739
-21.6037
-9.404
17.0037
-21.2787
5.8812
7.0608
21.7325
-0.4666
-3.6375
3.1361
2.1458
-11.1969
-21.466
-10.6995
19.3079
10.8344
-10.3622
24.0077
-9.2361
9.2932
-12.477
9.7163
-8.536
-23.0747
12.786
-21.2238
-11.6135
-23.0808
13.2969
6.2444
58.3579
-1.2509
6.1422
16.9427
-15.0026
6.3009
10.4911
-14.8927
0.0628
11.0938
14.7652
3.6969
-24.4557
-21.7839
-12.8995
9.0994
-15.0896
-0.8115
-11.3816
-23.6576
11.695
-14.6608
-25.4964
4.1249
16.6711
21.5632
14.0327
-14.0412
-15.1613
-18.7945
-22.8733
17.9868
-9.3181
-10.8536
-23.6134
23.3119
-9.639
-10.553
-4.6339
-18.5717
-2.8819
1.0153
9.4608
-14.5832
23.1333
16.2652
-11.8409
-12.5764
12.7155
-15.999
40.6496
-25.6413
4.2775
20.3546
13.2042
10.7062
17.1624
-5.464
16.1094
-18.0468
-10.8215
-12.516
-0.9702
-4.6264
-13.4732
18.5585
5.6462
22.6573
6.7388
19.7275
-1.6828
-4.8872
-23.6561
-15.1384
-23.5279
3.7388
-20.119
9.928
22.4711
17.4996
-12.6557
-19.9004
-24.9074
19.288
-22.6871
0.4306
7.4346
-21.4725
0.4398
19.6375
10.7383
6.2797
-2.8651
-17.5328
11.1672
10.4087
4.3523
-16.3576
17.6489
4.4926
25.108
-22.2324
-10.0403
-23.1968
-0.2988
-5.345
2.0298
-21.3337
0.8791
6.0476
12.0048
-7.2882
-14.8622
12.9752
11.2449
-10.4764
9.9188
0.7312
-5.7799
9.0155
-25.2812
-15.2818
-3.7413
23.4279
22.3475
11.9285
-23.6821
-17.737
-3.4498
-6.082
-3.665
-14.3063
18.6807
-16.7421
23.7239
-21.2894
22.6618
-25.121
8.5775
-16.2309
12.3206
-9.6679
12.5452
19.0146
-14.8565
-21.8263
-11.8699
-12.3734
0.9186
-14.525
40.4176
5.1625
-6.4711
-8.3038
-20.3784
-23.1602
2.3731
-1.2967
-7.7286
-16.733
8.4295
22.3697
-20.1419
6.3023
13.0958
-4.4474
-13.3496
4.6086
-3.5917
-15.5168
-18.2284
-25.4262
9.5206
-12.4512
11.0877
23.9192
-8.876
-20.6897
-0.3888
-3.6848
21.85
8.7473
7.6147
21.5204
5.7103
6.5526
-24.6098
-15.0651
-7.3241
-18.3062
-11.171
-12.8861
-18.3946
11.8387
21.9887
-11.4838
16.6316
10.6635
-4.8019
9.4303
64.4971
-4.103
15.0826
-16.8261
8.898
11.5287
-20.1617
-25.5025
-18.0454
-11.937
-2.6426
21.0726
10.9656
10.2926
22.3353
14.0036
6.2158
9.3268
5.9392
-6.9182
19.6375
-5.7387
-22.1943
19.0622
2.2114
9.2322
12.0994
-23.2975
3.2933
17.2707
4.2332
2.0714
-22.443
-2.0673
9.7922
18.2275
-3.0088
15.1634
22.2224
16.3933
12.6228
-11.6318
-9.1446
0.3438
-15.1721
-20.0811
5.8294
-8.7079
-18.0927
-6.2775
49.0576
22.6373
-20.0519
8.8278
4.6285
5.9285
2.8889
-16.6781
-20.2167
-6.613
19.8023
-10.6895
-2.9661
-12.8069
13.8923
-10.2143
-24.2081
14.9452
-19.353
-9.5901
-25.1317
2.2022
-12.7747
-21.3733
-2.5968
-10.0616
7.3156
20.5027
9.1864
10.8283
20.5683
19.9095
-0.0561
23.8399
-9.3841
-13.1181
-2.6624
-23.9064
10.7962
14.7408
-9.1537
-12.5413
-18.41
-4.0098
-8.5036
-16.1838
14.2736
-12.1659
-22.2079
-15.2881
34.6269
17.7055
7.2271
-13.9131
5.9774
21.3038
-7.8902
-21.1751
-3.784
7.9702
16.3048
-16.5887
0.8838
6.3114
-2.7875
19.8113
-10.2474
-20.2269
16.784
9.5053
-1.399
-2.6197
-25.6993
-15.6297
-25.1973
-12.8281
-12.6771
-14.673
-9.7503
20.7392
-7.6888
17.8693
13.6055
18.8699
21.554
23.7742
14.2036
-7.0784
7.897
-18.8616
17.2311
-14.4792
-6.1064
-24.7914
-1.5409
-7.1775
2.489
13.7537
-17.609
-25.2888
54.232
-12.9153
-15.7182
-10.0006
16.9808
-13.8658
5.898
7.1843
18.2336
21.8729
-18.9212
-19.3797
1.4804
-24.2817
-21.8357
1.1065
2.9179
23.3504
2.5395
-15.9288
-14.499
-13.4278
11.9743
-9.1858
-8.5189
-4.048
-15.9898
-22.2034
10.4102
-17.9461
-0.5277
3.5745
-6.6405
-6.3552
-18.8647
15.2184
13.5215
21.3297
1.6453
-11.1847
-0.0439
2.5593
-0.2652
-20.9323
-3.9579
2.5318
19.0073
19.4038
19.0056
-9.1341
54.9372
-0.6363
22.9291
12.1864
-7.6308
0.5725
-8.5998
12.3266
23.5652
-23.5478
5.6287
-19.1394
-12.3491
-19.1043
-13.7437
11.8765
-2.2336
10.5174
16.3796
-4.9086
9.1269
2.7195
-18.767
-6.3399
9.8975
-16.675
23.556
15.5373
-6.0622
-6.375
21.1115
-8.8664
8.6554
7.6315
-21.8418
1.3996
-9.3414
-19.4247
8.8019
-8.0108
-21.5397
17.0663
13.8054
-8.9141
16.2942
15.8776
-22.3773
-15.6499
-11.508
24.2427
33.4199
-10.515
-4.8031
9.4107
-6.3765
13.0134
20.3667
-19.6948
-9.8099
7.9252
-19.1157
17.1059
-8.0567
-18.2711
-15.7274
-8.6701
13.7459
24.9954
9.3939
-14.3266
-8.3541
2.9545
5.3548
-7.82
15.6166
20.6034
23.6796
3.5786
-8.2244
-17.3754
1.3462
24.4018
-10.0769
11.6935
-0.8161
8.2663
1.4911
-19.9908
-13.9497
19.5795
9.725
5.0527
-17.1175
-0.3659
-1.3761
-21.0117
5.6737
-1.8612
7.6114
-22.284
68.635
9.7339
20.5671
15.5999
6.2093
8.1975
5.1503
3.8457
19.1995
-22.4758
-12.9594
11.8201
-18.1308
-13.3393
4.3781
-2.3771
-22.5117
-11.4742
2.0176
15.6151
5.9697
14.7835
3.7571
0.4352
15.078
-4.3303
-10.3149
-2.786
-9.9411
-12.2407
23.3577
-15.9238
19.9609
-14.1557
9.5724
49.2666
-21.6983
-13.614
-17.0946
1.8131
-17.6409
15.905
3.7587
7.6162
20.1212
6.3558
13.491
8.3029
13.7834
-19.1075
22.5949
-7.6952
-24.341
-6.9272
1.6926
19.5549
18.5327
-2.6708
-4.128
3.0674
-0.0592
-14.2474
14.7896
-7.6598
18.2594
-14.0763
4.6391
-14.7412
14.2265
10.8741
7.1996
2.0679
12.9768
-22.4369
15.2809
12.4564
0.6641
-10.3195
8.1747
-18.3154
-7.6888
-12.468
-15.3699
-15.7106
-16.2327
45.032
38.3486
13.8511
3.2185
-8.6074
-13.8566
14.7728
-6.8572
-18.4527
21.9324
-19.4552
0.7328
21.1069
-16.4805
-7.5588
49.6818
-19.1869
-5.847
18.5941
-19.0204
16.0164
-23.6294
18.9485
4.1844
7.691
-12.0408
-17.9157
-3.5673
-20.1283
23.5392
17.0937
18.2504
-15.9391
15.96
10.1309
-0.5765
-4.6965
3.8716
2.1183
22.8053
-22.3713
-1.9803
0.6839
20.8948
-8.4503
13.0394
-8.757
-24.7162
8.5791
17.7072
-7.5057
-23.531
69.6375
-19.794
-23.1403
6.4748
-4.492
9.9875
1.1768
10.6162
-2.4
22.5534
17.765
8.1807
23.387
30.9679
11.7217
6.5444
19.6264
-20.3622
-14.9468
-12.6267
-8.6486
4.1005
-17.8866
3.1696
-13.524
-16.7681
19.4542
10.5643
21.5662
9.6106
-8.5994
12.4229
-22.9405
-5.6227
-20.8774
-21.3626
2.3136
-10.791
6.0018
-5.5556
23.8704
-7.2875
15.6777
-19.2584
-8.6456
-5.1676
1.6712
-0.9091
18.7509
-20.3419
37.7506
-19.7881
3.925
9.0323
-19.2431
-7.1013
-15.8312
23.35
3.6274
-16.0417
10.3933
9.0275
6.6639
69.286
-2.0515
-25.1149
-24.7103
-12.5044
-8.6502
-1.605
-9.2408
-22.3897
-18.5032
-22.5254
-9.4345
6.6334
-4.0235
-23.9796
-15.4466
14.6874
-22.3144
-1.9162
-10.6918
-8.403
10.6284
-10.5118
-20.9033
4.5308
1.9749
-6.1507
24.2808
13.8222
-19.2981
14.5317
11.6538
-6.6253
-2.0196
9.1467
17.0402
-6.4223
-10.1123
65.1807
-23.5846
10.9259
-17.0412
3.9067
-25.475
3.2611
-4.4753
2.2143
-5.3375
15.4698
23.0691
60.1919
13.101
3.5124
19.5987
-20.5842
-13.623
23.4339
-3.8985
-11.9919
14.2891
14.6187
0.7983
-19.8886
1.9108
12.3863
18.464
17.3867
5.9702
5.129
-10.585
-13.2234
10.897
14.3074
-21.4069
-18.3108
1.0181
-17.2533
16.7351
7.308
-7.1837
-14.9156
-24.5518
-12.8037
-23.8129
-0.3384
7.6359
22.529
-12.3948
5.8382
59.6812
-18.488
7.8939
-3.8725
4.6468
19.172
0.931
16.1231
-0.4788
2.4432
-6.9991
71.3038
-0.396
0.7695
15.6922
-22.9516
8.8065
3.1146
4.8649
1.9259
-0.9962
-17.5922
15.194
23.8963
-11.1527
14.5454
19.6146
2.253
9.2047
17.9193
-4.4447
-22.7436
-14.5341
-15.5397
-9.1003
13.4391
-11.1237
2.5196
9.3771
17.4996
15.9066
0.7709
-14.322
-1.8308
-22.2915
13.5139
-4.1471
15.3159
1.8603
-5.9111
23.2078
61.4055
-3.5475
-21.9654
-24.6632
4.9733
8.7454
22.4955
21.5448
-19.7865
-23.5707
70.8492
-2.0848
-10.9303
-11.1662
-14.1774
0.8733
17.3564
14.9803
8.782
3.2704
-1.4524
-17.7721
-19.5666
-10.2936
20.3089
17.9681
-11.7642
24.1939
5.9438
-22.9191
12.1284
-6.2834
17.463
-20.3769
1.1203
13.1523
21.1039
19.2865
21.1161
14.0648
2.1809
-24.8997
5.0511
12.5053
-6.2693
-15.8159
15.1467
-23.8606
2.1914
8.312
-25.6417
33.5984
59.0691
1.2226
-6.8908
13.1568
-21.1856
16.0393
-8.2199
5.4905
49.4452
-9.7769
3.1615
11.1803
4.7097
-22.7167
17.6067
-4.8933
-14.6165
-6.3277
3.2917
-19.5758
-22.2965
-15.1323
-13.7254
-21.3413
-8.4331
-25.565
-24.857
7.7932
10.7764
8.2861
-6.3811
-12.6908
-17.6623
18.4457
23.0876
15.6594
7.2942
-17.1953
4.5995
20.4828
-24.6998
-10.3439
-22.6654
1.9108
15.1924
-10.1822
-0.5475
14.028
-13.5731
-5.8657
42.3191
53.4414
12.7038
-0.5551
-1.5195
15.6395
-15.3842
-0.4256
55.1063
-12.357
-22.3503
23.1831
18.9067
11.9754
1.9016
13.2761
-12.5336
8.4066
-15.3352
-5.9889
10.5597
-24.7288
18.7066
9.5759
3.2017
23.7422
-17.5158
-25.2629
-21.175
-9.8907
12.3557
22.1247
3.9067
-21.5168
10.3781
-23.3937
-19.1607
18.4289
2.6295
-9.3567
-14.8057
9.429
-12.9365
6.9452
8.9361
-2.5129
-15.0224
6.3161
-8.2337
4.1554
-15.0824
37.0638
50.1393
2.7823
-5.2321
22.5993
17.7316
15.6698
33.6366
7.5777
-6.4913
23.7081
2.6034
16.3732
22.5751
-13.9052
15.9905
-11.8058
-19.6628
8.573
-7.9284
15.3557
13.9839
19.0077
13.5856
3.1758
-17.4044
-1.3364
15.7601
8.6905
1.9108
17.2265
-21.6846
23.0357
-17.3708
14.4615
-13.4919
-5.4335
-7.6995
-25.1439
0.4718
-22.9099
-8.1054
24.1378
-3.079
10.9946
23.6552
22.9727
27.8834
20.1059
1.7704
-16.062
68.519
29.2783
-18.0832
10.7581
-19.7085
4.7396
62.588
3.003
-1.6479
23.7859
-0.1601
11.7602
-20.6056
12.6533
8.7334
-4.9238
-2.7418
-22.8214
-18.0956
-2.3771
-3.4784
-13.3465
-23.4074
2.6798
9.3664
19.8908
15.2962
16.9778
16.7672
22.3048
7.749
19.9182
-21.1429
-12.1537
12.017
-14.615
4.7719
21.7692
-10.5789
23.1852
8.7713
-23.9502
-19.6944
10.4193
-2.435
-6.0847
-2.433
8.1213
0.6641
11.8032
-25.6935
30.6517
33.693
0.1302
10.4209
-17.6228
22.7155
2.1393
-13.5471
-24.0635
-12.934
6.8786
18.8975
17.222
23.8935
18.7585
6.8731
-8.0459
-0.0699
-23.148
-2.1737
-1.7865
-9.0545
4.5995
20.8735
-23.0091
-11.0947
2.0771
21.6608
-6.8908
-9.32
-20.3357
-9.7519
-17.0076
-15.0331
2.3609
13.4102
16.0347
-0.5475
4.5049
10.9
-10.3607
-2.279
7.5337
13.0456
7.0872
-14.8664
-0.0302
4.0501
-18.1063
23.7818
8.2049
34.337
41.0142
10.1799
22.2635
35.9178
-16.2542
4.4102
7.6603
19.354
15.1771
-18.0206
0.0569
-16.5649
-1.547
-4.6065
-14.1893
13.4056
-17.7839
8.7763
12.5709
-7.1822
4.4331
-15.822
11.2037
-23.7553
-16.9298
10.813
-4.2967
23.3851
8.1945
-19.5468
17.8643
15.3069
2.2373
3.8457
-13.6994
-21.3672
2.9316
-10.0143
-17.557
18.5997
20.1839
8.1458
-14.4724
-10.6474
-16.5927
19.4971
9.9677
-3.9366
-15.7843
-3.604
48.3478
20.8033
17.2921
59.8613
-24.601
2.7561
-13.1061
26.2634
8.5028
17.9256
-24.3915
18.5878
21.6883
-2.7051
-7.7087
-22.8103
-11.0103
21.4182
8.1259
-12.9502
13.4758
-21.4344
23.3104
-25.3316
21.8973
-22.945
-6.2133
3.7724
-2.1573
4.8543
7.2454
-18.4634
-15.9349
15.8654
-19.4918
-3.137
20.7178
-5.9523
23.4416
9.9387
-16.4672
21.7324
-5.947
-18.2663
-0.4423
5.0817
9.3527
4.7353
12.2352
-20.9555
-25.5789
29.5332
3.0611
47.6905
21.8819
6.9616
13.0372
2.8114
-14.3099
-10.1086
-13.2919
-8.5431
8.4372
-0.6665
14.2189
-17.378
-7.6964
-4.2463
-18.6236
9.6075
-24.4465
-16.9985
-1.8155
4.8802
8.6065
9.3603
-3.8221
18.8516
-24.6449
-14.4304
-19.1439
-3.1339
-20.7599
7.8802
18.7707
-1.6156
-10.437
0.3421
16.8923
-9.8999
18.9786
15.9954
-24.0993
18.1703
23.0508
6.8334
-16.4415
5.3105
6.2154
14.1731
5.7787
63.9321
3.6439
70.1321
-25.1135
17.4569
-5.2915
-12.9563
18.9156
-23.5352
-10.6015
-13.7008
5.5455
2.7973
0.362
-8.1538
-10.1669
-6.9686
23.5072
20.6415
12.2627
17.2143
1.2714
12.2978
-15.1842
-10.1044
13.4636
-18.8037
23.1074
5.7744
-23.5935
2.129
6.5053
-9.4696
-3.3216
-20.4883
-25.6856
-6.4406
-0.8374
-5.5251
-9.201
24.7588
-24.2583
-2.5579
-8.3516
7.7337
17.9315
4.5003
11.1487
13.5887
-0.4976
51.2059
46.0117
27.8576
-3.8865
11.5445
-8.4255
-5.8455
17.2203
19.7599
3.5423
-14.5295
8.605
4.9504
10.7631
13.9259
16.5932
-24.7517
-6.6741
-0.0989
-6.0652
7.0577
-2.4808
15.1344
-15.1872
14.6263
14.3791
5.3365
13.4529
16.224
-8.7295
-3.1187
20.2844
6.8929
19.0713
14.1518
16.1721
-22.9862
-17.2808
9.0811
0.0247
-9.2758
-17.1904
-21.1264
14.2943
18.2728
6.58
-22.5469
4.0805
1.1553
19.9563
-14.037
37.1522
42.5034
-7.2099
14.5717
-3.7474
-21.9484
17.0084
22.145
20.5976
-10.4919
3.6202
-11.6467
13.7092
6.0735
5.8278
-16.9771
-23.9643
-13.7406
23.6186
-24.9837
2.7439
-18.2299
9.1131
5.6646
-10.2737
13.047
1.6071
-19.7406
-23.3998
19.7549
-18.4741
-15.7961
2.1076
-24.1566
-18.4512
-19.0814
16.6344
-16.8032
11.8766
17.2662
22.1949
-16.2397
-16.5204
-12.5416
-10.4454
2.6285
-16.2657
-10.1834
-4.3803
3.5057
34.0134
41.1184
-8.2333
1.0499
21.1208
13.9992
8.9138
-14.4085
13.1584
-21.0952
-22.2259
12.6884
-6.7763
9.6533
-1.9483
9.4199
1.7567
2.042
-25.5559
-2.9951
6.3817
-17.0153
6.2398
0.4993
-19.0081
8.663
16.3262
1.9535
2.3075
5.2861
-18.0453
-23.0534
-3.4605
10.3568
17.2097
-21.5168
-6.0362
-9.7946
-23.3692
7.3064
24.2091
-14.6379
-23.8174
-16.493
9.8928
11.111
-2.7977
3.6813
-6.4097
10.0154
-20.7415
57.0595
-3.0545
-5.8455
10.4898
-8.044
13.226
16.9047
16.2839
4.5556
21.7234
4.5995
15.2413
21.6944
13.6497
-0.488
-5.2992
11.9086
-6.3643
-1.6141
9.4168
0.2567
-18.4023
24.0153
18.3725
2.6737
-23.9613
16.9518
16.7367
8.193
11.2586
-4.8735
13.2347
-21.9333
16.2148
8.5028
22.4619
0.0736
7.8695
-9.7061
17.4569
12.0567
-23.18
-18.6633
13.6349
-15.4325
-1.3834
-20.8209
23.8048
21.0733
-25.6108
35.9709
21.3309
-18.8191
-3.1748
24.2627
-20.6891
16.0262
24.0397
-6.8404
-18.6038
22.6374
-22.176
10.2774
-10.3516
-15.9837
-9.5489
16.5688
-15.1628
16.5078
8.0374
10.9153
-16.3683
5.1869
-4.8949
15.493
-2.7402
8.103
-22.6627
-21.236
-21.207
-4.3638
-20.2533
-7.7697
-20.8454
13.7932
-6.9457
22.5123
7.0882
-14.528
-23.8774
-14.6623
13.4834
-11.2015
-22.7833
12.9783
-4.698
-22.6379
-17.2529
-7.4961
-9.7392
-23.3734
21.4213
21.6246
2.3642
-18.607
-6.8618
19.3309
-7.4004
-15.056
-6.6237
-14.5112
10.517
-4.4279
-7.7132
-25.4018
0.9952
4.7154
11.1136
15.3878
-21.2818
-4.4081
-6.613
22.6954
-12.1369
-5.4152
8.2312
19.3567
-5.6807
-24.1658
-7.1853
-9.9274
-19.6612
8.5135
16.8008
19.3506
-13.0341
10.8313
-23.4516
-9.9136
-25.4979
-0.1462
1.9535
-5.6181
-3.6253
1.1677
-16.3484
-16.9115
6.6778
7.488
3.4871
5.7241
-3.2636
0.2414
-24.0086
16.8555
-19.0341
23.2112
-16.2828
3.3513
-22.6154
22.2773
14.2296
0.6549
3.04
-9.642
-18.4283
13.6345
-20.2869
-18.4283
-9.9716
4.575
20.1792
-16.3011
22.9533
8.2891
-9.6649
13.018
14.547
-1.9162
17.5546
20.5591
-12.671
4.5689
-9.5016
23.846
13.1584
13.8542
20.7819
3.2002
-19.4064
-3.2911
11.7499
-23.3601
-23.5768
-4.7636
4.6956
-7.5301
14.1624
18.6288
-2.1528
3.6
17.3272
-25.4262
8.3975
12.6701
-9.6756
-12.1338
22.9304
2.0374
-15.2589
-17.2228
6.5374
-12.3108
-6.1476
-19.2202
15.9279
11.1442
-16.8322
-9.8572
-13.1379
8.3975
-10.1608
-11.0031
-8.7783
==========================================
# 3
3.1916
-5.2987
-26.1962
-0.5073
-13.2732
-2.7565
-21.3041
-18.6582
-0.64
-8.4665
-20.9501
-8.7488
4.7862
15.6019
-1.6014
20.7611
16.9752
-13.2472
-17.7914
16.3054
23.111
-11.0438
16.9829
-21.8367
17.99
-24.0584
2.1921
0.9225
13.8746
-2.1446
1.5954
-24.2537
14.9259
-15.7665
-24.478
-0.2051
20.23
-8.8358
20.6817
13.0551
-5.494
-4.5952
19.0291
7.9524
20.5642
-6.7117
22.3084
-17.9852
22.5372
-12.765
-26.2176
-21.0768
-25.9933
17.6589
-6.2661
-11.7579
-19.9644
23.1079
-19.6943
-0.8384
-2.8069
-13.557
2.2272
-21.4399
-19.3723
-0.1441
-14.9929
18.6934
22.2641
6.544
17.1385
-25.1952
19.1619
1.8701
-22.1174
-11.9624
-13.8759
1.8014
13.2184
13.8547
1.6031
11.4453
11.459
1.3803
0.9607
1.4917
5.189
-6.08
6.1671
-24.6139
0.9851
-4.0261
5.9855
-14.9624
13.5679
-22.914
-24.3026
-22.1419
5.8848
7.809
0.4571
-17.0086
11.7322
-1.8943
-8.6984
19.4869
-7.554
-16.4761
7.9265
-15.7345
4.2445
-20.5762
-22.769
2.7063
-22.2304
-1.4213
21.756
-0.4005
-14.3845
1.6835
-13.7832
22.5704
4.1662
-19.1469
-18.9363
-19.5055
-15.6632
-15.5487
20.0541
17.7973
-0.4081
-4.67
-17.2482
-0.814
-19.061
16.0215
-25.7766
20.874
7.3558
22.9889
12.7408
22.8729
11.3171
-6.5667
17.7947
18.402
13.0612
11.9855
-25.5111
10.1895
5.3019
22.7829
8.5384
21.7071
-9.2066
23.0606
-13.2427
1.9373
-0.724
18.5485
-17.8799
-13.5127
-14.6221
-13.9965
17.404
22.8623
-16.7496
12.3833
-23.4679
-7.287
-24.9343
11.5674
-2.3537
-11.1277
-16.8194
22.1542
-13.0244
-20.0208
15.4859
8.8294
16.7765
19.7261
12.5394
15.2326
1.9907
-10.8882
14.8298
13.6136
2.9032
12.75
21.1303
-5.9716
20.8404
10.0079
-9.6918
11.1432
22.9798
10.8181
13.1665
-24.2141
2.1463
-14.2498
5.8451
-19.0366
-19.9567
-7.4182
1.391
-16.5798
-6.228
22.9538
-8.9853
-13.8942
-20.265
6.9423
-9.1627
-8.9964
-6.051
8.3599
-8.9549
23.0956
-17.3475
18.3759
-1.5389
-19.8927
-6.5348
-18.4996
-0.9423
-21.5819
-11.8435
8.9168
-6.7971
-8.4116
-0.5031
13.9932
17.7703
-10.5586
-2.3643
-16.6226
-19.6882
-3.3684
-7.5082
-3.109
3.4311
12.5668
10.0048
-15.1714
8.9168
16.0399
6.3014
-23.712
-7.9752
-1.3481
-0.5317
13.3268
12.6431
-2.4361
2.5614
8.1691
4.9143
22.8699
22.731
2.0822
-18.1149
-0.0938
14.7271
8.5108
-13.4701
21.6292
9.4453
6.3002
23.7278
-10.6558
-10.6421
22.0325
-19.0728
-6.6686
-16.6685
14.2452
13.5129
2.8359
6.048
3.6004
-3.0312
11.9912
-4.8718
-20.0284
-23.3367
17.5398
-5.1949
10.0811
7.7785
4.893
5.601
14.3034
19.7555
-8.3795
-12.3073
10.4336
-3.5668
-10.4884
-9.1974
19.052
-8.172
14.2835
9.5043
6.2724
-16.8896
-17.1216
22.5769
21.907
-12.6323
19.4564
6.2999
15.8598
-7.3165
15.3822
-8.6803
-2.8553
-6.2795
13.7373
13.1895
22.3649
16.3619
12.4495
-13.0106
8.8254
-18.6392
10.3793
8.7617
-16.4422
-11.6084
-19.7539
-6.8461
7.9982
17.2194
14.5318
12.9758
11.1706
17.0027
1.8503
4.5145
7.1941
-4.757
-16.4746
14.282
1.4886
-22.4074
-17.3398
2.6468
6.1442
23.227
10.4214
-4.9859
-6.791
-3.8094
9.0633
-13.5784
-12.8383
19.2733
-3.4157
-11.1842
-20.6602
11.9366
8.1427
-10.1425
28.7649
-4.4804
11.7353
-21.0675
-13.8483
21.0312
21.0525
3.8279
-13.8515
-15.292
15.0343
-16.6684
13.78
1.9327
17.6208
7.6203
-17.2742
2.6039
-15.579
-25.9048
-13.9278
21.0048
-13.9812
-5.0576
-8.9121
-23.9379
-0.5943
-25.9506
2.7017
-25.7934
16.6792
5.1829
6.2419
-14.6419
-19.8972
-12.353
0.5014
-1.9584
-5.5505
21.1181
19.4808
-13.853
-14.6724
11.9
19.8806
-22.2517
-1.1818
4.4671
-2.2867
9.0907
14.1279
-21.0385
-22.1311
-25.2486
10.368
69.9049
47.4417
69.1236
61.5764
25.5661
43.0211
36.9571
67.4955
60.1115
40.7841
17.7794
0.8101
17.1025
-5.4345
14.0925
2.5766
-23.508
6.9545
12.7561
17.3232
-6.2539
1.0064
-26.1001
-16.6241
8.926
-20.0117
19.7341
-21.5071
-17.146
8.9794
-5.4025
-24.0828
1.9739
-14.8815
12.6554
-8.613
19.3877
23.1476
-17.445
15.3913
-10.6608
8.0042
-14.1645
7.5897
-15.8066
-1.0443
21.4508
49.3202
60.3785
34.2013
10.5404
-14.5092
17.9488
2.4332
17.0622
2.9779
-21.3514
7.899
6.7973
8.8344
52.3247
31.8422
25.5157
4.0451
-15.8681
8.2849
-15.527
-21.3015
7.6412
10.7846
-18.0234
21.5332
-16.5264
10.7815
-0.402
15.5378
11.7337
-7.4563
12.6004
-22.0625
-8.4924
-11.2849
8.3232
15.8735
18.8918
-16.502
-8.2834
16.8669
-0.8003
-17.7487
7.7526
-12.3715
16.8393
-25.0365
-17.506
-11.1154
-12.3302
48.162
8.0059
-19.0747
0.5731
0.5029
-23.1856
-13.5539
16.2352
2.6544
-14.4558
-23.0864
8.2408
-3.7346
16.2336
-10.9522
-7.0703
24.652
65.5382
-12.9339
-17.9258
22.4024
-9.8368
10.6503
-23.7456
-1.4808
-1.313
-0.2814
9.7744
11.9107
18.3348
6.335
8.192
17.0363
-13.7111
-0.9483
0.538
-2.2667
13.2734
-15.9817
-21.5452
-26.1764
-19.4333
20.1415
-18.2493
0.1183
-25.743
22.6303
20.2057
10.8288
30.0294
-24.7649
15.1121
-7.7905
12.5119
-3.4981
-14.1979
-8.7641
-11.5
-19.6958
6.2205
-6.8902
7.6488
6.0557
6.8141
-24.5421
5.1798
-11.1796
52.0043
68.5742
-3.8349
19.7062
-18.7207
3.3594
9.9728
-18.1973
-14.3902
8.3629
-13.6074
-7.9767
-4.7921
-17.2757
-17.9425
14.1065
5.7276
8.8466
16.6838
13.1513
-25.8575
-16.0046
18.9025
16.9554
0.9805
-20.1444
-21.3378
14.4727
16.168
-8.5595
-16.6622
53.5393
54.3542
6.779
-15.0768
5.5186
6.1656
9.3853
-18.1226
0.0482
17.2774
-10.6791
10.1696
-12.8658
11.3232
-22.3158
-25.7095
-15.0371
13.7586
-16.9003
18.4127
22.6958
54.4914
-10.3418
20.2193
-1.4045
-10.229
-2.5001
18.4142
-15.2294
-10.8058
18.0571
22.2427
10.8731
-4.1222
-0.2311
1.5863
10.0353
4.8838
-0.9086
-12.7864
14.5841
20.3231
-24.62
10.9341
-25.7691
-18.5529
18.9162
2.8147
21.6598
0.155
-5.3765
-8.7534
-23.4069
-26.0269
9.3471
-17.616
15.7194
13.6197
-14.5412
20.5551
-3.2997
-0.8537
-1.3572
6.1839
10.8578
3.7851
12.6279
22.8089
8.3934
-0.4859
18.7316
46.3231
15.6823
-9.9676
13.1865
11.8405
-3.0556
-11.0056
18.6828
-6.6751
9.605
21.1792
-12.8734
16.548
-16.3372
-20.3718
-15.559
12.9499
10.3771
8.865
-2.7855
-12.6552
6.5684
-10.4075
14.5993
2.2638
17.8847
10.194
21.0968
-16.145
7.2963
-17.5442
3.6188
-24.0416
-0.8201
-9.3973
12.6508
-6.141
-25.7369
-12.3149
-21.6826
4.3269
-14.2238
-21.5971
18.3883
-16.5142
-7.9111
2.4072
-5.4086
-20.9257
-23.8143
7.162
46.1045
-15.7377
-1.5473
-25.3889
-12.614
10.3955
-5.2911
-10.6669
14.9839
-22.1937
-9.994
16.4137
-21.8687
5.2912
6.4708
21.1425
-1.0566
-4.2275
2.5461
1.5558
-11.7869
-22.856
-11.4895
18.7179
10.2444
-10.9522
23.4177
-9.8261
8.7032
-13.467
8.3263
-14.526
-23.6647
12.196
-21.8138
-12.2035
-23.6708
13.3069
5.6544
10.7479
-1.8409
5.5522
16.3527
-15.5926
5.7109
9.9011
-15.4827
-0.3272
10.5038
14.1752
50.3069
-19.4457
-21.1739
-13.8895
8.5094
-15.6796
-1.4015
-11.9716
-24.2476
11.105
-15.2508
-26.0864
3.5349
16.0811
20.9732
13.4427
-14.6312
-15.7513
-19.3845
-23.4633
16.5968
-10.7081
-11.6436
-24.2034
22.7219
-10.229
-11.143
-5.2239
-19.1617
-3.8719
0.0253
3.4708
-20.5732
22.5433
15.6752
-12.4309
-13.1664
12.7255
-16.589
-6.9604
-26.2313
3.6875
19.7646
12.6142
10.1162
16.5724
-6.054
15.7194
-18.6368
-11.4115
34.094
4.0398
-4.0164
-14.8632
18.3685
5.0562
22.0673
6.1488
19.1375
-2.2728
-5.4772
-24.2461
-15.7284
-24.1179
3.1488
-20.709
9.338
21.8811
16.9096
-13.2457
-21.2904
-25.4974
18.498
-23.2771
-0.1594
6.8446
-22.0625
-0.1502
19.0475
10.1483
5.2897
-4.0551
-23.5228
10.1772
9.8187
3.7623
-16.9476
17.6589
3.9026
-22.502
-22.8224
-10.6303
-23.7868
-0.8888
-5.935
1.4398
-21.9237
0.4891
5.4576
11.4148
39.3218
-9.8522
13.5852
10.6549
-11.4664
9.3288
0.1412
-6.3699
8.4255
-25.8712
-15.8718
-4.3313
22.8379
21.7575
11.3385
-24.2721
-18.327
-4.0398
-6.672
-4.255
-15.6963
18.0907
-17.5321
23.1339
-21.8794
22.0718
-25.711
7.9875
-16.8209
11.7306
-10.2579
11.5552
13.0246
-20.4465
-22.8163
-12.4599
-12.9634
0.9286
-15.115
-7.1924
4.5725
-7.0611
-8.8938
-20.9684
-23.7502
1.7831
-1.8867
-8.1186
-17.323
7.8395
68.9797
-15.1319
6.9123
12.5058
-5.4374
-14.7396
4.0186
-4.1817
-16.1068
-18.8184
-26.0162
8.9306
-13.0412
10.4977
23.3292
-9.466
-21.2797
-0.9788
-4.2748
21.26
7.3573
7.0247
20.7304
5.1203
5.9626
-25.1998
-15.6551
-7.9141
-18.8962
-11.761
-13.4761
-19.1846
10.8487
15.9987
-12.0738
15.6416
10.0735
-5.1919
9.2403
16.8471
-4.113
14.4926
-17.4161
8.308
10.9387
-20.7517
-26.0925
-18.4354
-12.527
-3.2326
73.4826
10.1756
10.9026
21.7453
13.8136
4.8258
8.7368
5.3492
-7.5082
19.0475
-6.3287
-22.7843
18.4722
1.6214
8.6422
11.5094
-23.8875
2.7033
16.6807
3.6432
0.6814
-23.033
-2.8573
9.2022
17.6375
-3.5988
14.5734
21.6324
15.8033
12.0328
-12.2218
-9.7346
-0.4462
-21.3621
-26.0711
5.2394
-9.6979
-18.4827
-6.4675
0.8676
22.6273
-20.6419
8.2378
4.0385
5.3385
2.2989
-17.0681
-20.8067
-7.203
18.4123
42.5205
-3.7561
-12.1969
13.3023
-10.4043
-25.5981
14.3552
-19.943
-10.1801
-25.7217
1.6122
-13.3647
-21.9633
-3.1868
-10.6516
6.7256
19.9127
8.5964
10.2383
19.9783
18.5195
-0.6461
23.0499
-9.9741
-13.7081
-3.2524
-24.4964
10.2062
14.1508
-9.7437
-13.1313
-19
-4.5998
-9.2936
-22.3738
8.2836
-12.7559
-22.9979
-15.4781
-13.5631
17.6955
6.6371
-14.5031
5.3874
20.7138
-8.4802
-21.565
-4.374
7.3802
14.9148
36.6213
0.0938
6.9214
-3.3775
19.6213
-11.6374
-21.6169
16.194
8.9153
-1.989
-3.2097
-26.2893
-16.2197
-25.7873
-13.4181
-13.2671
-15.263
-10.3403
20.1492
-8.2788
16.4793
13.0155
18.0799
20.964
23.1842
13.6136
-7.6684
7.307
-19.4516
16.6411
-15.0692
-6.6964
-25.3814
-2.1309
-7.9675
-3.701
12.7637
-17.999
-25.8788
6.042
-12.9253
-16.3082
-10.5906
16.3908
-14.4558
5.308
6.7943
17.6436
20.4829
-13.9112
28.2303
1.8904
-24.8717
-22.4257
0.9165
2.3279
21.9604
1.9495
-16.5188
-15.089
-14.0178
11.3843
-9.7758
-9.1089
-4.638
-16.5798
-22.7934
9.8202
-18.5361
-1.1177
2.1845
-7.2305
-7.1452
-19.4547
14.6284
12.9315
20.7397
1.0553
-11.7747
-0.6339
1.9693
-0.8552
-21.5223
-4.5479
1.9418
18.2173
13.2138
18.6156
-9.3241
6.3472
-1.1863
22.8791
11.5964
-8.2208
-0.0175
-9.1898
11.9366
22.1752
-19.3378
53.2387
-19.7294
-11.9391
-19.6943
-14.3337
11.6865
-2.8236
9.1274
15.7896
-5.4986
8.5369
2.1295
-19.357
-6.9299
9.3075
-17.265
22.966
14.9473
-6.6522
-6.965
20.5215
-10.2564
8.0654
6.8415
-22.4318
0.8096
-9.9314
-20.0147
8.2119
-9.4008
-22.1297
16.4763
13.2154
-9.5041
15.7042
15.2876
-23.1673
-21.4399
-12.498
23.6527
-14.7701
-11.465
-4.8531
8.8207
-6.9665
12.4234
19.9767
-20.2848
-11.1999
61.1352
28.4943
16.5159
-7.6467
-18.8611
-16.3174
-8.8601
13.1559
23.6054
8.8039
-14.9166
-8.9441
2.3645
4.7648
-8.41
15.0266
20.0134
23.0896
2.9886
-8.8144
-17.9654
0.7562
23.0118
-10.6669
10.9035
-1.4061
7.6763
0.9011
-20.5808
-14.5397
18.1895
9.135
4.4627
-17.7075
-0.9559
-1.9661
-21.6017
5.0837
-2.6512
1.6214
-23.474
20.845
9.1839
20.1171
15.0099
5.6193
7.8075
3.7603
8.0557
24.2095
25.1342
-13.5494
11.2301
-17.7208
-13.9293
4.1881
-2.9671
-23.1017
-12.8642
1.4276
15.0251
5.3797
14.1935
3.1671
-0.1548
14.488
-4.9203
-10.9049
-3.376
-10.5311
-12.8307
22.7677
-17.3138
19.3709
-14.9457
8.9824
1.0766
-22.2883
-14.204
-17.6846
0.4231
-19.0309
15.315
3.1687
7.0262
19.5312
5.7658
12.901
7.7129
8.3934
-25.2975
-25.3951
-8.2452
-25.331
-6.9772
1.1026
18.3649
22.7427
50.5392
43.482
2.4774
-0.6492
-13.6374
13.9996
-8.2498
18.0694
-14.6663
4.0491
-16.1312
13.6365
10.2841
6.6096
1.4779
12.3868
-23.0269
14.6909
11.8664
0.0741
-10.9095
7.5847
-18.9054
-8.2788
-13.058
-16.7599
-16.5006
-16.4227
-2.758
-9.8414
13.2611
2.6285
-9.9974
-14.4466
13.3828
-7.4472
-19.0427
21.3424
-20.0452
0.1428
26.1169
36.9295
40.6512
6.8918
-14.3369
-0.837
23.7441
-14.6104
20.2264
29.5806
66.5585
3.5944
7.101
-12.6308
-17.3057
-4.3573
-20.3183
22.9492
16.5037
17.6604
-17.3291
15.37
9.5409
-1.1665
-5.2865
3.2816
1.5283
22.2153
-22.9613
-2.5703
0.0939
20.3048
-9.0403
12.4494
-9.347
-26.1062
7.7891
17.1172
-8.0957
-23.181
21.8475
-20.384
-23.7303
5.0848
-5.082
8.5975
-0.2132
10.0262
-2.99
23.1634
18.375
7.7907
71.597
31.9779
58.7717
53.1544
66.5764
27.0478
32.6632
-13.2167
-9.2386
3.5105
-18.4766
3.7796
-14.314
-17.5581
19.2642
9.9743
20.9762
9.0206
-9.9894
11.8329
-23.5305
-6.2127
-21.4674
-21.9526
1.7236
-11.381
5.4118
-6.1456
23.2804
-7.8775
15.0877
-19.8484
-9.2356
-6.5576
0.8812
-1.4991
18.1609
-20.3519
-9.8994
-19.9781
3.335
7.6423
-19.8331
-7.6913
-17.2212
21.96
2.2374
-17.4317
10.2033
9.0375
6.4739
22.496
51.1985
-25.7049
-24.7603
-13.4944
-9.2402
-2.195
-8.6308
-21.7797
-17.8932
-23.1154
-10.2245
6.4434
-4.6135
-24.5696
-16.0366
14.0974
-23.7044
-2.5062
-11.2818
-8.993
10.0384
-11.1018
-21.4933
3.9408
1.3849
-6.7407
23.6908
13.2322
-19.8881
13.9417
11.0638
-7.2153
-3.6096
8.5567
16.6502
-7.0123
-10.6623
17.5307
-23.7746
9.5359
-17.6312
3.3167
-26.065
2.8711
-4.8653
1.8243
-5.7275
16.4798
23.8791
12.6019
7.751
57.5224
73.6087
-19.6342
-13.413
24.0439
-3.2885
-12.5819
13.6991
14.0287
0.4083
-20.4786
1.3208
11.7963
17.874
16.7967
4.5802
4.539
-11.175
-13.8134
10.307
13.7174
-21.9969
-18.9008
0.4281
-17.8433
16.1451
6.718
-7.7737
-15.5056
-25.1418
-13.3937
-25.4029
-0.9284
7.2459
22.139
-12.9848
5.2882
12.0312
-19.478
7.3039
-4.4625
4.0568
18.582
0.541
15.7331
-1.0688
2.0532
-7.5891
24.7138
-5.146
0.1795
69.1022
30.7984
8.2165
2.9246
4.6749
1.7359
-1.1862
-17.7822
14.404
23.3063
-11.7427
13.9554
19.0246
0.863
8.6147
17.3293
-5.0347
-23.3336
-15.1241
-16.1297
-9.6903
12.8491
-11.7137
1.9296
8.7871
16.9096
15.3166
0.1809
-14.912
-2.4208
-23.8815
12.7239
-4.7371
14.9259
1.4703
-6.5011
22.6578
13.7555
-3.9975
-22.5554
-25.2532
4.3833
8.1554
21.9055
21.1548
-20.1765
-24.1607
23.0592
-0.6348
-16.5203
-12.1562
39.1726
0.0833
16.3664
14.3903
8.192
2.6804
-2.0424
-18.5621
-20.1566
-10.8836
19.7189
17.3781
-13.1542
23.6039
5.3538
-23.5091
11.5384
-6.8734
16.873
-20.9669
0.5303
12.5623
20.5139
18.6965
20.5261
13.4748
1.5909
-25.4897
4.4611
11.9153
-7.8593
-16.4059
14.5567
-24.4506
1.8014
7.722
-26.1917
-15.3916
11.8191
1.5726
-7.4808
12.5668
-21.7756
15.4493
-8.6099
5.1005
1.2552
-9.5269
-1.2285
5.5903
4.2597
30.0934
16.6167
-5.4833
-15.2065
-6.9177
2.5017
-20.3658
-22.8865
-15.7223
-14.3154
-21.9313
-9.8231
-26.155
-25.447
7.2032
10.1864
7.6961
-6.9711
-13.2808
-18.2523
17.8557
22.4976
15.0694
6.7042
-17.7853
4.0095
19.8928
-25.2898
-10.9339
-24.2554
1.3208
14.6024
-10.7722
-1.1375
13.638
-19.3631
-7.2157
-5.8709
5.6514
12.6538
-1.1451
-2.1095
15.0495
-15.7742
-0.6156
6.9163
-12.907
-20.9403
18.7931
17.9167
59.7254
6.9116
12.2861
-13.1236
7.8166
-16.1252
-6.5789
9.9697
-25.3188
18.1166
8.1859
2.6117
23.1522
-18.1058
-25.8529
-21.765
-10.4807
11.7657
21.5347
3.3167
-22.1068
9.7881
-23.9837
-19.7507
17.8389
2.0395
-9.9467
-15.3957
8.839
-13.5265
5.3552
8.3461
2.4971
-15.6124
5.7261
-14.4237
2.7654
-15.4324
-11.1262
2.3493
2.7323
-5.8221
22.0093
17.1416
15.4798
-14.5534
7.0277
-6.2813
18.5181
3.2134
64.1232
27.1851
-14.8952
15.4005
-12.3958
-20.4528
7.983
-8.5184
14.7657
13.3939
17.6177
12.9956
2.5858
-17.9944
-1.9264
15.1701
8.1005
1.3208
16.6365
-22.2746
22.4457
-17.9608
13.8715
-14.0819
-6.0235
-8.2895
-25.7339
-0.1182
-23.4999
-8.6954
22.5478
1.931
16.0046
23.0652
17.3827
21.6934
18.7159
1.1804
-16.412
20.729
-18.5117
-18.1332
10.1681
-20.2985
4.5496
14.398
2.453
-1.8379
18.5959
0.8499
60.7102
-15.9956
12.0633
7.7434
-5.5138
-3.5318
-23.4114
-18.6856
-2.9671
-4.8684
-14.7365
-23.9974
2.0898
8.7764
19.3008
14.7062
16.3878
16.1772
21.7148
7.159
19.3282
-21.7329
-12.7437
11.427
-15.205
4.1819
21.1792
-11.1689
22.5952
8.1813
-25.3402
-15.6844
9.8293
-3.225
36.5253
-4.023
7.5313
-0.7259
11.4132
-26.2435
-17.1383
-13.557
0.0802
9.8309
-17.8128
-25.4745
1.5893
-13.7371
-24.6535
-18.124
56.2286
23.7075
16.432
22.9035
17.9685
6.2831
-8.6359
-0.6599
-23.738
-3.5637
-2.3765
-9.6445
4.0095
20.2835
-23.5991
-11.6847
1.4871
21.0708
-7.4808
-9.91
-20.9257
-10.3419
-17.5976
-15.6231
1.7709
12.8202
15.4447
-1.1375
3.9149
10.31
-10.9507
1.931
6.9437
12.2556
49.4972
-16.2564
-0.6202
2.6601
-18.6963
23.3918
7.6549
-13.853
-6.7758
10.1299
22.6135
-12.2722
-16.8042
3.8202
7.4703
61.964
16.7271
-12.4106
-0.7331
-17.5549
-2.337
-5.1965
-14.7793
12.8156
-19.1739
7.3863
11.9809
-7.7722
3.8431
-16.412
10.6137
-24.3453
-17.5198
10.223
-4.8867
22.7951
7.6045
-20.1368
17.2743
14.7169
1.6473
3.2557
-14.2894
-21.9572
2.3416
-10.6043
-18.147
24.8097
19.9939
7.1558
27.5376
-11.6374
-16.7827
18.1071
9.3777
-4.5266
-16.1343
-3.994
0.5578
20.2133
17.6421
12.2113
-25.151
2.1661
-13.2961
68.8734
8.8528
23.5356
-25.1815
17.3978
21.0983
-3.2951
-8.2987
-24.2003
-12.4003
20.8282
7.5359
-13.5402
12.8858
-22.0244
22.7204
-25.9216
21.3073
-23.535
-6.8033
3.1824
-2.7473
4.2643
6.6554
-19.0534
-16.5249
15.2754
-20.0818
-3.727
20.1278
-6.5423
22.8516
14.9487
-16.6572
21.1424
35.863
-19.2563
-0.6323
3.6917
8.7627
4.1453
11.6452
-21.5055
-25.9689
-18.2568
2.8711
0.0405
21.8719
6.3716
7.8472
45.4214
-13.4999
-4.9586
-14.0819
-9.7331
7.8472
-1.2565
13.6289
-18.768
-8.2864
-4.8363
-19.2136
9.0175
-25.0365
-17.5885
-2.4055
4.2902
8.0165
8.7703
-4.4121
18.2616
-25.2349
-15.0204
-19.7339
-3.7239
-21.3499
7.2902
18.1807
-2.2056
-11.027
-0.2479
16.3023
-10.4899
24.3886
14.8054
23.1108
59.9803
22.8608
5.4434
-17.0315
4.7205
5.6254
13.5831
5.2287
16.1421
3.6539
21.9421
-25.1235
16.8669
37.7185
-13.5463
25.3256
-18.5852
-11.9915
-14.6908
4.9555
2.2073
-0.228
-9.5438
-10.7569
-7.5586
22.9172
20.0515
11.6727
16.6243
0.6814
11.7078
-15.7742
-10.6944
12.8736
-19.3937
22.5174
5.1844
-24.1835
1.539
5.9153
-10.0596
-3.9116
-21.0783
-26.2756
-7.0306
-1.4274
-6.1151
-4.191
24.5688
-25.8483
39.0521
-13.5416
7.1437
16.5415
3.9103
10.5587
12.9987
-0.8476
3.4159
-1.9783
-19.7324
-4.4365
54.6945
35.1245
0.1645
23.6303
19.1099
2.3523
-15.1195
8.015
4.3604
9.3731
13.3359
16.0032
-25.3417
-7.2641
-0.6889
-6.6552
6.4677
-3.0708
14.5444
-15.7772
14.0363
13.7891
4.7465
12.8629
15.634
-9.3195
-3.7087
19.6944
6.3029
18.4813
13.5618
15.5821
-23.5762
-17.8708
8.4911
-0.5653
-4.2658
-17.3804
25.6836
56.3043
12.8828
5.39
-22.9369
3.6905
0.7653
19.5663
-14.587
-10.8378
-5.0866
35.8401
57.1817
-2.3974
-15.3984
16.2184
21.495
19.4076
-11.0819
2.2302
-13.0367
13.1192
5.4835
5.2378
-17.5671
-24.5543
-14.3306
23.0286
-25.5737
2.1539
-18.8199
8.5231
5.0746
-10.8637
12.457
1.0171
-20.3306
-23.9898
19.1649
-19.0641
-16.3861
1.5176
-24.7466
-19.0412
-19.6714
16.0444
-17.3932
11.2866
16.6762
27.2049
-11.0297
-11.5104
35.2684
30.5646
44.0385
26.3443
32.4266
38.2297
46.1157
29.2634
36.3284
39.8167
7.4599
25.7308
14.1492
7.3238
-15.0585
12.5684
-22.4852
-23.6159
12.0984
-7.3663
9.0633
-2.5383
8.8299
1.1667
1.452
-26.1459
-3.5851
5.7917
-17.6053
5.6498
-0.0907
-19.5981
8.073
15.7362
1.3635
1.7175
4.6961
-18.6353
-23.6434
-4.0505
9.7668
16.6197
-22.1068
-6.6262
-10.3846
-23.9592
6.7164
23.6191
-15.2279
-25.2074
-12.283
16.3028
16.321
1.2123
8.0913
-1.9997
14.4254
-16.2915
14.1095
1.1955
-6.2355
8.4998
-10.034
12.576
16.8547
14.8939
3.1656
21.1334
4.0095
14.6513
21.1044
13.0597
-1.078
-5.8892
11.3186
-6.9543
-2.2041
8.8268
-0.3333
-18.9923
23.4253
17.7825
2.0837
-24.5513
16.3618
16.1467
7.603
10.6686
-5.4635
12.6447
-22.5233
15.6248
7.9128
21.8719
-0.5164
7.2795
-10.2961
16.8669
11.4667
-23.77
-19.2533
12.2449
-16.8225
-2.3734
-21.4109
23.2148
20.4833
-26.2008
-12.1791
20.7809
-18.8091
-4.3648
22.4727
-22.3391
14.3762
22.6497
-8.2304
-19.9938
21.2474
-22.766
9.6874
-10.9416
-16.5737
-10.1389
15.9788
-15.7528
15.9178
7.4474
10.3253
-16.9583
4.5969
-5.4849
14.903
-3.3302
7.513
-23.2527
-21.826
-21.797
-4.9538
-20.8433
-8.3597
-21.4353
13.2032
-7.5357
21.9223
6.4982
-15.118
-24.4674
-15.2523
12.8934
-11.7915
-23.3733
12.3883
-5.288
-24.0279
-18.6429
-8.8861
-11.1292
-24.7634
20.0713
20.2346
1.3742
-18.797
-7.4518
19.2809
-7.9904
-15.646
-7.2137
-15.1012
9.927
-5.0179
-8.3032
-25.9918
0.4052
4.1254
10.5236
14.7978
-21.8718
-4.9981
-7.203
22.1054
-12.7269
-6.0052
7.6412
18.7667
-6.2707
-24.7558
-7.7753
-10.5174
-20.2512
7.9235
16.2108
18.7606
-13.6241
10.2413
-24.0416
-10.5036
-26.0879
-0.7362
1.3635
-6.2081
-4.2153
0.5777
-16.9384
-17.5015
6.0878
6.898
2.8971
5.1341
-3.8536
-0.3486
-24.5986
16.6655
-19.6241
22.6212
-16.8728
2.7613
-23.2054
21.6873
13.6396
0.0649
2.45
-10.232
-19.0183
13.0445
-20.8769
-19.0183
-10.5616
3.985
19.5892
-16.8911
22.3633
7.6991
-10.2549
12.428
13.957
-2.5062
16.9646
19.9691
-13.261
3.9789
-10.0916
23.256
12.5684
13.2642
20.1919
2.6102
-19.9964
-3.8811
11.1599
-23.9501
-24.1668
-5.3536
4.1056
-8.1201
13.5724
18.0388
-2.7428
3.01
16.7372
-26.0162
7.8075
12.0801
-10.2656
-12.7238
22.3404
1.4474
-15.8489
-17.8128
5.9474
-12.9008
-6.7376
-19.8102
15.3379
10.5542
-17.4222
-10.4472
-13.7279
7.8075
-10.7508
-11.5931
-9.3683
==========================================
# 4
3.5916
-4.8987
-25.7962
-0.1073
-12.8732
-2.3565
-20.9041
-18.2582
-0.24
-8.0665
-20.5501
-8.3488
5.1862
16.0019
-1.2014
21.1611
17.3752
-12.8472
-17.3914
16.7054
23.511
-10.6438
17.3829
-21.4367
18.39
-23.6584
2.5921
1.3225
14.2746
-1.7446
1.9954
-23.8537
15.3259
-15.3665
-24.078
0.1949
20.63
-8.4358
21.0817
13.4551
-5.094
-4.1952
19.4291
8.3524
20.9642
-6.3117
22.7084
-17.5852
22.9372
-12.365
-25.8176
-20.6768
-25.5933
18.0589
-5.8661
-11.3579
-19.5644
23.5079
-19.2943
-0.4384
-2.4069
-13.157
2.6272
-21.0399
-18.9723
0.2559
-14.5929
19.0934
22.6641
6.944
17.5385
-24.7952
19.5619
2.2701
-21.7174
-11.5624
-13.4759
2.2014
13.6184
14.2547
2.0031
11.8453
11.859
1.7803
1.3607
1.8917
5.589
-5.68
6.5671
-24.2139
1.3851
-3.6261
6.3855
-14.5624
13.9679
-22.514
-23.9026
-21.7419
6.2848
8.209
0.8571
-16.6086
12.1322
-1.4943
-8.2984
19.8869
-7.154
-16.0761
8.3265
-15.3345
4.6445
-20.1762
-22.369
3.1063
-21.8304
-1.0213
22.156
-0.0005
-14.3845
1.6835
-14.3832
21.9704
3.5662
-19.7469
-19.5363
-19.5055
-15.6632
-15.5487
20.0541
17.7973
-0.0081
-4.27
-16.8482
-0.414
-18.661
16.4215
-25.3766
21.274
7.7558
23.3889
13.1408
23.2729
11.7171
-6.1667
18.1947
18.802
13.4612
12.3855
-25.1111
10.5895
5.7019
23.1829
8.9384
22.1071
-8.8066
23.4606
-12.8427
2.3373
-0.324
18.9485
-17.4799
-13.1127
-14.2221
-13.5965
17.804
23.2623
-16.7496
11.7833
-23.6679
-7.487
-24.7343
11.7674
-2.1537
-10.9277
-16.6194
21.7542
-13.4244
-20.4208
15.6859
8.8294
16.7765
19.7261
12.9394
15.6326
2.3907
-10.4882
15.2298
14.0136
3.3032
13.15
21.5303
-5.5716
21.2404
10.4079
-9.2918
11.5432
23.3798
11.2181
13.5665
-23.8141
2.5463
-13.8498
6.2451
-18.6366
-19.5567
-7.0182
1.791
-16.1798
-5.828
23.3538
-8.5853
-13.4942
-19.865
7.3423
-9.1627
-8.9964
-5.651
8.7599
-7.7549
24.2956
-15.9475
19.7759
-0.1389
-18.4927
-5.1348
-17.0996
0.4577
-20.1819
-11.4435
9.9168
-5.5971
-7.2116
0.2969
14.7932
18.9703
-9.3586
-1.1643
-16.2226
-19.2882
-2.9684
-7.1082
-2.709
3.8311
12.9668
10.4048
-14.7714
9.3168
16.4399
6.7014
-23.312
-7.5752
-0.9481
-0.1317
13.7268
13.0431
-2.0361
2.9614
8.5691
5.3143
23.2699
23.131
2.4822
-17.7149
0.3062
14.7271
8.3108
-12.8701
22.2292
8.8453
0.1002
17.5278
-16.8558
-16.8421
15.8325
-25.2728
-12.8686
-21.8685
9.0452
13.9129
2.6359
7.448
4.0004
-2.8312
11.9912
-4.8718
-19.6284
-22.9367
17.9398
-4.7949
10.4811
8.1785
5.293
6.001
14.7034
20.1555
-7.9795
-11.9073
10.8336
-3.1668
-10.0884
-8.7974
19.452
-7.772
14.6835
9.9043
6.6724
-16.4896
-16.7216
22.9769
22.307
-12.2323
19.8564
6.6999
16.2598
-7.9165
14.9822
-13.0803
-9.0553
-12.4795
13.9373
13.3895
22.5649
16.5619
12.6495
-12.8106
9.0254
-13.6392
9.5793
2.3617
-22.8422
-10.8084
-19.1539
-6.2461
8.1982
17.6194
14.5318
13.3758
11.5706
17.4027
2.2503
4.9145
7.5941
-4.357
-16.0746
14.682
1.8886
-22.0074
-16.9398
3.0468
6.5442
23.627
10.8214
-4.5859
-6.391
-3.4094
9.4633
-13.1784
-12.4383
19.6733
-3.0157
-10.7842
-20.2602
12.1366
8.1427
-16.3425
22.5649
-9.8804
11.9353
-20.8675
-13.6483
21.0312
21.0525
3.8279
-13.8515
-15.292
15.0343
-10.8684
14.18
2.3327
17.6208
1.6203
-22.2742
-2.5961
31.821
-25.7048
-13.5278
21.0048
-13.5812
-4.6576
-8.5121
-23.5379
-0.1943
-25.5506
3.1017
-25.3934
17.0792
5.5829
6.6419
-14.2419
-19.4972
-11.953
0.9014
-1.5584
-5.1505
21.5181
19.8808
-13.453
-14.2724
12.3
20.2806
-21.8517
-0.5818
4.8671
-8.0867
2.4907
14.5279
-20.0385
-21.1311
-25.2486
10.368
23.5049
1.0417
22.7236
15.1764
-20.8339
-3.3789
-3.6429
20.6955
13.3115
-5.8159
18.1794
0.6101
16.3025
35.9655
9.0925
2.7766
-23.508
7.3545
13.1561
17.7232
-5.8539
1.4064
-25.7001
-16.2241
9.326
-19.6117
20.1341
-21.1071
-16.746
9.3794
-5.0025
-23.6828
2.3739
-14.4815
13.0554
-8.213
19.7877
23.5476
-17.045
15.7913
-10.2608
8.4042
-19.3645
0.7897
-15.8066
-0.8443
21.8508
3.7202
13.5785
-12.1987
10.9404
-14.1092
18.3488
2.8332
17.4622
3.3779
-15.1514
8.299
7.1973
8.6344
5.5247
-13.5578
-21.4843
50.2451
-16.6681
3.0849
-15.127
-21.3015
8.0412
11.1846
-17.6234
21.9332
-16.1264
11.1815
-0.002
15.9378
12.1337
-7.0563
13.0004
-21.6625
-8.0924
-10.8849
8.7232
16.2735
19.2918
-16.102
-7.8834
17.2669
-0.4003
-17.3487
8.1526
-11.9715
11.6393
-24.6365
-17.306
-10.9154
-11.9302
2.562
8.0059
-18.6747
0.9731
0.9029
-22.7856
-13.1539
16.6352
3.0544
-8.2558
-22.6864
8.6408
-3.5346
16.2336
-9.9522
-7.2703
25.052
18.1382
-13.7339
-23.3258
16.8024
-9.4368
11.0503
-23.3456
-1.0808
-0.913
0.1186
10.1744
12.3107
18.7348
6.735
8.592
17.4363
-13.3111
-0.5483
0.938
-1.8667
13.6734
-15.5817
-21.1452
-25.7764
-19.0333
20.5415
-17.8493
0.5183
-25.343
23.0303
20.4057
11.2288
-16.3706
-23.5649
16.3121
-7.3905
12.9119
-3.0981
-13.7979
-8.3641
-11.1
-19.2958
6.6205
-0.6902
8.0488
6.2557
7.2141
-23.5421
5.5798
35.4204
5.6043
22.3742
-4.4349
13.9062
-18.3207
3.7594
10.3728
-17.7973
-13.9902
8.7629
-13.2074
-7.5767
-4.3921
-16.8757
-17.5425
14.5065
6.1276
9.2466
17.0838
13.5513
-25.4575
-15.6046
19.3025
17.3554
1.3805
-19.7444
-20.9378
14.8727
16.568
-8.3595
-16.2622
7.1393
7.9542
7.179
-13.8768
5.9186
6.5656
9.7853
-17.7226
0.4482
17.6774
-10.2791
10.5696
-6.6658
11.7232
-22.1158
-25.3095
-13.6371
13.7586
29.6997
18.8127
-23.7042
8.0914
-11.3418
14.8193
-1.0045
-9.829
-2.1001
18.8142
-14.8294
-10.4058
18.4571
22.6427
11.2731
-3.7222
0.1689
1.9863
10.4353
5.2838
-0.5086
-12.3864
14.9841
20.7231
-24.22
11.1341
-25.3691
-18.1529
19.3162
3.2147
22.0598
0.555
-4.9765
-8.3534
-23.0069
-24.8269
9.7471
-17.216
16.1194
14.0197
-14.1412
20.9551
-2.8997
-0.4537
4.8428
6.5839
11.0578
4.1851
14.0279
22.8089
54.5934
-0.0859
19.1316
-0.0769
15.8823
-16.1676
13.3865
12.2405
-2.6556
-10.6056
19.0828
-6.2751
10.005
21.5792
-12.4734
16.948
-15.9372
-19.9718
-15.159
13.3499
10.7771
9.265
-2.3855
-12.2552
6.9684
-10.2075
14.9993
2.6638
18.2847
10.594
21.4968
-15.745
7.6963
-17.1442
4.0188
-22.8416
0.3799
-8.9973
13.0508
-5.741
-25.3369
-11.9149
-21.2826
4.7269
-8.0238
-21.1971
18.5883
-16.1142
-6.5111
2.8072
40.7914
-20.5257
-23.4143
7.362
-0.4955
-20.9377
-2.3473
-25.1889
-12.214
10.7955
-4.8911
-10.2669
15.3839
-21.7937
-9.594
16.8137
-21.4687
5.6912
6.8708
21.5425
-0.6566
-3.8275
2.9461
1.9558
-11.3869
-22.656
-10.8895
19.1179
10.6444
-10.5522
23.8177
-9.4261
9.1032
-13.067
8.7263
-14.126
-22.4647
12.596
-21.4138
-11.8035
-23.2708
13.7069
6.0544
11.1479
-1.4409
11.7522
16.5527
-15.1926
7.1109
10.3011
30.7173
0.0728
10.9038
14.3752
3.7069
-24.6457
-21.7739
-13.6895
8.9094
-15.2796
-1.0015
-11.5716
-23.8476
11.505
-14.8508
-25.6864
3.9349
16.4811
21.3732
13.8427
-14.2312
-15.3513
-18.9845
-23.0633
16.9968
-10.5081
-11.0436
-23.8034
23.1219
-9.829
-10.743
-4.8239
-18.7617
-3.4719
0.4253
3.8708
-20.1732
23.7433
16.0752
-12.0309
-12.7664
13.1255
-16.189
-6.5604
-25.8313
9.8875
20.1646
12.8142
11.5162
16.9724
40.546
15.7194
-18.2368
-11.2115
-12.506
-1.1602
-4.6164
-14.4632
18.5685
5.4562
22.4673
6.5488
19.5375
-1.8728
-5.0772
-23.8461
-15.3284
-23.7179
3.5488
-20.309
9.738
22.2811
17.3096
-12.8457
-20.8904
-25.2974
18.898
-22.8771
0.2406
7.2446
-21.6625
0.2498
19.4475
10.5483
5.6897
-3.6551
-23.1228
10.5772
11.0187
4.1623
-16.5476
18.0589
4.3026
-22.102
-22.4224
-4.4303
-23.3868
-0.6888
-4.535
1.8398
24.6764
0.4891
5.6576
11.8148
-7.2782
-15.0522
12.9852
11.0549
-11.2664
9.7288
0.5412
-5.9699
8.8255
-25.4712
-15.4718
-3.9313
23.2379
22.1575
11.7385
-23.8721
-17.927
-3.6398
-6.272
-3.855
-15.4963
18.4907
-17.1321
23.5339
-21.4794
22.4718
-25.311
8.3875
-16.4209
12.1306
-9.8579
11.9552
13.4246
-20.0465
-22.4163
-11.2599
-11.7634
1.3286
-14.715
-6.7924
4.9725
-0.8611
-8.4938
-20.7684
-22.3502
2.1831
44.7133
-8.1186
-17.123
8.2395
22.3797
-20.3319
6.3123
12.9058
-5.2374
-14.3396
4.4186
-3.7817
-15.7068
-18.4184
-25.6162
9.3306
-12.6412
10.8977
23.7292
-9.066
-20.8797
-0.5788
-3.8748
21.66
7.5573
7.4247
21.3304
5.3203
6.3626
-24.7998
-15.2551
-7.5141
-18.4962
-11.361
-13.0761
-18.7846
11.2487
16.3987
-11.6738
16.0416
11.2735
-3.9919
9.6403
17.2471
-3.713
14.8926
-11.2161
8.508
12.3387
-20.3517
21.1075
-19.2354
-12.127
-2.8326
21.0826
10.7756
10.3026
22.1453
14.0136
5.2258
9.1368
5.7492
-7.1082
19.4475
-5.9287
-22.3843
18.8722
2.0214
9.0422
11.9094
-23.4875
3.1033
17.0807
4.0432
0.8814
-22.633
-2.2573
9.4022
17.8375
-3.1988
14.9734
22.0324
16.2033
12.4328
-11.8218
-9.3346
-0.0462
-20.9621
-25.6711
5.6394
-9.2979
-17.2827
-5.2675
1.2676
23.0273
-20.2419
14.4378
4.2385
5.7385
3.6989
-16.8681
25.3933
-6.803
18.4123
-9.4795
-3.1561
-12.7969
13.7023
-10.2043
-25.1981
14.7552
-19.543
-9.7801
-25.3217
2.0122
-12.9647
-21.5633
-2.7868
-10.2516
7.1256
20.3127
8.9964
10.6383
20.3783
18.7195
-0.2461
23.6499
-9.5741
-13.5081
-3.0524
-24.0964
10.6062
14.5508
-9.3437
-12.7313
-18.6
-4.1998
-8.8936
-21.9738
8.6836
-12.3559
-22.5979
-14.2781
-12.3631
18.0955
7.0371
-8.3031
5.5874
20.9138
-7.2802
-21.165
41.826
7.7802
14.9148
