==========================================
# 0
0.705495
0.638281
-0.069598
-0.06475
-0.430462
-0.657562
-0.600745
0.503348
-0.265382
0.208286
0.460032
0.191211
-0.80468
-0.050776
-0.049006
-0.171864
-0.598947
-0.575549
-0.537644
0.38052
-0.348195
-0.343354
0.907814
0.662066
0.342177
0.145181
0.289909
0.192646
-0.270393
0.216114
-0.494491
-0.212982
-0.356482
0.009682
0.607645
0.184563
0.571498
-0.152553
-0.100273
-0.87912
-0.761751
0.229405
0.118872
0.293612
0.91455
0.772905
0.244051
0.082304
0.401547
-0.85551
-0.474166
0.374967
0.007063
0.195855
0.703376
0.951166
0.130249
-0.694886
-0.474408
-0.725617
-0.359438
0.044897
-0.02782
0.253585
0.51743
0.057992
-0.359116
-0.52405
0.29698
-0.577401
-0.682241
0.222098
-0.238173
0.267573
0.225718
0.574508
0.110539
0.74957
0.918628
-0.869158
-0.587582
-0.057241
-0.573708
-0.536534
-0.225153
-0.846847
-0.592424
0.39576
0.078012
-0.302027
0.446748
-0.332554
-0.615059
-0.288366
-0.26971
-0.550462
-0.058382
-0.780124
-0.290047
0.469985
