==========================================
# 0
0.705495
0.638281
-0.069598
-0.06475
-0.430462
-0.657562
-0.600745
0.503348
-0.265382
0.208286
0.460032
0.191211
-0.80468
-0.000776
0.150994
0.028136
-0.398947
-0.425549
-0.387644
0.38052
-0.348195
-0.343354
0.957814
0.812066
0.492177
0.295181
0.489909
0.392646
-0.120393
0.216114
-0.494491
-0.162982
-0.156482
0.309682
0.607645
0.184563
0.571498
0.047447
0.199727
-0.87912
-0.761751
0.279405
0.418872
0.293612
0.91455
0.772905
0.244051
0.132304
0.701547
-0.85551
-0.474166
0.424967
0.307063
0.195855
0.703376
0.951166
0.130249
-0.494886
-0.174408
-0.725617
-0.359438
0.094897
0.27218
0.403585
0.51743
0.057992
-0.359116
-0.17405
0.44698
-0.577401
-0.682241
0.272098
-0.038173
0.617573
0.375718
0.724508
0.310539
1.09957
0.918628
-0.869158
-0.587582
-0.057241
-0.573708
-0.536534
-0.025153
-0.646847
-0.442424
0.54576
0.078012
-0.302027
0.446748
-0.332554
-0.615059
-0.288366
-0.26971
-0.550462
-0.058382
-0.780124
-0.290047
0.469985
